{"learner":{"attributes":{},"feature_names":["day_of_week","hour_of_day"],"feature_types":[],"gradient_booster":{"model":{"cats":{"enc":[],"feature_segments":[],"sorted_idx":[]},"gbtree_model_param":{"num_parallel_tree":"1","num_trees":"50"},"iteration_indptr":[0,1,2,3,4,5,6,7,8,9,10,11,12,13,14,15,16,17,18,19,20,21,22,23,24,25,26,27,28,29,30,31,32,33,34,35,36,37,38,39,40,41,42,43,44,45,46,47,48,49,50],"tree_info":[0,0,0,0,0,0,0,0,0,0,0,0,0,0,0,0,0,0,0,0,0,0,0,0,0,0,0,0,0,0,0,0,0,0,0,0,0,0,0,0,0,0,0,0,0,0,0,0,0,0],"trees":[{"base_weights":[1.5488445E-7,-9.54895E0,1.5765696E0,-9.949846E0,-6.2039185E0,3.7390592E0,-4.04441E0,-1.1021851E0,-8.556361E-1,-3.484411E-1,-8.5516167E-1,-1.4878054E0,4.477096E0,-1.9704217E0,-7.8313746E0,2.2957177E-1,-6.876489E-1,5.452057E-1,3.3473942E-1,-3.7299198E-1,-2.5690613E-2,-1.0105621E0,-5.908637E-1],"categories":[],"categories_nodes":[],"categories_segments":[],"categories_sizes":[],"default_left":[0,0,0,0,0,0,0,0,0,0,0,0,0,0,0,0,0,0,0,0,0,0,0],"id":0,"left_children":[1,3,5,7,9,11,13,-1,-1,-1,-1,15,17,19,21,-1,-1,-1,-1,-1,-1,-1,-1],"loss_changes":[4.3026E4,4.813828E2,2.98321E4,4.4346875E2,2.6389343E2,6.8423594E3,5.341078E3,0E0,0E0,0E0,0E0,4.5011924E3,1.6922441E3,1.3316395E3,9.941289E2,0E0,0E0,0E0,0E0,0E0,0E0,0E0,0E0],"parents":[2147483647,0,0,1,1,2,2,3,3,4,4,5,5,6,6,11,11,12,12,13,13,14,14],"right_children":[2,4,6,8,10,12,14,-1,-1,-1,-1,16,18,20,22,-1,-1,-1,-1,-1,-1,-1,-1],"split_conditions":[4E0,3E0,1.9E1,4E0,2E0,6E0,2.2E1,-1.1021851E0,-8.556361E-1,-3.484411E-1,-8.5516167E-1,4E0,4E0,3E0,3E0,2.2957177E-1,-6.876489E-1,5.452057E-1,3.3473942E-1,-3.7299198E-1,-2.5690613E-2,-1.0105621E0,-5.908637E-1],"split_indices":[1,1,1,0,0,1,1,0,0,0,0,0,0,0,0,0,0,0,0,0,0,0,0],"split_type":[0,0,0,0,0,0,0,0,0,0,0,0,0,0,0,0,0,0,0,0,0,0,0],"sum_hessian":[2.856E3,4.04E2,2.452E3,3.59E2,4.5E1,1.771E3,6.81E2,1.99E2,1.6E2,2.2E1,2.3E1,2.19E2,1.552E3,4.41E2,2.4E2,1.29E2,9E1,8.31E2,7.21E2,2.17E2,2.24E2,1.08E2,1.32E2],"tree_param":{"num_deleted":"0","num_feature":"2","num_nodes":"23","size_leaf_vector":"1"}},{"base_weights":[-1.6589083E-3,-8.601861E0,1.4182692E0,-8.9603E0,-5.6096916E0,3.1196518E0,-4.4329906E0,-9.9251777E-1,-7.706041E-1,-3.1511196E-1,-7.732086E-1,-1.3411068E0,3.7012494E0,-2.4000545E0,-7.0548825E0,2.0679124E-1,-6.196397E-1,4.2516232E-1,4.8652224E-2,-4.2586046E-1,-5.961999E-2,-9.1043293E-1,-5.322216E-1],"categories":[],"categories_nodes":[],"categories_segments":[],"categories_sizes":[],"default_left":[0,0,0,0,0,0,0,0,0,0,0,0,0,0,0,0,0,0,0,0,0,0,0],"id":1,"left_children":[1,3,5,7,9,11,13,-1,-1,-1,-1,15,17,19,21,-1,-1,-1,-1,-1,-1,-1,-1],"loss_changes":[3.4900938E4,3.840996E2,2.443401E4,3.591914E2,2.1566614E2,4.9368555E3,2.9306348E3,0E0,0E0,0E0,0E0,3.6542046E3,2.9738965E3,1.0468104E3,8.073369E2,0E0,0E0,0E0,0E0,0E0,0E0,0E0,0E0],"parents":[2147483647,0,0,1,1,2,2,3,3,4,4,5,5,6,6,11,11,12,12,13,13,14,14],"right_children":[2,4,6,8,10,12,14,-1,-1,-1,-1,16,18,20,22,-1,-1,-1,-1,-1,-1,-1,-1],"split_conditions":[4E0,3E0,2E1,4E0,2E0,6E0,2.2E1,-9.9251777E-1,-7.706041E-1,-3.1511196E-1,-7.732086E-1,4E0,1.8E1,3E0,3E0,2.0679124E-1,-6.196397E-1,4.2516232E-1,4.8652224E-2,-4.2586046E-1,-5.961999E-2,-9.1043293E-1,-5.322216E-1],"split_indices":[1,1,1,0,0,1,1,0,0,0,0,0,1,0,0,0,0,0,0,0,0,0,0],"split_type":[0,0,0,0,0,0,0,0,0,0,0,0,0,0,0,0,0,0,0,0,0,0,0],"sum_hessian":[2.856E3,4.04E2,2.452E3,3.59E2,4.5E1,1.9E3,5.52E2,1.99E2,1.6E2,2.2E1,2.3E1,2.19E2,1.681E3,3.12E2,2.4E2,1.29E2,9E1,1.435E3,2.46E2,1.53E2,1.59E2,1.08E2,1.32E2],"tree_param":{"num_deleted":"0","num_feature":"2","num_nodes":"23","size_leaf_vector":"1"}},{"base_weights":[-3.1446847E-3,-7.748716E0,1.275681E0,-8.069168E0,-5.0723815E0,2.8077185E0,-3.9931781E0,-8.937623E-1,-6.940223E-1,-2.849708E-1,-6.991095E-1,-1.2088726E0,3.331406E0,-2.1616004E0,-6.35538E0,1.8627122E-1,-5.583567E-1,3.8267568E-1,4.3806653E-2,-3.8355097E-1,-5.3695258E-2,-8.202249E-1,-4.7939965E-1],"categories":[],"categories_nodes":[],"categories_segments":[],"categories_sizes":[],"default_left":[0,0,0,0,0,0,0,0,0,0,0,0,0,0,0,0,0,0,0,0,0,0,0],"id":2,"left_children":[1,3,5,7,9,11,13,-1,-1,-1,-1,15,17,19,21,-1,-1,-1,-1,-1,-1,-1,-1],"loss_changes":[2.8309145E4,3.064121E2,1.9812049E4,2.909297E2,1.7625244E2,4.002665E3,2.3788486E3,0E0,0E0,0E0,0E0,2.9665942E3,2.408996E3,8.491481E2,6.556426E2,0E0,0E0,0E0,0E0,0E0,0E0,0E0,0E0],"parents":[2147483647,0,0,1,1,2,2,3,3,4,4,5,5,6,6,11,11,12,12,13,13,14,14],"right_children":[2,4,6,8,10,12,14,-1,-1,-1,-1,16,18,20,22,-1,-1,-1,-1,-1,-1,-1,-1],"split_conditions":[4E0,3E0,2E1,4E0,2E0,6E0,2.2E1,-8.937623E-1,-6.940223E-1,-2.849708E-1,-6.991095E-1,4E0,1.8E1,3E0,3E0,1.8627122E-1,-5.583567E-1,3.8267568E-1,4.3806653E-2,-3.8355097E-1,-5.3695258E-2,-8.202249E-1,-4.7939965E-1],"split_indices":[1,1,1,0,0,1,1,0,0,0,0,0,1,0,0,0,0,0,0,0,0,0,0],"split_type":[0,0,0,0,0,0,0,0,0,0,0,0,0,0,0,0,0,0,0,0,0,0,0],"sum_hessian":[2.856E3,4.04E2,2.452E3,3.59E2,4.5E1,1.9E3,5.52E2,1.99E2,1.6E2,2.2E1,2.3E1,2.19E2,1.681E3,3.12E2,2.4E2,1.29E2,9E1,1.435E3,2.46E2,1.53E2,1.59E2,1.08E2,1.32E2],"tree_param":{"num_deleted":"0","num_feature":"2","num_nodes":"23","size_leaf_vector":"1"}},{"base_weights":[-4.319564E-3,-6.9801946E0,1.1474267E0,-7.266661E0,-4.5865364E0,2.736299E0,-2.9825282E0,-8.0483294E-1,-6.2505114E-1,-2.577127E-1,-6.321115E-1,-5.553305E-1,3.372833E0,-1.4803227E0,-5.725235E0,2.3556809E-1,-5.1508105E-1,3.823121E-1,9.244124E-2,-2.724485E-1,-2.8659215E-3,-7.3895496E-1,-4.3182012E-1],"categories":[],"categories_nodes":[],"categories_segments":[],"categories_sizes":[],"default_left":[0,0,0,0,0,0,0,0,0,0,0,0,0,0,0,0,0,0,0,0,0,0,0],"id":3,"left_children":[1,3,5,7,9,11,13,-1,-1,-1,-1,15,17,19,21,-1,-1,-1,-1,-1,-1,-1,-1],"loss_changes":[2.2962398E4,2.4438086E2,1.6104675E4,2.3563867E2,1.4404169E2,3.714629E3,2.8014385E3,0E0,0E0,0E0,0E0,3.864852E3,1.633668E3,7.982205E2,5.3245166E2,0E0,0E0,0E0,0E0,0E0,0E0,0E0,0E0],"parents":[2147483647,0,0,1,1,2,2,3,3,4,4,5,5,6,6,11,11,12,12,13,13,14,14],"right_children":[2,4,6,8,10,12,14,-1,-1,-1,-1,16,18,20,22,-1,-1,-1,-1,-1,-1,-1,-1],"split_conditions":[4E0,3E0,1.9E1,4E0,2E0,7E0,2.2E1,-8.0483294E-1,-6.2505114E-1,-2.577127E-1,-6.321115E-1,4E0,7E0,5E0,3E0,2.3556809E-1,-5.1508105E-1,3.823121E-1,9.244124E-2,-2.724485E-1,-2.8659215E-3,-7.3895496E-1,-4.3182012E-1],"split_indices":[1,1,1,0,0,1,1,0,0,0,0,0,0,0,0,0,0,0,0,0,0,0,0],"split_type":[0,0,0,0,0,0,0,0,0,0,0,0,0,0,0,0,0,0,0,0,0,0,0],"sum_hessian":[2.856E3,4.04E2,2.452E3,3.59E2,4.5E1,1.771E3,6.81E2,1.99E2,1.6E2,2.2E1,2.3E1,2.87E2,1.484E3,4.41E2,2.4E2,1.76E2,1.11E2,1.253E3,2.31E2,2.37E2,2.04E2,1.08E2,1.32E2],"tree_param":{"num_deleted":"0","num_feature":"2","num_nodes":"23","size_leaf_vector":"1"}},{"base_weights":[-5.1373183E-3,-6.287903E0,1.0321742E0,-6.5439672E0,-4.147227E0,2.2812865E0,-3.263657E0,-7.247521E-1,-5.6293416E-1,-2.3306191E-1,-5.7153416E-1,-1.0170903E0,2.7113469E0,-1.7949779E0,-5.1575694E0,1.4441176E-1,-4.5219252E-1,3.121811E-1,3.1402912E-2,-3.18377E-1,-4.470468E-2,-4.4261223E-1,-8.4226954E-1],"categories":[],"categories_nodes":[],"categories_segments":[],"categories_sizes":[],"default_left":[0,0,0,0,0,0,0,0,0,0,0,0,0,0,0,0,0,0,0,0,0,0,0],"id":4,"left_children":[1,3,5,7,9,11,13,-1,-1,-1,-1,15,17,19,21,-1,-1,-1,-1,-1,-1,-1,-1],"loss_changes":[1.8626086E4,1.9486328E2,1.3170185E4,1.9085645E2,1.1771759E2,2.6993281E3,1.528939E3,0E0,0E0,0E0,0E0,1.9042778E3,1.6541279E3,5.8451154E2,5.382925E2,0E0,0E0,0E0,0E0,0E0,0E0,0E0,0E0],"parents":[2147483647,0,0,1,1,2,2,3,3,4,4,5,5,6,6,11,11,12,12,13,13,14,14],"right_children":[2,4,6,8,10,12,14,-1,-1,-1,-1,16,18,20,22,-1,-1,-1,-1,-1,-1,-1,-1],"split_conditions":[4E0,3E0,2E1,4E0,2E0,6E0,2.2E1,-7.247521E-1,-5.6293416E-1,-2.3306191E-1,-5.7153416E-1,4E0,1.8E1,3E0,2.3E1,1.4441176E-1,-4.5219252E-1,3.121811E-1,3.1402912E-2,-3.18377E-1,-4.470468E-2,-4.4261223E-1,-8.4226954E-1],"split_indices":[1,1,1,0,0,1,1,0,0,0,0,0,1,0,1,0,0,0,0,0,0,0,0],"split_type":[0,0,0,0,0,0,0,0,0,0,0,0,0,0,0,0,0,0,0,0,0,0,0],"sum_hessian":[2.856E3,4.04E2,2.452E3,3.59E2,4.5E1,1.9E3,5.52E2,1.99E2,1.6E2,2.2E1,2.3E1,2.19E2,1.681E3,3.12E2,2.4E2,1.29E2,9E1,1.435E3,2.46E2,1.53E2,1.59E2,1.98E2,4.2E1],"tree_param":{"num_deleted":"0","num_feature":"2","num_nodes":"23","size_leaf_vector":"1"}},{"base_weights":[-5.920375E-3,-5.6642785E0,9.2829937E-1,-5.8931475E0,-3.7499955E0,2.0531764E0,-2.9402714E0,-6.526392E-1,-5.0699043E-1,-2.1076906E-1,-5.167622E-1,-4.9785185E-1,2.5071063E0,-1.6166404E0,-4.647144E0,1.9332987E-1,-4.335493E-1,2.9068932E-1,2.8275365E-2,-2.867461E-1,-4.0262174E-2,-3.985734E-1,-7.6000136E-1],"categories":[],"categories_nodes":[],"categories_segments":[],"categories_sizes":[],"default_left":[0,0,0,0,0,0,0,0,0,0,0,0,0,0,0,0,0,0,0,0,0,0,0],"id":5,"left_children":[1,3,5,7,9,11,13,-1,-1,-1,-1,15,17,19,21,-1,-1,-1,-1,-1,-1,-1,-1],"loss_changes":[1.5107788E4,1.5533887E2,1.0680675E4,1.5458496E2,9.620422E1,2.2025835E3,1.2418633E3,0E0,0E0,0E0,0E0,2.6953882E3,1.4344541E3,4.7414203E2,4.4039453E2,0E0,0E0,0E0,0E0,0E0,0E0,0E0,0E0],"parents":[2147483647,0,0,1,1,2,2,3,3,4,4,5,5,6,6,11,11,12,12,13,13,14,14],"right_children":[2,4,6,8,10,12,14,-1,-1,-1,-1,16,18,20,22,-1,-1,-1,-1,-1,-1,-1,-1],"split_conditions":[4E0,3E0,2E1,4E0,2E0,7E0,2.2E1,-6.526392E-1,-5.0699043E-1,-2.1076906E-1,-5.167622E-1,4E0,1.8E1,3E0,2.3E1,1.9332987E-1,-4.335493E-1,2.9068932E-1,2.8275365E-2,-2.867461E-1,-4.0262174E-2,-3.985734E-1,-7.6000136E-1],"split_indices":[1,1,1,0,0,1,1,0,0,0,0,0,1,0,1,0,0,0,0,0,0,0,0],"split_type":[0,0,0,0,0,0,0,0,0,0,0,0,0,0,0,0,0,0,0,0,0,0,0],"sum_hessian":[2.856E3,4.04E2,2.452E3,3.59E2,4.5E1,1.9E3,5.52E2,1.99E2,1.6E2,2.2E1,2.3E1,2.87E2,1.613E3,3.12E2,2.4E2,1.76E2,1.11E2,1.367E3,2.46E2,1.53E2,1.59E2,1.98E2,4.2E1],"tree_param":{"num_deleted":"0","num_feature":"2","num_nodes":"23","size_leaf_vector":"1"}},{"base_weights":[-6.481378E-3,-5.1025105E0,8.348958E-1,-5.3070536E0,-3.3908122E0,1.6800214E0,-3.355836E0,-5.877016E-1,-4.566063E-1,-1.9060856E-1,-4.6723914E-1,2.111511E0,-6.6588897E-1,-5.5796747E0,-2.6251836E0,2.4709474E-1,-2.4738695E-2,-4.574724E-1,9.455605E-2,-4.5228416E-1,-6.0954154E-1,-2.254186E-1,-6.9832313E-1],"categories":[],"categories_nodes":[],"categories_segments":[],"categories_sizes":[],"default_left":[0,0,0,0,0,0,0,0,0,0,0,0,0,0,0,0,0,0,0,0,0,0,0],"id":6,"left_children":[1,3,5,7,9,11,13,-1,-1,-1,-1,15,17,19,21,-1,-1,-1,-1,-1,-1,-1,-1],"loss_changes":[1.2254168E4,1.23802734E2,8.693415E3,1.25206055E2,7.862256E1,2.068392E3,6.54792E2,0E0,0E0,0E0,0E0,1.4631924E3,2.0073727E3,2.7481445E1,4.88708E2,0E0,0E0,0E0,0E0,0E0,0E0,0E0,0E0],"parents":[2147483647,0,0,1,1,2,2,3,3,4,4,5,5,6,6,11,11,12,12,13,13,14,14],"right_children":[2,4,6,8,10,12,14,-1,-1,-1,-1,16,18,20,22,-1,-1,-1,-1,-1,-1,-1,-1],"split_conditions":[4E0,3E0,2.1E1,4E0,2E0,7E0,2E0,-5.877016E-1,-4.566063E-1,-1.9060856E-1,-4.6723914E-1,1.9E1,1E1,2.2E1,2.3E1,2.4709474E-1,-2.4738695E-2,-4.574724E-1,9.455605E-2,-4.5228416E-1,-6.0954154E-1,-2.254186E-1,-6.9832313E-1],"split_indices":[1,1,1,0,0,0,0,0,0,0,0,1,1,1,1,0,0,0,0,0,0,0,0],"split_type":[0,0,0,0,0,0,0,0,0,0,0,0,0,0,0,0,0,0,0,0,0,0,0],"sum_hessian":[2.856E3,4.04E2,2.452E3,3.59E2,4.5E1,2.041E3,4.11E2,1.99E2,1.6E2,2.2E1,2.3E1,1.724E3,3.17E2,1E2,3.11E2,1.496E3,2.28E2,9.2E1,2.25E2,3.6E1,6.4E1,2.88E2,2.3E1],"tree_param":{"num_deleted":"0","num_feature":"2","num_nodes":"23","size_leaf_vector":"1"}},{"base_weights":[-7.173373E-3,-4.5964622E0,7.505393E-1,-4.779249E0,-3.0660317E0,1.8075652E0,-1.9969687E0,-5.2922525E0,-4.1122934E-1,-1.7237641E-1,-4.2246205E-1,-5.8749574E-1,2.2708447E0,-1.000837E0,-3.815613E0,-4.9200186E-1,-5.710096E-1,1.495362E-1,-3.8739094E-1,2.631677E-1,3.1069523E-2,-1.9264396E-1,7.864705E-3,-5.242348E-1,-2.6176453E-1],"categories":[],"categories_nodes":[],"categories_segments":[],"categories_sizes":[],"default_left":[0,0,0,0,0,0,0,0,0,0,0,0,0,0,0,0,0,0,0,0,0,0,0,0,0],"id":7,"left_children":[1,3,5,7,9,11,13,15,-1,-1,-1,17,19,21,23,-1,-1,-1,-1,-1,-1,-1,-1,-1,-1],"loss_changes":[9.938273E3,9.864258E1,7.1275806E3,1.0141113E2,6.425403E1,1.9675142E3,1.2316987E3,3.0131836E0,0E0,0E0,0E0,1.9771909E3,1.049502E3,4.4178598E2,3.9819043E2,0E0,0E0,0E0,0E0,0E0,0E0,0E0,0E0,0E0,0E0],"parents":[2147483647,0,0,1,1,2,2,3,3,4,4,5,5,6,6,7,7,11,11,12,12,13,13,14,14],"right_children":[2,4,6,8,10,12,14,16,-1,-1,-1,18,20,22,24,-1,-1,-1,-1,-1,-1,-1,-1,-1,-1],"split_conditions":[4E0,3E0,1.9E1,4E0,2E0,7E0,2.2E1,2E0,-4.1122934E-1,-1.7237641E-1,-4.2246205E-1,4E0,7E0,5E0,3E0,-4.9200186E-1,-5.710096E-1,1.495362E-1,-3.8739094E-1,2.631677E-1,3.1069523E-2,-1.9264396E-1,7.864705E-3,-5.242348E-1,-2.6176453E-1],"split_indices":[1,1,1,0,0,1,1,0,0,0,0,0,0,0,0,0,0,0,0,0,0,0,0,0,0],"split_type":[0,0,0,0,0,0,0,0,0,0,0,0,0,0,0,0,0,0,0,0,0,0,0,0,0],"sum_hessian":[2.856E3,4.04E2,2.452E3,3.59E2,4.5E1,1.771E3,6.81E2,1.99E2,1.6E2,2.2E1,2.3E1,2.87E2,1.484E3,4.41E2,2.4E2,1.12E2,8.7E1,1.76E2,1.11E2,1.253E3,2.31E2,2.37E2,2.04E2,1.08E2,1.32E2],"tree_param":{"num_deleted":"0","num_feature":"2","num_nodes":"25","size_leaf_vector":"1"}},{"base_weights":[-7.500151E-3,-4.141925E0,6.751127E-1,-4.3054194E0,-2.7723594E0,1.3671414E0,-2.7564347E0,-4.768342E0,-3.7036183E-1,-1.558882E-1,-3.8197604E-1,1.7235392E0,-5.704481E-1,-3.9204807E0,-1.7227197E0,-4.4323707E-1,-5.145575E-1,2.0821118E-1,1.4871644E-2,-3.954925E-1,8.248031E-2,-2.845344E-1,-4.7229227E-1,-4.8058134E-2,-4.3775794E-1],"categories":[],"categories_nodes":[],"categories_segments":[],"categories_sizes":[],"default_left":[0,0,0,0,0,0,0,0,0,0,0,0,0,0,0,0,0,0,0,0,0,0,0,0,0],"id":8,"left_children":[1,3,5,7,9,11,13,15,-1,-1,-1,17,19,21,23,-1,-1,-1,-1,-1,-1,-1,-1,-1,-1],"loss_changes":[8.0658545E3,7.875049E1,5.8289795E3,8.263135E1,5.2511353E1,1.4110913E3,4.890022E2,2.5410156E0,0E0,0E0,0E0,9.7377783E2,1.5049199E3,1.5306958E2,7.233908E2,0E0,0E0,0E0,0E0,0E0,0E0,0E0,0E0,0E0,0E0],"parents":[2147483647,0,0,1,1,2,2,3,3,4,4,5,5,6,6,7,7,11,11,12,12,13,13,14,14],"right_children":[2,4,6,8,10,12,14,16,-1,-1,-1,18,20,22,24,-1,-1,-1,-1,-1,-1,-1,-1,-1,-1],"split_conditions":[4E0,3E0,2.1E1,4E0,2E0,7E0,3E0,2E0,-3.7036183E-1,-1.558882E-1,-3.8197604E-1,1.8E1,1E1,2.2E1,7E0,-4.4323707E-1,-5.145575E-1,2.0821118E-1,1.4871644E-2,-3.954925E-1,8.248031E-2,-2.845344E-1,-4.7229227E-1,-4.8058134E-2,-4.3775794E-1],"split_indices":[1,1,1,0,0,0,0,0,0,0,0,1,1,1,0,0,0,0,0,0,0,0,0,0,0],"split_type":[0,0,0,0,0,0,0,0,0,0,0,0,0,0,0,0,0,0,0,0,0,0,0,0,0],"sum_hessian":[2.856E3,4.04E2,2.452E3,3.59E2,4.5E1,2.041E3,4.11E2,1.99E2,1.6E2,2.2E1,2.3E1,1.724E3,3.17E2,1.92E2,2.19E2,1.12E2,8.7E1,1.404E3,3.2E2,9.2E1,2.25E2,8.4E1,1.08E2,1.5E2,6.9E1],"tree_param":{"num_deleted":"0","num_feature":"2","num_nodes":"25","size_leaf_vector":"1"}},{"base_weights":[-7.86957E-3,-3.7323399E0,6.070584E-1,-3.878567E0,-2.506816E0,1.4731133E0,-1.6440507E0,-4.296297E0,-3.3355567E-1,-1.4097713E-1,-3.4537002E-1,-1.08900346E-1,2.027866E0,-8.328678E-1,-3.1249585E0,-3.9930564E-1,-4.6368647E-1,1.9022302E-1,-3.3170587E-1,2.352645E-1,8.169356E-2,-2.4043582E-1,-3.483019E-2,-2.617589E-1,-5.400344E-1],"categories":[],"categories_nodes":[],"categories_segments":[],"categories_sizes":[],"default_left":[0,0,0,0,0,0,0,0,0,0,0,0,0,0,0,0,0,0,0,0,0,0,0,0,0],"id":9,"left_children":[1,3,5,7,9,11,13,15,-1,-1,-1,17,19,21,23,-1,-1,-1,-1,-1,-1,-1,-1,-1,-1],"loss_changes":[6.5455986E3,6.285498E1,4.784752E3,6.73291E1,4.2914673E1,1.555374E3,8.1667505E2,2.1396484E0,0E0,0E0,0E0,2.9806936E3,5.140679E2,3.357414E2,2.640891E2,0E0,0E0,0E0,0E0,0E0,0E0,0E0,0E0,0E0,0E0],"parents":[2147483647,0,0,1,1,2,2,3,3,4,4,5,5,6,6,7,7,11,11,12,12,13,13,14,14],"right_children":[2,4,6,8,10,12,14,16,-1,-1,-1,18,20,22,24,-1,-1,-1,-1,-1,-1,-1,-1,-1,-1],"split_conditions":[4E0,3E0,1.9E1,4E0,2E0,9E0,2.2E1,2E0,-3.3355567E-1,-1.4097713E-1,-3.4537002E-1,4E0,1.7E1,2E0,2.3E1,-3.9930564E-1,-4.6368647E-1,1.9022302E-1,-3.3170587E-1,2.352645E-1,8.169356E-2,-2.4043582E-1,-3.483019E-2,-2.617589E-1,-5.400344E-1],"split_indices":[1,1,1,0,0,1,1,0,0,0,0,0,1,0,1,0,0,0,0,0,0,0,0,0,0],"split_type":[0,0,0,0,0,0,0,0,0,0,0,0,0,0,0,0,0,0,0,0,0,0,0,0,0],"sum_hessian":[2.856E3,4.04E2,2.452E3,3.59E2,4.5E1,1.771E3,6.81E2,1.99E2,1.6E2,2.2E1,2.3E1,4.6E2,1.311E3,4.41E2,2.4E2,1.12E2,8.7E1,2.83E2,1.77E2,1.033E3,2.78E2,1.03E2,3.38E2,1.98E2,4.2E1],"tree_param":{"num_deleted":"0","num_feature":"2","num_nodes":"25","size_leaf_vector":"1"}},{"base_weights":[-7.987086E-3,-3.363261E0,5.4598516E-1,-3.4940338E0,-2.2667074E0,1.2289289E0,-1.8026986E0,-3.8709822E0,-3.004073E-1,-1.2749237E-1,-3.1227204E-1,-9.494097E-1,1.5131178E0,-2.7813568E0,-9.184137E-1,-3.5972843E-1,-4.1784474E-1,3.2002434E-2,-2.752454E-1,1.77343E-1,4.943584E-3,-1.938193E-1,-3.9470991E-1,1.676323E-2,-3.3974585E-1],"categories":[],"categories_nodes":[],"categories_segments":[],"categories_sizes":[],"default_left":[0,0,0,0,0,0,0,0,0,0,0,0,0,0,0,0,0,0,0,0,0,0,0,0,0],"id":10,"left_children":[1,3,5,7,9,11,13,15,-1,-1,-1,17,19,21,23,-1,-1,-1,-1,-1,-1,-1,-1,-1,-1],"loss_changes":[5.312224E3,5.015674E1,3.936874E3,5.4859863E1,3.507184E1,1.1782688E3,4.7601892E2,1.7995605E0,0E0,0E0,0E0,5.0442688E2,6.407781E2,2.4987244E2,7.867377E2,0E0,0E0,0E0,0E0,0E0,0E0,0E0,0E0,0E0,0E0],"parents":[2147483647,0,0,1,1,2,2,3,3,4,4,5,5,6,6,7,7,11,11,12,12,13,13,14,14],"right_children":[2,4,6,8,10,12,14,16,-1,-1,-1,18,20,22,24,-1,-1,-1,-1,-1,-1,-1,-1,-1,-1],"split_conditions":[4E0,3E0,2E1,4E0,2E0,6E0,3E0,2E0,-3.004073E-1,-1.2749237E-1,-3.1227204E-1,4E0,7E0,2.2E1,7E0,-3.5972843E-1,-4.1784474E-1,3.2002434E-2,-2.752454E-1,1.77343E-1,4.943584E-3,-1.938193E-1,-3.9470991E-1,1.676323E-2,-3.3974585E-1],"split_indices":[1,1,1,0,0,1,0,0,0,0,0,0,0,1,0,0,0,0,0,0,0,0,0,0,0],"split_type":[0,0,0,0,0,0,0,0,0,0,0,0,0,0,0,0,0,0,0,0,0,0,0,0,0],"sum_hessian":[2.856E3,4.04E2,2.452E3,3.59E2,4.5E1,1.9E3,5.52E2,1.99E2,1.6E2,2.2E1,2.3E1,2.19E2,1.681E3,2.61E2,2.91E2,1.12E2,8.7E1,1.29E2,9E1,1.427E3,2.54E2,1.53E2,1.08E2,2.03E2,8.8E1],"tree_param":{"num_deleted":"0","num_feature":"2","num_nodes":"25","size_leaf_vector":"1"}},{"base_weights":[-8.060228E-3,-3.0306826E0,4.9098995E-1,-3.388926E0,-2.6750915E0,1.0088257E0,-2.0767567E0,-3.634295E-1,-2.8431237E0,-2.8351998E0,-2.049597E0,1.2897879E0,-5.184342E-1,-3.6075613E-1,-1.5745516E0,-2.5233516E-1,-3.331248E-1,-3.1498998E-1,-2.5827542E-1,-1.152975E-1,-2.8234598E-1,-1.4962643E-2,1.5259062E-1,-3.2663816E-1,6.1465222E-2,-1.0605746E-1,-3.3362928E-1],"categories":[],"categories_nodes":[],"categories_segments":[],"categories_sizes":[],"default_left":[0,0,0,0,0,0,0,0,0,0,0,0,0,0,0,0,0,0,0,0,0,0,0,0,0,0,0],"id":11,"left_children":[1,3,5,7,9,11,13,-1,15,17,19,21,23,-1,25,-1,-1,-1,-1,-1,-1,-1,-1,-1,-1,-1,-1],"loss_changes":[4.3111016E3,4.2526855E1,3.263778E3,1.6183838E1,1.5019531E1,8.7689575E2,3.1105603E2,0E0,1.895935E0,4.814087E0,2.8662308E1,5.865078E2,9.9215216E2,0E0,2.7897595E2,0E0,0E0,0E0,0E0,0E0,0E0,0E0,0E0,0E0,0E0,0E0,0E0],"parents":[2147483647,0,0,1,1,2,2,3,3,4,4,5,5,6,6,8,8,9,9,10,10,11,11,12,12,14,14],"right_children":[2,4,6,8,10,12,14,-1,16,18,20,22,24,-1,26,-1,-1,-1,-1,-1,-1,-1,-1,-1,-1,-1,-1],"split_conditions":[4E0,2E0,2.1E1,4E0,3E0,7E0,2E0,-3.634295E-1,7E0,2E0,2E0,7E0,1E1,-3.6075613E-1,7E0,-2.5233516E-1,-3.331248E-1,-3.1498998E-1,-2.5827542E-1,-1.152975E-1,-2.8234598E-1,-1.4962643E-2,1.5259062E-1,-3.2663816E-1,6.1465222E-2,-1.0605746E-1,-3.3362928E-1],"split_indices":[1,1,1,0,1,0,0,0,0,0,0,1,1,0,0,0,0,0,0,0,0,0,0,0,0,0,0],"split_type":[0,0,0,0,0,0,0,0,0,0,0,0,0,0,0,0,0,0,0,0,0,0,0,0,0,0,0],"sum_hessian":[2.856E3,4.04E2,2.452E3,1.97E2,2.07E2,2.041E3,4.11E2,1.32E2,6.5E1,1.62E2,4.5E1,1.724E3,3.17E2,1E2,3.11E2,4.3E1,2.2E1,6.7E1,9.5E1,2.2E1,2.3E1,2.43E2,1.481E3,9.2E1,2.25E2,2.42E2,6.9E1],"tree_param":{"num_deleted":"0","num_feature":"2","num_nodes":"27","size_leaf_vector":"1"}},{"base_weights":[-8.250713E-3,-2.7323544E0,4.4151294E-1,-3.0548258E0,-2.41225E0,1.1094648E0,-1.2946339E0,-3.2735977E-1,-2.567682E0,-2.5551968E0,-1.8532819E0,-1.7431064E-1,1.5323843E0,-2.0423512E0,-4.2214373E-1,-2.2767511E-1,-3.0126068E-1,-2.839542E-1,-2.327169E-1,-1.0426905E-1,-2.5528786E-1,1.5537582E-1,-3.299134E-1,1.8168627E-1,4.5117673E-2,-1.4396895E-1,-3.1299755E-1,6.8432376E-2,-2.4436052E-1],"categories":[],"categories_nodes":[],"categories_segments":[],"categories_sizes":[],"default_left":[0,0,0,0,0,0,0,0,0,0,0,0,0,0,0,0,0,0,0,0,0,0,0,0,0,0,0,0,0],"id":12,"left_children":[1,3,5,7,9,11,13,-1,15,17,19,21,23,25,27,-1,-1,-1,-1,-1,-1,-1,-1,-1,-1,-1,-1,-1,-1],"loss_changes":[3.5016108E3,3.4436768E1,2.8460884E3,1.2695923E1,1.1884277E1,9.623457E2,4.4405823E2,0E0,1.6842346E0,3.9604492E0,2.3424133E1,2.3810864E3,4.0918457E2,2.3605115E2,7.084635E2,0E0,0E0,0E0,0E0,0E0,0E0,0E0,0E0,0E0,0E0,0E0,0E0,0E0,0E0],"parents":[2147483647,0,0,1,1,2,2,3,3,4,4,5,5,6,6,8,8,9,9,10,10,11,11,12,12,13,13,14,14],"right_children":[2,4,6,8,10,12,14,-1,16,18,20,22,24,26,28,-1,-1,-1,-1,-1,-1,-1,-1,-1,-1,-1,-1,-1,-1],"split_conditions":[4E0,2E0,1.9E1,4E0,3E0,8E0,5E0,-3.2735977E-1,7E0,2E0,2E0,4E0,1.7E1,2.2E1,7E0,-2.2767511E-1,-3.0126068E-1,-2.839542E-1,-2.327169E-1,-1.0426905E-1,-2.5528786E-1,1.5537582E-1,-3.299134E-1,1.8168627E-1,4.5117673E-2,-1.4396895E-1,-3.1299755E-1,6.8432376E-2,-2.4436052E-1],"split_indices":[1,1,1,0,1,1,0,0,0,0,0,0,1,1,0,0,0,0,0,0,0,0,0,0,0,0,0,0,0],"split_type":[0,0,0,0,0,0,0,0,0,0,0,0,0,0,0,0,0,0,0,0,0,0,0,0,0,0,0,0,0],"sum_hessian":[2.856E3,4.04E2,2.452E3,1.97E2,2.07E2,1.771E3,6.81E2,1.32E2,6.5E1,1.62E2,4.5E1,4.39E2,1.332E3,3.66E2,3.15E2,4.3E1,2.2E1,6.7E1,9.5E1,2.2E1,2.3E1,2.83E2,1.56E2,1.054E3,2.78E2,2.37E2,1.29E2,2.04E2,1.11E2],"tree_param":{"num_deleted":"0","num_feature":"2","num_nodes":"29","size_leaf_vector":"1"}},{"base_weights":[-8.235441E-3,-2.4633968E0,3.9712477E-1,-2.753668E0,-2.1752377E0,9.985477E-1,-1.1660987E0,-2.9486996E-1,-2.318928E0,-2.3028467E0,-1.6757702E0,-1.2536845E-1,1.3926991E0,-6.173784E-1,-2.1676269E0,-2.0542507E-1,-2.7244446E-1,-2.5597635E-1,-2.0968759E-1,-9.4295494E-2,-2.3082279E-1,1.3989295E-1,-2.55669E-1,1.6575298E-1,4.062206E-2,-1.951445E-1,-2.0628607E-2,-1.7802688E-1,-3.909875E-1],"categories":[],"categories_nodes":[],"categories_segments":[],"categories_sizes":[],"default_left":[0,0,0,0,0,0,0,0,0,0,0,0,0,0,0,0,0,0,0,0,0,0,0,0,0,0,0,0,0],"id":13,"left_children":[1,3,5,7,9,11,13,-1,15,17,19,21,23,25,27,-1,-1,-1,-1,-1,-1,-1,-1,-1,-1,-1,-1,-1,-1],"loss_changes":[2.8443354E3,2.7885986E1,2.307373E3,9.950195E0,9.398132E0,7.8515845E2,3.7346094E2,0E0,1.4871826E0,3.2580566E0,1.9143265E1,1.7120696E3,3.4208618E2,2.4200111E2,1.5568384E2,0E0,0E0,0E0,0E0,0E0,0E0,0E0,0E0,0E0,0E0,0E0,0E0,0E0,0E0],"parents":[2147483647,0,0,1,1,2,2,3,3,4,4,5,5,6,6,8,8,9,9,10,10,11,11,12,12,13,13,14,14],"right_children":[2,4,6,8,10,12,14,-1,16,18,20,22,24,26,28,-1,-1,-1,-1,-1,-1,-1,-1,-1,-1,-1,-1,-1,-1],"split_conditions":[4E0,2E0,1.9E1,4E0,3E0,9E0,2.2E1,-2.9486996E-1,7E0,2E0,2E0,4E0,1.7E1,2E0,2.3E1,-2.0542507E-1,-2.7244446E-1,-2.5597635E-1,-2.0968759E-1,-9.4295494E-2,-2.3082279E-1,1.3989295E-1,-2.55669E-1,1.6575298E-1,4.062206E-2,-1.951445E-1,-2.0628607E-2,-1.7802688E-1,-3.909875E-1],"split_indices":[1,1,1,0,1,1,1,0,0,0,0,0,1,0,1,0,0,0,0,0,0,0,0,0,0,0,0,0,0],"split_type":[0,0,0,0,0,0,0,0,0,0,0,0,0,0,0,0,0,0,0,0,0,0,0,0,0,0,0,0,0],"sum_hessian":[2.856E3,4.04E2,2.452E3,1.97E2,2.07E2,1.771E3,6.81E2,1.32E2,6.5E1,1.62E2,4.5E1,4.6E2,1.311E3,4.41E2,2.4E2,4.3E1,2.2E1,6.7E1,9.5E1,2.2E1,2.3E1,2.83E2,1.77E2,1.033E3,2.78E2,1.03E2,3.38E2,1.98E2,4.2E1],"tree_param":{"num_deleted":"0","num_feature":"2","num_nodes":"29","size_leaf_vector":"1"}},{"base_weights":[-8.201943E-3,-2.2209177E0,3.5712954E-1,-2.482204E0,-1.9615158E0,9.666412E-1,-9.058228E-1,-2.6560467E-1,-2.0942757E0,-2.075419E0,-1.515261E0,1.6120942E0,1.6441242E-1,-1.715201E0,-4.83414E-2,-1.8534942E-1,-2.463846E-1,-2.3075517E-1,-1.8893725E-1,-8.5275926E-2,-2.0870228E-1,1.01185E-3,1.8743338E-1,-2.717282E-1,9.401613E-2,-1.2958835E-1,-2.6116034E-1,9.774382E-2,-1.9423114E-1],"categories":[],"categories_nodes":[],"categories_segments":[],"categories_sizes":[],"default_left":[0,0,0,0,0,0,0,0,0,0,0,0,0,0,0,0,0,0,0,0,0,0,0,0,0,0,0,0,0],"id":14,"left_children":[1,3,5,7,9,11,13,-1,15,17,19,21,23,25,27,-1,-1,-1,-1,-1,-1,-1,-1,-1,-1,-1,-1,-1,-1],"loss_changes":[2.3103198E3,2.2581299E1,1.8891562E3,7.7904053E0,7.4277954E0,8.5669556E2,5.5444446E2,0E0,1.3063354E0,2.6797485E0,1.564476E1,3.852141E2,1.6545677E3,1.511012E2,7.57646E2,0E0,0E0,0E0,0E0,0E0,0E0,0E0,0E0,0E0,0E0,0E0,0E0,0E0,0E0],"parents":[2147483647,0,0,1,1,2,2,3,3,4,4,5,5,6,6,8,8,9,9,10,10,11,11,12,12,13,13,14,14],"right_children":[2,4,6,8,10,12,14,-1,16,18,20,22,24,26,28,-1,-1,-1,-1,-1,-1,-1,-1,-1,-1,-1,-1,-1,-1],"split_conditions":[4E0,2E0,1.8E1,4E0,3E0,4E0,5E0,-2.6560467E-1,7E0,2E0,2E0,5E0,8E0,2.2E1,7E0,-1.8534942E-1,-2.463846E-1,-2.3075517E-1,-1.8893725E-1,-8.5275926E-2,-2.0870228E-1,1.01185E-3,1.8743338E-1,-2.717282E-1,9.401613E-2,-1.2958835E-1,-2.6116034E-1,9.774382E-2,-1.9423114E-1],"split_indices":[1,1,1,0,1,0,0,0,0,0,0,1,1,1,0,0,0,0,0,0,0,0,0,0,0,0,0,0,0],"split_type":[0,0,0,0,0,0,0,0,0,0,0,0,0,0,0,0,0,0,0,0,0,0,0,0,0,0,0,0,0],"sum_hessian":[2.856E3,4.04E2,2.452E3,1.97E2,2.07E2,1.654E3,7.98E2,1.32E2,6.5E1,1.62E2,4.5E1,9.16E2,7.38E2,4.1E2,3.88E2,4.3E1,2.2E1,6.7E1,9.5E1,2.2E1,2.3E1,1.29E2,7.87E2,1.56E2,5.82E2,2.81E2,1.29E2,2.52E2,1.36E2],"tree_param":{"num_deleted":"0","num_feature":"2","num_nodes":"29","size_leaf_vector":"1"}},{"base_weights":[-8.042537E-3,-2.00231E0,3.212222E-1,-2.2375057E0,-1.7687954E0,6.7711717E-1,-1.4434835E0,-2.3595975E-1,-1.8068104E0,-1.8704518E0,-1.370126E0,8.8591456E-1,-4.5763972E-1,-2.1597974E0,-8.085195E-1,-1.3645732E-1,-2.2281735E-1,-2.0801897E-1,-1.7024034E-1,-7.711913E-2,-1.8870167E-1,-1.48935765E-2,1.055697E-1,-2.4582593E-1,3.676491E-2,-2.5666216E-1,-1.6947542E-1,-7.403206E-3,-2.3813634E-1],"categories":[],"categories_nodes":[],"categories_segments":[],"categories_sizes":[],"default_left":[0,0,0,0,0,0,0,0,0,0,0,0,0,0,0,0,0,0,0,0,0,0,0,0,0,0,0,0,0],"id":15,"left_children":[1,3,5,7,9,11,13,-1,15,17,19,21,23,25,27,-1,-1,-1,-1,-1,-1,-1,-1,-1,-1,-1,-1,-1,-1],"loss_changes":[1.8766692E3,1.8285522E1,1.5415837E3,6.1483765E0,5.8669434E0,4.8422528E2,1.8564514E2,0E0,5.9039307E0,2.2037354E0,1.2785599E1,3.0323877E2,5.259501E2,3.2164E1,2.5397519E2,0E0,0E0,0E0,0E0,0E0,0E0,0E0,0E0,0E0,0E0,0E0,0E0,0E0,0E0],"parents":[2147483647,0,0,1,1,2,2,3,3,4,4,5,5,6,6,8,8,9,9,10,10,11,11,12,12,13,13,14,14],"right_children":[2,4,6,8,10,12,14,-1,16,18,20,22,24,26,28,-1,-1,-1,-1,-1,-1,-1,-1,-1,-1,-1,-1,-1,-1],"split_conditions":[4E0,2E0,2.1E1,6E0,3E0,7E0,3E0,-2.3595975E-1,7E0,2E0,2E0,7E0,1E1,2E0,7E0,-1.3645732E-1,-2.2281735E-1,-2.0801897E-1,-1.7024034E-1,-7.711913E-2,-1.8870167E-1,-1.48935765E-2,1.055697E-1,-2.4582593E-1,3.676491E-2,-2.5666216E-1,-1.6947542E-1,-7.403206E-3,-2.3813634E-1],"split_indices":[1,1,1,0,1,0,0,0,0,0,0,1,1,0,0,0,0,0,0,0,0,0,0,0,0,0,0,0,0],"split_type":[0,0,0,0,0,0,0,0,0,0,0,0,0,0,0,0,0,0,0,0,0,0,0,0,0,0,0,0,0],"sum_hessian":[2.856E3,4.04E2,2.452E3,1.97E2,2.07E2,2.041E3,4.11E2,1.5E2,4.7E1,1.62E2,4.5E1,1.724E3,3.17E2,1.92E2,2.19E2,2.5E1,2.2E1,6.7E1,9.5E1,2.2E1,2.3E1,2.43E2,1.481E3,9.2E1,2.25E2,1E2,9.2E1,1.5E2,6.9E1],"tree_param":{"num_deleted":"0","num_feature":"2","num_nodes":"29","size_leaf_vector":"1"}},{"base_weights":[-7.948652E-3,-1.8051391E0,2.8877783E-1,-2.0167613E0,-1.5950124E0,8.0826724E-1,-7.8762233E-1,-2.1582537E0,-1.701076E0,-1.6857272E0,-1.2388923E0,1.3687563E0,1.1168173E-1,-1.4889733E0,-4.4581614E-2,-1.8496805E-1,-2.2950278E-1,-1.4982957E-1,-2.015044E-1,-1.87523E-1,-1.5339364E-1,-6.974254E-2,-1.7061776E-1,1.0535031E-1,2.451725E-1,-2.3530534E-1,7.752352E-2,-1.1708795E-1,-2.1675384E-1,8.236002E-2,-1.647541E-1],"categories":[],"categories_nodes":[],"categories_segments":[],"categories_sizes":[],"default_left":[0,0,0,0,0,0,0,0,0,0,0,0,0,0,0,0,0,0,0,0,0,0,0,0,0,0,0,0,0,0,0],"id":16,"left_children":[1,3,5,7,9,11,13,15,17,19,21,23,25,27,29,-1,-1,-1,-1,-1,-1,-1,-1,-1,-1,-1,-1,-1,-1,-1,-1],"loss_changes":[1.5240851E3,1.4792603E1,1.3723014E3,5.1727905E0,4.6310425E0,6.460065E2,4.1631833E2,1.3681641E0,1.1828613E0,1.8121643E0,1.0448967E1,3.1048938E2,1.2104465E3,8.617529E1,5.427127E2,0E0,0E0,0E0,0E0,0E0,0E0,0E0,0E0,0E0,0E0,0E0,0E0,0E0,0E0,0E0,0E0],"parents":[2147483647,0,0,1,1,2,2,3,3,4,4,5,5,6,6,7,7,8,8,9,9,10,10,11,11,12,12,13,13,14,14],"right_children":[2,4,6,8,10,12,14,16,18,20,22,24,26,28,30,-1,-1,-1,-1,-1,-1,-1,-1,-1,-1,-1,-1,-1,-1,-1,-1],"split_conditions":[4E0,2E0,1.8E1,4E0,3E0,4E0,5E0,2E0,7E0,2E0,2E0,1.4E1,8E0,2.2E1,7E0,-1.8496805E-1,-2.2950278E-1,-1.4982957E-1,-2.015044E-1,-1.87523E-1,-1.5339364E-1,-6.974254E-2,-1.7061776E-1,1.0535031E-1,2.451725E-1,-2.3530534E-1,7.752352E-2,-1.1708795E-1,-2.1675384E-1,8.236002E-2,-1.647541E-1],"split_indices":[1,1,1,0,1,0,0,0,0,0,0,1,1,1,0,0,0,0,0,0,0,0,0,0,0,0,0,0,0,0,0],"split_type":[0,0,0,0,0,0,0,0,0,0,0,0,0,0,0,0,0,0,0,0,0,0,0,0,0,0,0,0,0,0,0],"sum_hessian":[2.856E3,4.04E2,2.452E3,1.97E2,2.07E2,1.654E3,7.98E2,1.32E2,6.5E1,1.62E2,4.5E1,9.16E2,7.38E2,4.1E2,3.88E2,4.5E1,8.7E1,4.3E1,2.2E1,6.7E1,9.5E1,2.2E1,2.3E1,7.11E2,2.05E2,1.56E2,5.82E2,2.81E2,1.29E2,2.52E2,1.36E2],"tree_param":{"num_deleted":"0","num_feature":"2","num_nodes":"31","size_leaf_vector":"1"}},{"base_weights":[-7.703622E-3,-1.6279514E0,2.5980884E-1,-1.818953E0,-1.4383059E0,7.2755677E-1,-7.09381E-1,-1.9199871E0,-1.4632219E0,-1.519246E0,-1.1202285E0,1.2322627E0,1.0029981E-1,-1.3408879E0,-4.033547E-2,-1.6687335E-1,-2.0109086E-1,-1.08929746E-1,-1.8223007E-1,-1.6904649E-1,-1.3821404E-1,-6.307154E-2,-1.5426692E-1,-8.064671E-3,1.4472957E-1,-2.1192463E-1,6.978443E-2,-1.0542064E-1,-1.9524518E-1,7.415655E-2,-1.4839897E-1],"categories":[],"categories_nodes":[],"categories_segments":[],"categories_sizes":[],"default_left":[0,0,0,0,0,0,0,0,0,0,0,0,0,0,0,0,0,0,0,0,0,0,0,0,0,0,0,0,0,0,0],"id":17,"left_children":[1,3,5,7,9,11,13,15,17,19,21,23,25,27,29,-1,-1,-1,-1,-1,-1,-1,-1,-1,-1,-1,-1,-1,-1,-1,-1],"loss_changes":[1.2387509E3,1.2053833E1,1.1125505E3,4.306946E0,3.6531067E0,5.238168E2,3.3752887E2,9.3811035E-2,4.4598465E0,1.4899597E0,8.539368E0,2.5900305E2,9.815981E2,6.999994E1,4.4020157E2,0E0,0E0,0E0,0E0,0E0,0E0,0E0,0E0,0E0,0E0,0E0,0E0,0E0,0E0,0E0,0E0],"parents":[2147483647,0,0,1,1,2,2,3,3,4,4,5,5,6,6,7,7,8,8,9,9,10,10,11,11,12,12,13,13,14,14],"right_children":[2,4,6,8,10,12,14,16,18,20,22,24,26,28,30,-1,-1,-1,-1,-1,-1,-1,-1,-1,-1,-1,-1,-1,-1,-1,-1],"split_conditions":[4E0,2E0,1.8E1,6E0,3E0,4E0,5E0,2E0,7E0,2E0,2E0,5E0,8E0,2.2E1,7E0,-1.6687335E-1,-2.0109086E-1,-1.08929746E-1,-1.8223007E-1,-1.6904649E-1,-1.3821404E-1,-6.307154E-2,-1.5426692E-1,-8.064671E-3,1.4472957E-1,-2.1192463E-1,6.978443E-2,-1.0542064E-1,-1.9524518E-1,7.415655E-2,-1.4839897E-1],"split_indices":[1,1,1,0,1,0,0,0,0,0,0,1,1,1,0,0,0,0,0,0,0,0,0,0,0,0,0,0,0,0,0],"split_type":[0,0,0,0,0,0,0,0,0,0,0,0,0,0,0,0,0,0,0,0,0,0,0,0,0,0,0,0,0,0,0],"sum_hessian":[2.856E3,4.04E2,2.452E3,1.97E2,2.07E2,1.654E3,7.98E2,1.5E2,4.7E1,1.62E2,4.5E1,9.16E2,7.38E2,4.1E2,3.88E2,4.5E1,1.05E2,2.5E1,2.2E1,6.7E1,9.5E1,2.2E1,2.3E1,1.29E2,7.87E2,1.56E2,5.82E2,2.81E2,1.29E2,2.52E2,1.36E2],"tree_param":{"num_deleted":"0","num_feature":"2","num_nodes":"31","size_leaf_vector":"1"}},{"base_weights":[-7.480677E-3,-1.4680791E0,2.3367295E-1,-1.6403867E0,-1.2969974E0,6.1050504E-1,-7.4577004E-1,-1.7575431E0,-1.3794442E0,-1.3692064E0,-1.0129306E0,9.8667264E-1,1.6455969E-1,-6.120713E-1,-2.7183623E0,-1.5054879E-1,-1.8693273E-1,-1.2077152E-1,-1.6479938E-1,-1.5239047E-1,-1.2453661E-1,-5.7038642E-2,-1.39483E-1,1.10918544E-1,-1.5317906E-1,-1.9086717E-1,6.604938E-2,-1.10992394E-1,-1.8675961E-3,-2.0555425E-1,-3.157447E-1],"categories":[],"categories_nodes":[],"categories_segments":[],"categories_sizes":[],"default_left":[0,0,0,0,0,0,0,0,0,0,0,0,0,0,0,0,0,0,0,0,0,0,0,0,0,0,0,0,0,0,0],"id":18,"left_children":[1,3,5,7,9,11,13,15,17,19,21,23,25,27,29,-1,-1,-1,-1,-1,-1,-1,-1,-1,-1,-1,-1,-1,-1,-1,-1],"loss_changes":[1.00666016E3,9.811279E0,9.0582214E2,3.628662E0,2.8796082E0,2.97091E2,1.7820224E2,9.33136E-1,1.0534592E0,1.2249146E0,6.9787445E0,2.982096E2,8.3614777E2,1.8905028E2,6.0242004E0,0E0,0E0,0E0,0E0,0E0,0E0,0E0,0E0,0E0,0E0,0E0,0E0,0E0,0E0,0E0,0E0],"parents":[2147483647,0,0,1,1,2,2,3,3,4,4,5,5,6,6,7,7,8,8,9,9,10,10,11,11,12,12,13,13,14,14],"right_children":[2,4,6,8,10,12,14,16,18,20,22,24,26,28,30,-1,-1,-1,-1,-1,-1,-1,-1,-1,-1,-1,-1,-1,-1,-1,-1],"split_conditions":[4E0,2E0,1.9E1,4E0,3E0,4E0,2.3E1,2E0,7E0,2E0,2E0,1.8E1,8E0,5E0,2E0,-1.5054879E-1,-1.8693273E-1,-1.2077152E-1,-1.6479938E-1,-1.5239047E-1,-1.2453661E-1,-5.7038642E-2,-1.39483E-1,1.10918544E-1,-1.5317906E-1,-1.9086717E-1,6.604938E-2,-1.10992394E-1,-1.8675961E-3,-2.0555425E-1,-3.157447E-1],"split_indices":[1,1,1,0,1,0,1,0,0,0,0,1,1,0,0,0,0,0,0,0,0,0,0,0,0,0,0,0,0,0,0],"split_type":[0,0,0,0,0,0,0,0,0,0,0,0,0,0,0,0,0,0,0,0,0,0,0,0,0,0,0,0,0,0,0],"sum_hessian":[2.856E3,4.04E2,2.452E3,1.97E2,2.07E2,1.771E3,6.81E2,1.32E2,6.5E1,1.62E2,4.5E1,9.6E2,8.11E2,6.39E2,4.2E1,4.5E1,8.7E1,4.3E1,2.2E1,6.7E1,9.5E1,2.2E1,2.3E1,9.16E2,4.4E1,1.56E2,6.55E2,3.47E2,2.92E2,1.9E1,2.3E1],"tree_param":{"num_deleted":"0","num_feature":"2","num_nodes":"31","size_leaf_vector":"1"}},{"base_weights":[-7.3967963E-3,-1.3239785E0,2.0997909E-1,-1.4794948E0,-1.1695739E0,4.5785916E-1,-1.0191013E0,-1.5634601E0,-1.1845309E0,-1.2339847E0,-9.159099E-1,6.0514134E-1,-3.4251705E-1,-8.490482E-1,-2.4586492E0,-1.358212E-1,-1.6377805E-1,-8.6843096E-2,-1.4903598E-1,-1.373755E-1,-1.1221268E-1,-5.1582802E-2,-1.2611589E-1,7.99215E-2,6.970162E-3,-1.821882E-1,2.6776372E-2,-1.4487569E-1,-3.1504642E-2,-1.860266E-1,-2.8548583E-1],"categories":[],"categories_nodes":[],"categories_segments":[],"categories_sizes":[],"default_left":[0,0,0,0,0,0,0,0,0,0,0,0,0,0,0,0,0,0,0,0,0,0,0,0,0,0,0,0,0,0,0],"id":19,"left_children":[1,3,5,7,9,11,13,15,17,19,21,23,25,27,29,-1,-1,-1,-1,-1,-1,-1,-1,-1,-1,-1,-1,-1,-1,-1,-1],"loss_changes":[8.1793176E2,7.99469E0,7.478087E2,3.0518494E0,2.268219E0,2.409206E2,9.876999E1,7.888794E-2,3.3460007E0,1.0068817E0,5.703335E0,1.7919714E2,2.8758713E2,1.1803439E2,4.88385E0,0E0,0E0,0E0,0E0,0E0,0E0,0E0,0E0,0E0,0E0,0E0,0E0,0E0,0E0,0E0,0E0],"parents":[2147483647,0,0,1,1,2,2,3,3,4,4,5,5,6,6,7,7,8,8,9,9,10,10,11,11,12,12,13,13,14,14],"right_children":[2,4,6,8,10,12,14,16,18,20,22,24,26,28,30,-1,-1,-1,-1,-1,-1,-1,-1,-1,-1,-1,-1,-1,-1,-1,-1],"split_conditions":[4E0,2E0,2.1E1,6E0,3E0,7E0,2.3E1,2E0,7E0,2E0,2E0,1.7E1,1E1,3E0,2E0,-1.358212E-1,-1.6377805E-1,-8.6843096E-2,-1.4903598E-1,-1.373755E-1,-1.1221268E-1,-5.1582802E-2,-1.2611589E-1,7.99215E-2,6.970162E-3,-1.821882E-1,2.6776372E-2,-1.4487569E-1,-3.1504642E-2,-1.860266E-1,-2.8548583E-1],"split_indices":[1,1,1,0,1,0,1,0,0,0,0,1,1,0,0,0,0,0,0,0,0,0,0,0,0,0,0,0,0,0,0],"split_type":[0,0,0,0,0,0,0,0,0,0,0,0,0,0,0,0,0,0,0,0,0,0,0,0,0,0,0,0,0,0,0],"sum_hessian":[2.856E3,4.04E2,2.452E3,1.97E2,2.07E2,2.041E3,4.11E2,1.5E2,4.7E1,1.62E2,4.5E1,1.724E3,3.17E2,3.69E2,4.2E1,4.5E1,1.05E2,2.5E1,2.2E1,6.7E1,9.5E1,2.2E1,2.3E1,1.265E3,4.59E2,9.2E1,2.25E2,1.73E2,1.96E2,1.9E1,2.3E1],"tree_param":{"num_deleted":"0","num_feature":"2","num_nodes":"31","size_leaf_vector":"1"}},{"base_weights":[-7.245021E-3,-9.2600656E-1,2.4938633E-1,-1.193958E0,-4.2852312E-1,7.6085407E-1,-4.3016654E-1,-1.3342497E0,-1.0546708E0,-3.1818694E-1,-8.5053754E-1,3.7003377E-1,1.9608511E0,-1.3592516E0,-1.2883714E-1,-1.4312387E-1,-1.1185864E-1,-1.11211754E-1,-8.281822E-2,-7.254466E-2,-1.7275086E-2,-9.529417E-2,-7.001632E-2,8.411195E-2,-3.517851E-2,2.4858247E-1,5.6855436E-2,-1.0992979E-1,-1.6932565E-1,1.4621468E-2,-1.11060195E-1],"categories":[],"categories_nodes":[],"categories_segments":[],"categories_sizes":[],"default_left":[0,0,0,0,0,0,0,0,0,0,0,0,0,0,0,0,0,0,0,0,0,0,0,0,0,0,0,0,0,0,0],"id":20,"left_children":[1,3,5,7,9,11,13,15,17,19,21,23,25,27,29,-1,-1,-1,-1,-1,-1,-1,-1,-1,-1,-1,-1,-1,-1,-1,-1],"loss_changes":[6.73863E2,8.266846E1,7.7679724E2,6.506775E0,9.973331E0,5.972279E2,2.685871E2,2.540619E0,1.7852783E0,1.0299202E1,2.5741577E-2,3.27753E2,2.2736438E2,1.8542664E1,1.9620866E2,0E0,0E0,0E0,0E0,0E0,0E0,0E0,0E0,0E0,0E0,0E0,0E0,0E0,0E0,0E0,0E0],"parents":[2147483647,0,0,1,1,2,2,3,3,4,4,5,5,6,6,7,7,8,8,9,9,10,10,11,11,12,12,13,13,14,14],"right_children":[2,4,6,8,10,12,14,16,18,20,22,24,26,28,30,-1,-1,-1,-1,-1,-1,-1,-1,-1,-1,-1,-1,-1,-1,-1,-1],"split_conditions":[6E0,4E0,1.7E1,2E0,7E0,1.4E1,2E0,4E0,3E0,2E0,5E0,4E0,1.6E1,2.1E1,7E0,-1.4312387E-1,-1.1185864E-1,-1.11211754E-1,-8.281822E-2,-7.254466E-2,-1.7275086E-2,-9.529417E-2,-7.001632E-2,8.411195E-2,-3.517851E-2,2.4858247E-1,5.6855436E-2,-1.0992979E-1,-1.6932565E-1,1.4621468E-2,-1.11060195E-1],"split_indices":[1,1,1,1,0,1,0,0,1,0,1,0,1,1,0,0,0,0,0,0,0,0,0,0,0,0,0,0,0,0,0],"split_type":[0,0,0,0,0,0,0,0,0,0,0,0,0,0,0,0,0,0,0,0,0,0,0,0,0,0,0,0,0,0,0],"sum_hessian":[2.856E3,6.23E2,2.233E3,4.04E2,2.19E2,1.274E3,9.59E2,1.97E2,2.07E2,1.75E2,4.4E1,9.62E2,3.12E2,2.34E2,7.25E2,1.32E2,6.5E1,1.62E2,4.5E1,4.5E1,1.3E2,2.3E1,2.1E1,5.82E2,3.8E2,2.26E2,8.6E1,1.34E2,1E2,5.67E2,1.58E2],"tree_param":{"num_deleted":"0","num_feature":"2","num_nodes":"31","size_leaf_vector":"1"}},{"base_weights":[-6.774528E-3,-8.3453435E-1,2.2443806E-1,-1.0756708E0,-3.868307E-1,6.850465E-1,-3.8754132E-1,-1.2021126E0,-9.501366E-1,-2.851456E-1,-7.987635E-1,3.3308125E-1,1.7657413E0,-1.2245145E0,-1.1608644E-1,-1.2706493E-1,-9.614635E-2,-1.001588E-1,-7.471646E-2,-1.940457E-2,-8.616182E-2,-9.2789024E-2,-6.333294E-2,7.5715154E-2,-3.166985E-2,2.2383368E-1,5.1235177E-2,-9.901821E-2,-1.5256073E-1,1.7283058E-2,-1.01319544E-1],"categories":[],"categories_nodes":[],"categories_segments":[],"categories_sizes":[],"default_left":[0,0,0,0,0,0,0,0,0,0,0,0,0,0,0,0,0,0,0,0,0,0,0,0,0,0,0,0,0,0,0],"id":21,"left_children":[1,3,5,7,9,11,13,15,17,19,21,23,25,27,29,-1,-1,-1,-1,-1,-1,-1,-1,-1,-1,-1,-1,-1,-1,-1,-1],"loss_changes":[5.469842E2,6.6949524E1,6.2999176E2,5.2862854E0,8.987469E0,4.8437982E2,2.1797032E2,2.0439758E0,1.4238434E0,9.180763E0,3.309059E-1,2.6559662E2,1.842575E2,1.5069977E1,1.8834709E2,0E0,0E0,0E0,0E0,0E0,0E0,0E0,0E0,0E0,0E0,0E0,0E0,0E0,0E0,0E0,0E0],"parents":[2147483647,0,0,1,1,2,2,3,3,4,4,5,5,6,6,7,7,8,8,9,9,10,10,11,11,12,12,13,13,14,14],"right_children":[2,4,6,8,10,12,14,16,18,20,22,24,26,28,30,-1,-1,-1,-1,-1,-1,-1,-1,-1,-1,-1,-1,-1,-1,-1,-1],"split_conditions":[6E0,4E0,1.7E1,2E0,5E0,1.4E1,2E0,6E0,3E0,7E0,6E0,4E0,1.6E1,2.1E1,2.2E1,-1.2706493E-1,-9.614635E-2,-1.001588E-1,-7.471646E-2,-1.940457E-2,-8.616182E-2,-9.2789024E-2,-6.333294E-2,7.5715154E-2,-3.166985E-2,2.2383368E-1,5.1235177E-2,-9.901821E-2,-1.5256073E-1,1.7283058E-2,-1.01319544E-1],"split_indices":[1,1,1,1,1,1,0,0,1,0,0,0,1,1,1,0,0,0,0,0,0,0,0,0,0,0,0,0,0,0,0],"split_type":[0,0,0,0,0,0,0,0,0,0,0,0,0,0,0,0,0,0,0,0,0,0,0,0,0,0,0,0,0,0,0],"sum_hessian":[2.856E3,6.23E2,2.233E3,4.04E2,2.19E2,1.274E3,9.59E2,1.97E2,2.07E2,1.77E2,4.2E1,9.62E2,3.12E2,2.34E2,7.25E2,1.5E2,4.7E1,1.62E2,4.5E1,1.54E2,2.3E1,2.1E1,2.1E1,5.82E2,3.8E2,2.26E2,8.6E1,1.34E2,1E2,5.49E2,1.76E2],"tree_param":{"num_deleted":"0","num_feature":"2","num_nodes":"31","size_leaf_vector":"1"}},{"base_weights":[-6.334009E-3,-7.5213826E-1,2.0198658E-1,-9.690867E-1,-3.4933716E-1,4.7822177E-1,-6.385732E-1,-1.0830286E0,-8.5596377E-1,-2.572242E-1,-7.225178E-1,7.5407857E-1,1.6355099E-1,-5.254605E-1,-1.9679226E0,-1.16308145E-1,-9.053004E-2,-9.020438E-2,-6.7407236E-2,-6.35496E-2,-1.2445937E-2,-8.3931886E-2,-5.728751E-2,9.548905E-2,-7.045806E-2,-2.991491E-1,4.565111E-2,-9.980741E-2,-9.657363E-3,-1.3777487E-1,-2.3777373E-1],"categories":[],"categories_nodes":[],"categories_segments":[],"categories_sizes":[],"default_left":[0,0,0,0,0,0,0,0,0,0,0,0,0,0,0,0,0,0,0,0,0,0,0,0,0,0,0,0,0,0,0],"id":22,"left_children":[1,3,5,7,9,11,13,15,17,19,21,23,25,27,29,-1,-1,-1,-1,-1,-1,-1,-1,-1,-1,-1,-1,-1,-1,-1,-1],"loss_changes":[4.440337E2,5.419101E1,5.190227E2,4.2931824E0,7.3765965E0,1.4588113E2,8.2118484E1,1.7641296E0,1.1353302E0,8.860279E0,2.7074814E-1,2.6312558E2,7.2879083E2,1.0348216E2,7.1241455E0,0E0,0E0,0E0,0E0,0E0,0E0,0E0,0E0,0E0,0E0,0E0,0E0,0E0,0E0,0E0,0E0],"parents":[2147483647,0,0,1,1,2,2,3,3,4,4,5,5,6,6,7,7,8,8,9,9,10,10,11,11,12,12,13,13,14,14],"right_children":[2,4,6,8,10,12,14,16,18,20,22,24,26,28,30,-1,-1,-1,-1,-1,-1,-1,-1,-1,-1,-1,-1,-1,-1,-1,-1],"split_conditions":[6E0,4E0,2E1,2E0,5E0,4E0,2.3E1,4E0,3E0,2E0,6E0,1.8E1,8E0,3E0,2E0,-1.16308145E-1,-9.053004E-2,-9.020438E-2,-6.7407236E-2,-6.35496E-2,-1.2445937E-2,-8.3931886E-2,-5.728751E-2,9.548905E-2,-7.045806E-2,-2.991491E-1,4.565111E-2,-9.980741E-2,-9.657363E-3,-1.3777487E-1,-2.3777373E-1],"split_indices":[1,1,1,1,1,0,1,0,1,0,0,1,1,0,0,0,0,0,0,0,0,0,0,0,0,0,0,0,0,0,0],"split_type":[0,0,0,0,0,0,0,0,0,0,0,0,0,0,0,0,0,0,0,0,0,0,0,0,0,0,0,0,0,0,0],"sum_hessian":[2.856E3,6.23E2,2.233E3,4.04E2,2.19E2,1.681E3,5.52E2,1.97E2,2.07E2,1.77E2,4.2E1,8.95E2,7.86E2,5.1E2,4.2E1,1.32E2,6.5E1,1.62E2,4.5E1,4.5E1,1.32E2,2.1E1,2.1E1,7.87E2,1.08E2,6.6E1,7.2E2,2.42E2,2.68E2,1.9E1,2.3E1],"tree_param":{"num_deleted":"0","num_feature":"2","num_nodes":"31","size_leaf_vector":"1"}},{"base_weights":[-6.1539393E-3,-6.778565E-1,1.8146852E-1,-8.730779E-1,-3.1539047E-1,5.618193E-1,-3.2387394E-1,-9.7577035E-1,-7.7112514E-1,-2.2485699E-1,-6.624683E-1,2.4772552E-1,1.5263896E0,-1.0459466E0,-8.969906E-2,-1.09612904E-1,-8.7356515E-2,-8.123928E-2,-6.081303E-2,-5.733276E-2,-1.007768E-2,-7.671193E-2,-5.1819146E-2,4.1522507E-2,-9.32419E-2,1.9500609E-1,4.0340386E-2,-8.716245E-2,-1.2685955E-1,1.554416E-2,-9.648576E-2],"categories":[],"categories_nodes":[],"categories_segments":[],"categories_sizes":[],"default_left":[0,0,0,0,0,0,0,0,0,0,0,0,0,0,0,0,0,0,0,0,0,0,0,0,0,0,0,0,0,0,0],"id":23,"left_children":[1,3,5,7,9,11,13,15,17,19,21,23,25,27,29,-1,-1,-1,-1,-1,-1,-1,-1,-1,-1,-1,-1,-1,-1,-1,-1],"loss_changes":[3.6018066E2,4.387961E1,4.2957327E2,3.487793E0,6.763914E0,3.8590292E2,1.622338E2,1.4781036E0,9.0504456E-1,7.552163E0,2.8192902E-1,1.9074692E2,1.4813147E2,8.015228E0,1.5590378E2,0E0,0E0,0E0,0E0,0E0,0E0,0E0,0E0,0E0,0E0,0E0,0E0,0E0,0E0,0E0,0E0],"parents":[2147483647,0,0,1,1,2,2,3,3,4,4,5,5,6,6,7,7,8,8,9,9,10,10,11,11,12,12,13,13,14,14],"right_children":[2,4,6,8,10,12,14,16,18,20,22,24,26,28,30,-1,-1,-1,-1,-1,-1,-1,-1,-1,-1,-1,-1,-1,-1,-1,-1],"split_conditions":[6E0,4E0,1.7E1,2E0,7E0,1.4E1,2E0,3E0,3E0,2E0,5E0,7E0,1.6E1,2.1E1,7E0,-1.09612904E-1,-8.7356515E-2,-8.123928E-2,-6.081303E-2,-5.733276E-2,-1.007768E-2,-7.671193E-2,-5.1819146E-2,4.1522507E-2,-9.32419E-2,1.9500609E-1,4.0340386E-2,-8.716245E-2,-1.2685955E-1,1.554416E-2,-9.648576E-2],"split_indices":[1,1,1,1,0,1,0,0,1,0,1,0,1,1,0,0,0,0,0,0,0,0,0,0,0,0,0,0,0,0,0],"split_type":[0,0,0,0,0,0,0,0,0,0,0,0,0,0,0,0,0,0,0,0,0,0,0,0,0,0,0,0,0,0,0],"sum_hessian":[2.856E3,6.23E2,2.233E3,4.04E2,2.19E2,1.274E3,9.59E2,1.97E2,2.07E2,1.75E2,4.4E1,9.62E2,3.12E2,2.34E2,7.25E2,8.6E1,1.11E2,1.62E2,4.5E1,4.5E1,1.3E2,2.3E1,2.1E1,8.43E2,1.19E2,2.26E2,8.6E1,1.34E2,1E2,5.67E2,1.58E2],"tree_param":{"num_deleted":"0","num_feature":"2","num_nodes":"31","size_leaf_vector":"1"}},{"base_weights":[-5.7648434E-3,-6.109282E-1,1.6327173E-1,-7.866072E-1,-2.8474215E-1,3.5580888E-1,-6.890548E-1,-8.7918806E-1,-6.9469565E-1,-2.0135087E-1,-6.233214E-1,4.570039E-1,-2.1794309E-1,-5.729349E-1,-1.672201E0,-9.3250684E-2,-6.931395E-2,-7.31652E-2,-5.4863937E-2,-1.2383207E-2,-6.936035E-2,-7.495826E-2,-4.687275E-2,8.527408E-3,5.8973636E-2,-2.0677732E-1,1.8409062E-2,-9.916774E-2,-2.001729E-2,-1.1263459E-1,-2.0574053E-1],"categories":[],"categories_nodes":[],"categories_segments":[],"categories_sizes":[],"default_left":[0,0,0,0,0,0,0,0,0,0,0,0,0,0,0,0,0,0,0,0,0,0,0,0,0,0,0,0,0,0,0],"id":24,"left_children":[1,3,5,7,9,11,13,15,17,19,21,23,25,27,29,-1,-1,-1,-1,-1,-1,-1,-1,-1,-1,-1,-1,-1,-1,-1,-1],"loss_changes":[2.9235583E2,3.5533737E1,3.668547E2,2.835495E0,6.0860996E0,1.0594449E2,4.607701E1,1.3177795E0,7.2130585E-1,6.706382E0,4.8797417E-1,7.642767E1,2.0415283E2,5.7555283E1,6.7240753E0,0E0,0E0,0E0,0E0,0E0,0E0,0E0,0E0,0E0,0E0,0E0,0E0,0E0,0E0,0E0,0E0],"parents":[2147483647,0,0,1,1,2,2,3,3,4,4,5,5,6,6,7,7,8,8,9,9,10,10,11,11,12,12,13,13,14,14],"right_children":[2,4,6,8,10,12,14,16,18,20,22,24,26,28,30,-1,-1,-1,-1,-1,-1,-1,-1,-1,-1,-1,-1,-1,-1,-1,-1],"split_conditions":[6E0,4E0,2.1E1,2E0,5E0,7E0,2.3E1,6E0,3E0,7E0,6E0,2E0,1E1,3E0,2E0,-9.3250684E-2,-6.931395E-2,-7.31652E-2,-5.4863937E-2,-1.2383207E-2,-6.936035E-2,-7.495826E-2,-4.687275E-2,8.527408E-3,5.8973636E-2,-2.0677732E-1,1.8409062E-2,-9.916774E-2,-2.001729E-2,-1.1263459E-1,-2.0574053E-1],"split_indices":[1,1,1,1,1,0,1,0,1,0,0,0,1,0,0,0,0,0,0,0,0,0,0,0,0,0,0,0,0,0,0],"split_type":[0,0,0,0,0,0,0,0,0,0,0,0,0,0,0,0,0,0,0,0,0,0,0,0,0,0,0,0,0,0,0],"sum_hessian":[2.856E3,6.23E2,2.233E3,4.04E2,2.19E2,1.822E3,4.11E2,1.97E2,2.07E2,1.77E2,4.2E1,1.549E3,2.73E2,3.69E2,4.2E1,1.5E2,4.7E1,1.62E2,4.5E1,1.54E2,2.3E1,2.1E1,2.1E1,4.08E2,1.141E3,4.8E1,2.25E2,1.73E2,1.96E2,1.9E1,2.3E1],"tree_param":{"num_deleted":"0","num_feature":"2","num_nodes":"31","size_leaf_vector":"1"}},{"base_weights":[-5.5566737E-3,-5.506272E-1,1.466947E-1,-7.0866394E-1,-2.5719312E-1,4.7202656E-1,-2.8553948E-1,-7.920902E-1,-6.258415E-1,-1.816748E-1,-5.6382257E-1,1.9117184E-1,1.3346177E0,-9.038376E-1,-8.500833E-2,-8.955971E-2,-7.0461534E-2,-6.589355E-2,-4.949681E-2,-5.051266E-2,-6.843827E-3,-6.780314E-2,-4.2398553E-2,5.0400008E-2,-2.8801456E-2,2.2201133E-1,8.161926E-2,-7.9357274E-2,-1.0422726E-1,1.2753005E-2,-8.437303E-2],"categories":[],"categories_nodes":[],"categories_segments":[],"categories_sizes":[],"default_left":[0,0,0,0,0,0,0,0,0,0,0,0,0,0,0,0,0,0,0,0,0,0,0,0,0,0,0,0,0,0,0],"id":25,"left_children":[1,3,5,7,9,11,13,15,17,19,21,23,25,27,29,-1,-1,-1,-1,-1,-1,-1,-1,-1,-1,-1,-1,-1,-1,-1,-1],"loss_changes":[2.3717674E2,2.8754715E1,3.1427884E2,2.302658E0,4.9919186E0,3.0862994E2,1.1895168E2,1.1616974E0,5.7471466E-1,6.4849577E0,3.9926052E-1,1.4450177E2,1.4187476E2,2.7600403E0,1.1718057E2,0E0,0E0,0E0,0E0,0E0,0E0,0E0,0E0,0E0,0E0,0E0,0E0,0E0,0E0,0E0,0E0],"parents":[2147483647,0,0,1,1,2,2,3,3,4,4,5,5,6,6,7,7,8,8,9,9,10,10,11,11,12,12,13,13,14,14],"right_children":[2,4,6,8,10,12,14,16,18,20,22,24,26,28,30,-1,-1,-1,-1,-1,-1,-1,-1,-1,-1,-1,-1,-1,-1,-1,-1],"split_conditions":[6E0,4E0,1.7E1,2E0,5E0,1.4E1,2E0,3E0,3E0,2E0,6E0,4E0,3E0,2.1E1,7E0,-8.955971E-2,-7.0461534E-2,-6.589355E-2,-4.949681E-2,-5.051266E-2,-6.843827E-3,-6.780314E-2,-4.2398553E-2,5.0400008E-2,-2.8801456E-2,2.2201133E-1,8.161926E-2,-7.9357274E-2,-1.0422726E-1,1.2753005E-2,-8.437303E-2],"split_indices":[1,1,1,1,1,1,0,0,1,0,0,0,0,1,0,0,0,0,0,0,0,0,0,0,0,0,0,0,0,0,0],"split_type":[0,0,0,0,0,0,0,0,0,0,0,0,0,0,0,0,0,0,0,0,0,0,0,0,0,0,0,0,0,0,0],"sum_hessian":[2.856E3,6.23E2,2.233E3,4.04E2,2.19E2,1.274E3,9.59E2,1.97E2,2.07E2,1.77E2,4.2E1,9.62E2,3.12E2,2.34E2,7.25E2,8.6E1,1.11E2,1.62E2,4.5E1,4.5E1,1.32E2,2.1E1,2.1E1,5.82E2,3.8E2,1.14E2,1.98E2,1.34E2,1E2,5.67E2,1.58E2],"tree_param":{"num_deleted":"0","num_feature":"2","num_nodes":"31","size_leaf_vector":"1"}},{"base_weights":[-5.131455E-3,-4.9627438E-1,1.320567E-1,-6.384775E-1,-2.3223563E-1,3.3163464E-1,-4.7521663E-1,-7.1368927E-1,-5.638121E-1,-1.5773147E-1,-5.1846886E-1,5.4969877E-1,8.294707E-2,-2.1768399E-1,-8.077166E-1,-7.71726E-2,-5.8592297E-2,-5.934462E-2,-4.465475E-2,-4.5571264E-2,-5.1892805E-3,-6.2057443E-2,-3.8351428E-2,5.8442852E-3,9.146819E-2,-2.635918E-1,3.3548664E-2,-5.6889083E-2,1.2171309E-2,-6.4610384E-2,-1.4610521E-1],"categories":[],"categories_nodes":[],"categories_segments":[],"categories_sizes":[],"default_left":[0,0,0,0,0,0,0,0,0,0,0,0,0,0,0,0,0,0,0,0,0,0,0,0,0,0,0,0,0,0,0],"id":26,"left_children":[1,3,5,7,9,11,13,15,17,19,21,23,25,27,29,-1,-1,-1,-1,-1,-1,-1,-1,-1,-1,-1,-1,-1,-1,-1,-1],"loss_changes":[1.9256732E2,2.3281128E1,2.7091473E2,1.8719788E0,4.609847E0,9.116901E1,4.717736E1,1.0160294E0,4.5780182E-1,5.5270267E0,3.8208294E-1,1.6059949E2,5.4125494E2,3.737839E1,2.4502548E1,0E0,0E0,0E0,0E0,0E0,0E0,0E0,0E0,0E0,0E0,0E0,0E0,0E0,0E0,0E0,0E0],"parents":[2147483647,0,0,1,1,2,2,3,3,4,4,5,5,6,6,7,7,8,8,9,9,10,10,11,11,12,12,13,13,14,14],"right_children":[2,4,6,8,10,12,14,16,18,20,22,24,26,28,30,-1,-1,-1,-1,-1,-1,-1,-1,-1,-1,-1,-1,-1,-1,-1,-1],"split_conditions":[6E0,4E0,2E1,2E0,7E0,4E0,2.2E1,4E0,3E0,2E0,5E0,2E0,8E0,3E0,7E0,-7.71726E-2,-5.8592297E-2,-5.934462E-2,-4.465475E-2,-4.5571264E-2,-5.1892805E-3,-6.2057443E-2,-3.8351428E-2,5.8442852E-3,9.146819E-2,-2.635918E-1,3.3548664E-2,-5.6889083E-2,1.2171309E-2,-6.4610384E-2,-1.4610521E-1],"split_indices":[1,1,1,1,0,0,1,0,1,0,1,0,1,0,0,0,0,0,0,0,0,0,0,0,0,0,0,0,0,0,0],"split_type":[0,0,0,0,0,0,0,0,0,0,0,0,0,0,0,0,0,0,0,0,0,0,0,0,0,0,0,0,0,0,0],"sum_hessian":[2.856E3,6.23E2,2.233E3,4.04E2,2.19E2,1.681E3,5.52E2,1.97E2,2.07E2,1.75E2,4.4E1,8.95E2,7.86E2,3.12E2,2.4E2,1.32E2,6.5E1,1.62E2,4.5E1,4.5E1,1.3E2,2.3E1,2.1E1,3.82E2,5.13E2,6.6E1,7.2E2,1.53E2,1.59E2,1.94E2,4.6E1],"tree_param":{"num_deleted":"0","num_feature":"2","num_nodes":"31","size_leaf_vector":"1"}},{"base_weights":[-4.891005E-3,-4.472735E-1,1.1867728E-1,-5.752218E-1,-2.0969929E-1,3.9372146E-1,-2.467394E-1,-6.430061E-1,-5.079308E-1,-1.411127E-1,-4.887391E-1,1.4250658E-1,1.1653707E0,-7.843158E-1,-7.239064E-2,-4.7911424E-2,-6.853818E-2,-5.3446557E-2,-4.0286344E-2,-3.071594E-2,2.465693E-3,-6.083569E-2,-3.4690592E-2,2.6473684E-2,-7.1836695E-2,1.9577555E-1,7.016038E-2,-1.0521028E-1,-7.153552E-2,1.1338958E-2,-7.3560305E-2],"categories":[],"categories_nodes":[],"categories_segments":[],"categories_sizes":[],"default_left":[0,0,0,0,0,0,0,0,0,0,0,0,0,0,0,0,0,0,0,0,0,0,0,0,0,0,0,0,0,0,0],"id":27,"left_children":[1,3,5,7,9,11,13,15,17,19,21,23,25,27,29,-1,-1,-1,-1,-1,-1,-1,-1,-1,-1,-1,-1,-1,-1,-1,-1],"loss_changes":[1.562294E2,1.8847244E1,2.2462695E2,1.5207062E0,4.1414776E0,2.469924E2,8.991998E1,1.0467377E0,3.6457825E-1,4.907112E0,5.18486E-1,1.0152164E2,1.13648224E2,3.5870514E0,8.953513E1,0E0,0E0,0E0,0E0,0E0,0E0,0E0,0E0,0E0,0E0,0E0,0E0,0E0,0E0,0E0,0E0],"parents":[2147483647,0,0,1,1,2,2,3,3,4,4,5,5,6,6,7,7,8,8,9,9,10,10,11,11,12,12,13,13,14,14],"right_children":[2,4,6,8,10,12,14,16,18,20,22,24,26,28,30,-1,-1,-1,-1,-1,-1,-1,-1,-1,-1,-1,-1,-1,-1,-1,-1],"split_conditions":[6E0,4E0,1.7E1,2E0,5E0,1.4E1,2E0,1E0,3E0,3E0,6E0,7E0,3E0,1.8E1,7E0,-4.7911424E-2,-6.853818E-2,-5.3446557E-2,-4.0286344E-2,-3.071594E-2,2.465693E-3,-6.083569E-2,-3.4690592E-2,2.6473684E-2,-7.1836695E-2,1.9577555E-1,7.016038E-2,-1.0521028E-1,-7.153552E-2,1.1338958E-2,-7.3560305E-2],"split_indices":[1,1,1,1,1,1,0,1,1,0,0,0,0,1,0,0,0,0,0,0,0,0,0,0,0,0,0,0,0,0,0],"split_type":[0,0,0,0,0,0,0,0,0,0,0,0,0,0,0,0,0,0,0,0,0,0,0,0,0,0,0,0,0,0,0],"sum_hessian":[2.856E3,6.23E2,2.233E3,4.04E2,2.19E2,1.274E3,9.59E2,1.97E2,2.07E2,1.77E2,4.2E1,9.62E2,3.12E2,2.34E2,7.25E2,4.3E1,1.54E2,1.62E2,4.5E1,8.8E1,8.9E1,2.1E1,2.1E1,8.43E2,1.19E2,1.14E2,1.98E2,4.5E1,1.89E2,5.67E2,1.58E2],"tree_param":{"num_deleted":"0","num_feature":"2","num_nodes":"31","size_leaf_vector":"1"}},{"base_weights":[-4.52537E-3,5.960546E-2,-7.0089823E-1,-3.7420028E-1,2.1543826E-1,-5.659058E-1,-1.2460604E0,-2.0431072E-1,-6.0213876E-1,4.034353E-1,-4.6298843E-2,-9.305792E-1,1.6096447E-1,-8.713345E-2,-1.5688671E-1,-3.8814012E-2,1.1441982E-1,-4.207501E-2,-2.8338823E-1,1.4624436E-2,1.4156929E-1,1.0484648E-2,-3.4014612E-2,-7.8883335E-2,-1.0560777E-1,1.2366023E-1,-4.0495902E-2],"categories":[],"categories_nodes":[],"categories_segments":[],"categories_sizes":[],"default_left":[0,0,0,0,0,0,0,0,0,0,0,0,0,0,0,0,0,0,0,0,0,0,0,0,0,0,0],"id":28,"left_children":[1,3,5,7,9,11,13,15,17,19,21,23,25,-1,-1,-1,-1,-1,-1,-1,-1,-1,-1,-1,-1,-1,-1],"loss_changes":[1.27632454E2,1.7699286E2,1.7030708E1,2.6674248E1,9.478904E1,5.1838478E1,4.3182983E0,9.9106544E1,1.1822746E2,2.9163794E2,3.5833057E1,1.4794846E0,4.0676872E1,0E0,0E0,0E0,0E0,0E0,0E0,0E0,0E0,0E0,0E0,0E0,0E0,0E0,0E0],"parents":[2147483647,0,0,1,1,2,2,3,3,4,4,5,5,6,6,7,7,8,8,9,9,10,10,11,11,12,12],"right_children":[2,4,6,8,10,12,14,16,18,20,22,24,26,-1,-1,-1,-1,-1,-1,-1,-1,-1,-1,-1,-1,-1,-1],"split_conditions":[2.2E1,7E0,7E0,4E0,1.6E1,5E0,2.3E1,5E0,6E0,1.4E1,6E0,2E0,6E0,-8.713345E-2,-1.5688671E-1,-3.8814012E-2,1.1441982E-1,-4.207501E-2,-2.8338823E-1,1.4624436E-2,1.4156929E-1,1.0484648E-2,-3.4014612E-2,-7.8883335E-2,-1.0560777E-1,1.2366023E-1,-4.0495902E-2],"split_indices":[1,1,0,0,1,0,1,1,1,1,0,0,0,0,0,0,0,0,0,0,0,0,0,0,0,0,0],"split_type":[0,0,0,0,0,0,0,0,0,0,0,0,0,0,0,0,0,0,0,0,0,0,0,0,0,0,0],"sum_hessian":[2.856E3,2.616E3,2.4E2,6.91E2,1.925E3,1.94E2,4.6E1,3.97E2,2.94E2,1.12E3,8.05E2,1.29E2,6.5E1,2.3E1,2.3E1,3.5E2,4.7E1,2.73E2,2.1E1,8.94E2,2.26E2,5.32E2,2.73E2,6.4E1,6.5E1,2.2E1,4.3E1],"tree_param":{"num_deleted":"0","num_feature":"2","num_nodes":"27","size_leaf_vector":"1"}},{"base_weights":[-4.2345193E-3,-4.7802675E-1,7.399218E-2,-5.39605E-1,-4.171108E-1,1.8372008E-1,-4.70033E-1,-6.348578E-1,-4.607961E-1,-4.4087023E-1,-3.2385224E-1,2.5377744E-1,-1.9688576E-1,-7.2462E-1,-2.4455424E-1,-3.9053362E-2,-8.873352E-2,-3.988544E-2,-6.831422E-2,-5.7482567E-2,-3.413927E-2,2.5039674E-3,-6.447132E-2,-4.3326328E-3,3.5961967E-2,-1.08511224E-1,1.6949452E-2,-5.300498E-2,-8.697011E-2,3.7141198E-3,-8.487179E-2],"categories":[],"categories_nodes":[],"categories_segments":[],"categories_sizes":[],"default_left":[0,0,0,0,0,0,0,0,0,0,0,0,0,0,0,0,0,0,0,0,0,0,0,0,0,0,0,0,0,0,0],"id":29,"left_children":[1,3,5,7,9,11,13,15,17,19,21,23,25,27,29,-1,-1,-1,-1,-1,-1,-1,-1,-1,-1,-1,-1,-1,-1,-1,-1],"loss_changes":[1.0592494E2,1.2941132E0,1.4651753E2,1.1937981E0,3.181038E-1,5.4498337E1,2.3473228E1,5.020176E0,1.2700481E0,1.9758205E0,5.165649E0,5.4260147E1,1.0367023E2,4.9871063E0,3.7473354E1,0E0,0E0,0E0,0E0,0E0,0E0,0E0,0E0,0E0,0E0,0E0,0E0,0E0,0E0,0E0,0E0],"parents":[2147483647,0,0,1,1,2,2,3,3,4,4,5,5,6,6,7,7,8,8,9,9,10,10,11,11,12,12,13,13,14,14],"right_children":[2,4,6,8,10,12,14,16,18,20,22,24,26,28,30,-1,-1,-1,-1,-1,-1,-1,-1,-1,-1,-1,-1,-1,-1,-1,-1],"split_conditions":[4E0,2E0,2.1E1,3E0,3E0,7E0,3E0,2E0,7E0,2E0,2E0,2E0,1E1,2.2E1,7E0,-3.9053362E-2,-8.873352E-2,-3.988544E-2,-6.831422E-2,-5.7482567E-2,-3.413927E-2,2.5039674E-3,-6.447132E-2,-4.3326328E-3,3.5961967E-2,-1.08511224E-1,1.6949452E-2,-5.300498E-2,-8.697011E-2,3.7141198E-3,-8.487179E-2],"split_indices":[1,1,1,0,1,0,0,0,0,0,0,0,1,1,0,0,0,0,0,0,0,0,0,0,0,0,0,0,0,0,0],"split_type":[0,0,0,0,0,0,0,0,0,0,0,0,0,0,0,0,0,0,0,0,0,0,0,0,0,0,0,0,0,0,0],"sum_hessian":[2.856E3,4.04E2,2.452E3,1.97E2,2.07E2,2.041E3,4.11E2,8.6E1,1.11E2,1.62E2,4.5E1,1.724E3,3.17E2,1.92E2,2.19E2,4.5E1,4.1E1,8.9E1,2.2E1,6.7E1,9.5E1,2.2E1,2.3E1,4.53E2,1.271E3,9.2E1,2.25E2,8.4E1,1.08E2,1.5E2,6.9E1],"tree_param":{"num_deleted":"0","num_feature":"2","num_nodes":"31","size_leaf_vector":"1"}},{"base_weights":[-4.0454655E-3,4.884785E-2,-5.7839304E-1,-3.1143823E-1,1.7827107E-1,-4.6330485E-1,-1.0435803E0,-1.6490221E-1,-5.08082E-1,-2.0305184E-1,2.8475094E-1,-7.672881E-1,1.4246984E-1,-7.0649624E-2,-1.3371818E-1,-3.260734E-2,1.0170974E-1,-3.3844788E-2,-2.5977027E-1,1.1392126E-2,-6.67129E-2,7.535591E-2,1.2419253E-2,-6.2553145E-2,-8.952714E-2,1.1147656E-1,-3.6901366E-2],"categories":[],"categories_nodes":[],"categories_segments":[],"categories_sizes":[],"default_left":[0,0,0,0,0,0,0,0,0,0,0,0,0,0,0,0,0,0,0,0,0,0,0,0,0,0,0],"id":30,"left_children":[1,3,5,7,9,11,13,15,17,19,21,23,25,-1,-1,-1,-1,-1,-1,-1,-1,-1,-1,-1,-1,-1,-1],"loss_changes":[8.682147E1,1.2208463E2,1.2419052E1,1.9856453E1,7.8259605E1,3.6017662E1,3.7068024E0,7.615234E1,1.0368973E2,6.200508E1,1.1326469E2,1.7985077E0,3.3234035E1,0E0,0E0,0E0,0E0,0E0,0E0,0E0,0E0,0E0,0E0,0E0,0E0,0E0,0E0],"parents":[2147483647,0,0,1,1,2,2,3,3,4,4,5,5,6,6,7,7,8,8,9,9,10,10,11,11,12,12],"right_children":[2,4,6,8,10,12,14,16,18,20,22,24,26,-1,-1,-1,-1,-1,-1,-1,-1,-1,-1,-1,-1,-1,-1],"split_conditions":[2.2E1,7E0,7E0,4E0,2E0,5E0,2.3E1,5E0,6E0,1.7E1,3E0,2E0,6E0,-7.0649624E-2,-1.3371818E-1,-3.260734E-2,1.0170974E-1,-3.3844788E-2,-2.5977027E-1,1.1392126E-2,-6.67129E-2,7.535591E-2,1.2419253E-2,-6.2553145E-2,-8.952714E-2,1.1147656E-1,-3.6901366E-2],"split_indices":[1,1,0,0,0,0,1,1,1,1,0,0,0,0,0,0,0,0,0,0,0,0,0,0,0,0,0],"split_type":[0,0,0,0,0,0,0,0,0,0,0,0,0,0,0,0,0,0,0,0,0,0,0,0,0,0,0],"sum_hessian":[2.856E3,2.616E3,2.4E2,6.91E2,1.925E3,1.94E2,4.6E1,3.97E2,2.94E2,4.2E2,1.505E3,1.29E2,6.5E1,2.3E1,2.3E1,3.5E2,4.7E1,2.73E2,2.1E1,2.5E2,1.7E2,3.83E2,1.122E3,6.4E1,6.5E1,2.2E1,4.3E1],"tree_param":{"num_deleted":"0","num_feature":"2","num_nodes":"27","size_leaf_vector":"1"}},{"base_weights":[-3.8066958E-3,6.2253542E-2,-3.9599004E-1,-2.8061882E-1,1.9741333E-1,-5.779344E-1,-1.5592878E-1,-4.1446622E-2,-3.7982228E-1,-1.3165745E-1,2.8967798E-1,-4.3154153E-1,-6.917291E-1,1.9298208E-1,-7.019897E-1,-3.3708178E-2,2.0887843E-1,-2.8283045E-2,-1.3305233E-1,1.0257404E-2,-5.6617927E-2,8.214855E-2,1.1692024E-2,-7.1090825E-2,-2.7548198E-2,-5.639406E-2,-8.0710076E-2,4.987676E-2,-3.4594506E-3,-4.2813692E-2,-1.20903514E-1],"categories":[],"categories_nodes":[],"categories_segments":[],"categories_sizes":[],"default_left":[0,0,0,0,0,0,0,0,0,0,0,0,0,0,0,0,0,0,0,0,0,0,0,0,0,0,0,0,0,0,0],"id":31,"left_children":[1,3,5,7,9,11,13,15,17,19,21,23,25,27,29,-1,-1,-1,-1,-1,-1,-1,-1,-1,-1,-1,-1,-1,-1,-1,-1],"loss_changes":[7.404303E1,1.1340928E2,1.7905136E1,1.6403137E1,5.332274E1,3.5996246E0,3.423973E1,1.291774E2,4.4714508E1,3.9242874E1,1.2586304E2,4.3819313E0,1.4614525E0,7.6721144E0,9.202274E0,0E0,0E0,0E0,0E0,0E0,0E0,0E0,0E0,0E0,0E0,0E0,0E0,0E0,0E0,0E0,0E0],"parents":[2147483647,0,0,1,1,2,2,3,3,4,4,5,5,6,6,7,7,8,8,9,9,10,10,11,11,12,12,13,13,14,14],"right_children":[2,4,6,8,10,12,14,16,18,20,22,24,26,28,30,-1,-1,-1,-1,-1,-1,-1,-1,-1,-1,-1,-1,-1,-1,-1,-1],"split_conditions":[2.1E1,7E0,5E0,2E0,2E0,2.2E1,7E0,5E0,6E0,1.7E1,3E0,2E0,2E0,6E0,2.3E1,-3.3708178E-2,2.0887843E-1,-2.8283045E-2,-1.3305233E-1,1.0257404E-2,-5.6617927E-2,8.214855E-2,1.1692024E-2,-7.1090825E-2,-2.7548198E-2,-5.639406E-2,-8.0710076E-2,4.987676E-2,-3.4594506E-3,-4.2813692E-2,-1.20903514E-1],"split_indices":[1,1,0,0,0,1,0,1,1,1,0,0,0,0,1,0,0,0,0,0,0,0,0,0,0,0,0,0,0,0,0],"split_type":[0,0,0,0,0,0,0,0,0,0,0,0,0,0,0,0,0,0,0,0,0,0,0,0,0,0,0,0,0,0,0],"sum_hessian":[2.856E3,2.445E3,4.11E2,6.91E2,1.754E3,2.33E2,1.78E2,2.03E2,4.88E2,3.84E2,1.37E3,1.04E2,1.29E2,1.09E2,6.9E1,1.79E2,2.4E1,4.44E2,4.4E1,2.5E2,1.34E2,3.35E2,1.035E3,3.6E1,6.8E1,6.4E1,6.5E1,4.6E1,6.3E1,4.6E1,2.3E1],"tree_param":{"num_deleted":"0","num_feature":"2","num_nodes":"31","size_leaf_vector":"1"}},{"base_weights":[-3.5282131E-3,6.956268E-2,-3.0817735E-1,-2.5253683E-1,2.0761925E-1,-5.2475333E-1,-4.5505296E-2,-1.2583303E-1,-4.2262354E-1,-1.3018157E-1,3.0400687E-1,-4.478784E-1,-6.236109E-1,3.2811755E-1,-7.2926956E-1,-2.6258985E-2,8.768227E-2,-2.7654653E-2,-2.2227362E-1,9.235719E-3,-6.414389E-2,9.78226E-2,9.87681E-3,-4.869294E-2,-1.40176555E-2,-5.084141E-2,-7.2761364E-2,6.3576974E-2,1.7410541E-2,-5.858928E-2,-1.0931694E-1],"categories":[],"categories_nodes":[],"categories_segments":[],"categories_sizes":[],"default_left":[0,0,0,0,0,0,0,0,0,0,0,0,0,0,0,0,0,0,0,0,0,0,0,0,0,0,0,0,0,0,0],"id":32,"left_children":[1,3,5,7,9,11,13,15,17,19,21,23,25,27,29,-1,-1,-1,-1,-1,-1,-1,-1,-1,-1,-1,-1,-1,-1,-1,-1],"loss_changes":[6.3638477E1,1.0255106E2,3.1435432E1,1.4859859E1,5.2591133E1,2.0233994E0,6.436224E1,5.4803997E1,7.695705E1,4.090431E1,1.7370354E2,2.022541E0,1.1875725E0,7.612602E0,4.003071E0,0E0,0E0,0E0,0E0,0E0,0E0,0E0,0E0,0E0,0E0,0E0,0E0,0E0,0E0,0E0,0E0],"parents":[2147483647,0,0,1,1,2,2,3,3,4,4,5,5,6,6,7,7,8,8,9,9,10,10,11,11,12,12,13,13,14,14],"right_children":[2,4,6,8,10,12,14,16,18,20,22,24,26,28,30,-1,-1,-1,-1,-1,-1,-1,-1,-1,-1,-1,-1,-1,-1,-1,-1],"split_conditions":[2E1,7E0,5E0,4E0,2E0,2.2E1,7E0,5E0,6E0,1.7E1,3E0,3E0,2E0,2.1E1,2.3E1,-2.6258985E-2,8.768227E-2,-2.7654653E-2,-2.2227362E-1,9.235719E-3,-6.414389E-2,9.78226E-2,9.87681E-3,-4.869294E-2,-1.40176555E-2,-5.084141E-2,-7.2761364E-2,6.3576974E-2,1.7410541E-2,-5.858928E-2,-1.0931694E-1],"split_indices":[1,1,0,0,0,1,0,1,1,1,0,0,0,1,1,0,0,0,0,0,0,0,0,0,0,0,0,0,0,0,0],"split_type":[0,0,0,0,0,0,0,0,0,0,0,0,0,0,0,0,0,0,0,0,0,0,0,0,0,0,0,0,0,0,0],"sum_hessian":[2.856E3,2.304E3,5.52E2,6.91E2,1.613E3,3.02E2,2.5E2,3.97E2,2.94E2,3.58E2,1.255E3,1.73E2,1.29E2,1.62E2,8.8E1,3.5E2,4.7E1,2.73E2,2.1E1,2.5E2,1.08E2,2.92E2,9.63E2,1.53E2,2E1,6.4E1,6.5E1,5.3E1,1.09E2,6.5E1,2.3E1],"tree_param":{"num_deleted":"0","num_feature":"2","num_nodes":"31","size_leaf_vector":"1"}},{"base_weights":[-3.3183102E-3,-3.4126702E-1,5.247971E-2,-3.8857502E-1,-2.7081403E-1,1.4854592E-1,-2.7785364E-1,-4.3952054E-1,1.1119428E-2,7.9003297E-4,-3.2028753E-1,1.5816478E-2,3.662371E-1,-4.7289285E-1,-4.130093E-2,-2.446018E-2,-4.8601713E-2,-5.319191E-2,-2.7669242E-2,1.1564563E-2,-6.0897835E-2,1.1689601E-1,-3.3668353E-4,-4.0345095E-2,-5.6220055E-2,2.9580293E-2,-6.582293E-2],"categories":[],"categories_nodes":[],"categories_segments":[],"categories_sizes":[],"default_left":[0,0,0,0,0,0,0,0,0,0,0,0,0,0,0,0,0,0,0,0,0,0,0,0,0,0,0],"id":33,"left_children":[1,3,5,7,9,11,13,15,-1,-1,17,19,21,23,25,-1,-1,-1,-1,-1,-1,-1,-1,-1,-1,-1,-1],"loss_changes":[5.389198E1,1.2446289E0,7.788446E1,6.1595116E0,2.2914991E0,5.492176E1,2.5494259E1,1.8568649E0,0E0,0E0,1.1537018E0,7.3795E1,2.1362039E2,1.6522903E0,5.2394905E1,0E0,0E0,0E0,0E0,0E0,0E0,0E0,0E0,0E0,0E0,0E0,0E0],"parents":[2147483647,0,0,1,1,2,2,3,3,4,4,5,5,6,6,7,7,10,10,11,11,12,12,13,13,14,14],"right_children":[2,4,6,8,10,12,14,16,-1,-1,18,20,22,24,26,-1,-1,-1,-1,-1,-1,-1,-1,-1,-1,-1,-1],"split_conditions":[4E0,6E0,2E1,3E0,7E0,1.4E1,5E0,1E0,1.1119428E-2,7.9003297E-4,2E0,1.3E1,1.6E1,2.2E1,7E0,-2.446018E-2,-4.8601713E-2,-5.319191E-2,-2.7669242E-2,1.1564563E-2,-6.0897835E-2,1.1689601E-1,-3.3668353E-4,-4.0345095E-2,-5.6220055E-2,2.9580293E-2,-6.582293E-2],"split_indices":[1,0,1,1,0,1,0,1,0,0,1,1,1,1,0,0,0,0,0,0,0,0,0,0,0,0,0],"split_type":[0,0,0,0,0,0,0,0,0,0,0,0,0,0,0,0,0,0,0,0,0,0,0,0,0,0,0],"sum_hessian":[2.856E3,4.04E2,2.452E3,2.39E2,1.65E2,1.9E3,5.52E2,2.17E2,2.2E1,2.5E1,1.4E2,1.181E3,7.19E2,3.02E2,2.5E2,4.3E1,1.74E2,2.2E1,1.18E2,1.019E3,1.62E2,2.26E2,4.93E2,1.73E2,1.29E2,1.62E2,8.8E1],"tree_param":{"num_deleted":"0","num_feature":"2","num_nodes":"27","size_leaf_vector":"1"}},{"base_weights":[-3.0589458E-3,5.6191437E-2,-2.6512647E-1,-3.5440886E-1,1.03927046E-1,-5.596682E-1,-3.158967E-2,-3.959037E-1,7.140563E-4,1.7242159E-1,-2.4523886E-1,-2.7613258E-1,-1.618738E-1,2.2857268E-1,-2.4524769E-1,-2.2069765E-2,-4.3769322E-2,-1.8494021E-3,2.4372932E-2,-4.1942976E-2,1.2754217E-2,-4.810397E-2,-2.4552524E-2,-1.1853583E-1,-4.270057E-3],"categories":[],"categories_nodes":[],"categories_segments":[],"categories_sizes":[],"default_left":[0,0,0,0,0,0,0,0,0,0,0,0,0,0,0,0,0,0,0,0,0,0,0,0,0],"id":34,"left_children":[1,3,5,7,9,11,13,15,-1,17,19,21,-1,-1,23,-1,-1,-1,-1,-1,-1,-1,-1,-1,-1],"loss_changes":[4.4377254E1,4.5725025E1,3.623271E1,3.6484222E0,5.0002724E1,6.9519196E1,1.4661897E2,1.4995499E0,0E0,2.3787735E1,2.2326221E1,1.0421505E0,0E0,0E0,5.15523E1,0E0,0E0,0E0,0E0,0E0,0E0,0E0,0E0,0E0,0E0],"parents":[2147483647,0,0,1,1,2,2,3,3,4,4,5,5,6,6,7,7,9,9,10,10,11,11,14,14],"right_children":[2,4,6,8,10,12,14,16,-1,18,20,22,-1,-1,24,-1,-1,-1,-1,-1,-1,-1,-1,-1,-1],"split_conditions":[7E0,3E0,1E1,6E0,2.1E1,6E0,1.2E1,1E0,7.140563E-4,2E0,5E0,2E0,-1.618738E-1,2.2857268E-1,1.4E1,-2.2069765E-2,-4.3769322E-2,-1.8494021E-3,2.4372932E-2,-4.1942976E-2,1.2754217E-2,-4.810397E-2,-2.4552524E-2,-1.1853583E-1,-4.270057E-3],"split_indices":[0,1,1,0,1,1,1,1,0,0,0,1,0,0,1,0,0,0,0,0,0,0,0,0,0],"split_type":[0,0,0,0,0,0,0,0,0,0,0,0,0,0,0,0,0,0,0,0,0,0,0,0,0],"sum_hessian":[2.856E3,2.33E3,5.26E2,2.42E2,2.088E3,2.32E2,2.94E2,2.17E2,2.5E1,1.746E3,3.42E2,1.84E2,4.8E1,2.4E1,2.7E2,4.3E1,1.74E2,4.75E2,1.271E3,2.33E2,1.09E2,2.2E1,1.62E2,4.7E1,2.23E2],"tree_param":{"num_deleted":"0","num_feature":"2","num_nodes":"25","size_leaf_vector":"1"}},{"base_weights":[-2.8229682E-3,5.374787E-2,-2.3861493E-1,-6.584429E-2,3.1710815E-1,-4.27808E-1,-6.804235E-2,-1.0633335E-2,-5.477741E-1,1.8869604E0,1.4781974E-1,-3.079304E-1,-5.3660685E-1,1.5953867E-1,-5.889242E-1,-1.988409E-2,1.6706144E-2,-1.2959926E-2,-2.850915E-1,-1.006765E-1,3.3244595E-1,5.2158315E-2,-4.460421E-2,1.27128735E-2,-4.2118452E-2,-8.031889E-2,-4.0471207E-2,5.2041627E-2,2.942655E-3,-4.5916088E-2,-9.21235E-2],"categories":[],"categories_nodes":[],"categories_segments":[],"categories_sizes":[],"default_left":[0,0,0,0,0,0,0,0,0,0,0,0,0,0,0,0,0,0,0,0,0,0,0,0,0,0,0,0,0,0,0],"id":35,"left_children":[1,3,5,7,9,11,13,15,17,19,21,23,25,27,29,-1,-1,-1,-1,-1,-1,-1,-1,-1,-1,-1,-1,-1,-1,-1,-1],"loss_changes":[3.8122208E1,7.261876E1,1.7816835E1,4.2194145E1,1.9106668E2,3.2519073E0,3.470846E1,4.7656765E1,1.5661833E2,2.9452783E2,1.4473108E2,6.31112E0,4.456806E0,9.563414E0,3.4148426E0,0E0,0E0,0E0,0E0,0E0,0E0,0E0,0E0,0E0,0E0,0E0,0E0,0E0,0E0,0E0,0E0],"parents":[2147483647,0,0,1,1,2,2,3,3,4,4,5,5,6,6,7,7,8,8,9,9,10,10,11,11,12,12,13,13,14,14],"right_children":[2,4,6,8,10,12,14,16,18,20,22,24,26,28,30,-1,-1,-1,-1,-1,-1,-1,-1,-1,-1,-1,-1,-1,-1,-1,-1],"split_conditions":[2E1,1.4E1,3E0,1.3E1,1.5E1,2E0,7E0,7E0,6E0,6E0,6E0,2.1E1,2.1E1,2.1E1,2.3E1,-1.988409E-2,1.6706144E-2,-1.2959926E-2,-2.850915E-1,-1.006765E-1,3.3244595E-1,5.2158315E-2,-4.460421E-2,1.27128735E-2,-4.2118452E-2,-8.031889E-2,-4.0471207E-2,5.2041627E-2,2.942655E-3,-4.5916088E-2,-9.21235E-2],"split_indices":[1,1,0,1,1,0,0,1,0,0,0,1,1,1,1,0,0,0,0,0,0,0,0,0,0,0,0,0,0,0,0],"split_type":[0,0,0,0,0,0,0,0,0,0,0,0,0,0,0,0,0,0,0,0,0,0,0,0,0,0,0,0,0,0,0],"sum_hessian":[2.856E3,2.304E3,5.52E2,1.585E3,7.19E2,2.61E2,2.91E2,1.423E3,1.62E2,6.9E1,6.5E2,1.26E2,1.35E2,2.03E2,8.8E1,6.91E2,7.32E2,1.38E2,2.4E1,2.3E1,4.6E1,3.99E2,2.51E2,2.6E1,1E2,4.3E1,9.2E1,5.3E1,1.5E2,6.5E1,2.3E1],"tree_param":{"num_deleted":"0","num_feature":"2","num_nodes":"31","size_leaf_vector":"1"}},{"base_weights":[-2.64409E-3,4.8346117E-2,-2.1517535E-1,-5.9449878E-2,2.857296E-1,-3.8560054E-1,-6.1522707E-2,-9.572377E-3,-4.9482477E-1,9.734839E-1,-3.0881666E-2,-2.7736875E-1,-4.838346E-1,1.43854E-1,-5.315826E-1,-1.789855E-2,1.5037777E-2,-1.1673208E-2,-2.577227E-1,1.7015755E-1,6.4475045E-2,2.511023E-2,-4.9917288E-2,1.148871E-2,-3.7948303E-2,-7.2469585E-2,-3.6467623E-2,4.6933807E-2,2.6503068E-3,-4.1394018E-2,-8.3294995E-2],"categories":[],"categories_nodes":[],"categories_segments":[],"categories_sizes":[],"default_left":[0,0,0,0,0,0,0,0,0,0,0,0,0,0,0,0,0,0,0,0,0,0,0,0,0,0,0,0,0,0,0],"id":36,"left_children":[1,3,5,7,9,11,13,15,17,19,21,23,25,27,29,-1,-1,-1,-1,-1,-1,-1,-1,-1,-1,-1,-1,-1,-1,-1,-1],"loss_changes":[3.097175E1,5.89996E1,1.4457285E1,3.4435905E1,1.5681061E2,2.6513977E0,2.826596E1,3.861397E1,1.2803577E2,5.3234924E1,6.5358345E1,5.1305723E0,3.6390076E0,7.779516E0,2.8105793E0,0E0,0E0,0E0,0E0,0E0,0E0,0E0,0E0,0E0,0E0,0E0,0E0,0E0,0E0,0E0,0E0],"parents":[2147483647,0,0,1,1,2,2,3,3,4,4,5,5,6,6,7,7,8,8,9,9,10,10,11,11,12,12,13,13,14,14],"right_children":[2,4,6,8,10,12,14,16,18,20,22,24,26,28,30,-1,-1,-1,-1,-1,-1,-1,-1,-1,-1,-1,-1,-1,-1,-1,-1],"split_conditions":[2E1,1.4E1,3E0,1.3E1,1.6E1,2E0,7E0,7E0,6E0,1.5E1,6E0,2.1E1,2.1E1,2.1E1,2.3E1,-1.789855E-2,1.5037777E-2,-1.1673208E-2,-2.577227E-1,1.7015755E-1,6.4475045E-2,2.511023E-2,-4.9917288E-2,1.148871E-2,-3.7948303E-2,-7.2469585E-2,-3.6467623E-2,4.6933807E-2,2.6503068E-3,-4.1394018E-2,-8.3294995E-2],"split_indices":[1,1,0,1,1,0,0,1,0,1,0,1,1,1,1,0,0,0,0,0,0,0,0,0,0,0,0,0,0,0,0],"split_type":[0,0,0,0,0,0,0,0,0,0,0,0,0,0,0,0,0,0,0,0,0,0,0,0,0,0,0,0,0,0,0],"sum_hessian":[2.856E3,2.304E3,5.52E2,1.585E3,7.19E2,2.61E2,2.91E2,1.423E3,1.62E2,2.26E2,4.93E2,1.26E2,1.35E2,2.03E2,8.8E1,6.91E2,7.32E2,1.38E2,2.4E1,6.9E1,1.57E2,3.08E2,1.85E2,2.6E1,1E2,4.3E1,9.2E1,5.3E1,1.5E2,6.5E1,2.3E1],"tree_param":{"num_deleted":"0","num_feature":"2","num_nodes":"31","size_leaf_vector":"1"}},{"base_weights":[-2.475141E-3,-2.3883082E-1,3.6549125E-2,-2.8935E-1,-1.8959223E-1,1.4367807E-1,-1.3020836E-1,-3.7788665E-1,-2.1799251E-1,-2.0101069E-1,-1.450096E-1,9.810175E-3,6.487521E-1,-4.3756533E-1,-3.0540185E-2,-1.5636718E-2,-6.115059E-2,-1.6934168E-2,-3.988874E-2,-2.9873585E-2,-1.2969482E-2,1.3846663E-2,-4.1063227E-2,1.2405916E-2,-3.4526847E-2,1.3009225E-1,2.6860962E-2,-8.452472E-2,-3.3656042E-2,1.7353795E-2,-2.92922E-2],"categories":[],"categories_nodes":[],"categories_segments":[],"categories_sizes":[],"default_left":[0,0,0,0,0,0,0,0,0,0,0,0,0,0,0,0,0,0,0,0,0,0,0,0,0,0,0,0,0,0,0],"id":37,"left_children":[1,3,5,7,9,11,13,15,17,19,21,23,25,27,29,-1,-1,-1,-1,-1,-1,-1,-1,-1,-1,-1,-1,-1,-1,-1,-1],"loss_changes":[2.6360575E1,9.525757E-1,4.3840454E1,1.168539E0,7.6737404E-2,1.0100775E2,2.9394995E1,4.4067373E0,9.181285E-1,1.0972605E0,3.5205536E0,4.799347E1,7.7248795E1,9.392323E0,3.892551E1,0E0,0E0,0E0,0E0,0E0,0E0,0E0,0E0,0E0,0E0,0E0,0E0,0E0,0E0,0E0,0E0],"parents":[2147483647,0,0,1,1,2,2,3,3,4,4,5,5,6,6,7,7,8,8,9,9,10,10,11,11,12,12,13,13,14,14],"right_children":[2,4,6,8,10,12,14,16,18,20,22,24,26,28,30,-1,-1,-1,-1,-1,-1,-1,-1,-1,-1,-1,-1,-1,-1,-1,-1],"split_conditions":[4E0,2E0,1.7E1,3E0,3E0,1.4E1,2E0,2E0,7E0,2E0,2E0,1.2E1,3E0,1.8E1,6E0,-1.5636718E-2,-6.115059E-2,-1.6934168E-2,-3.988874E-2,-2.9873585E-2,-1.2969482E-2,1.3846663E-2,-4.1063227E-2,1.2405916E-2,-3.4526847E-2,1.3009225E-1,2.6860962E-2,-8.452472E-2,-3.3656042E-2,1.7353795E-2,-2.92922E-2],"split_indices":[1,1,1,0,1,1,0,0,0,0,0,1,0,1,0,0,0,0,0,0,0,0,0,0,0,0,0,0,0,0,0],"split_type":[0,0,0,0,0,0,0,0,0,0,0,0,0,0,0,0,0,0,0,0,0,0,0,0,0,0,0,0,0,0,0],"sum_hessian":[2.856E3,4.04E2,2.452E3,1.97E2,2.07E2,1.493E3,9.59E2,8.6E1,1.11E2,1.62E2,4.5E1,1.181E3,3.12E2,2.34E2,7.25E2,4.5E1,4.1E1,8.9E1,2.2E1,6.7E1,9.5E1,2.2E1,2.3E1,8.94E2,2.87E2,1.14E2,1.98E2,4.5E1,1.89E2,4.08E2,3.17E2],"tree_param":{"num_deleted":"0","num_feature":"2","num_nodes":"31","size_leaf_vector":"1"}},{"base_weights":[-2.2972233E-3,2.534514E-2,-3.024539E-1,-1.5257457E-1,8.925744E-2,-2.021995E-1,-4.6841186E-1,6.293529E-2,-2.4216852E-1,-1.9012913E-1,1.6730025E-1,-3.9234555E-1,8.813303E-2,-3.694892E-2,-7.2505385E-2,-1.8132929E-2,1.8191229E-1,-1.4963497E-2,-1.1518409E-1,-7.3722646E-2,-2.8437502E-3,4.9420327E-2,5.5369665E-3,-2.4972867E-2,-5.2685697E-2],"categories":[],"categories_nodes":[],"categories_segments":[],"categories_sizes":[],"default_left":[0,0,0,0,0,0,0,0,0,0,0,0,0,0,0,0,0,0,0,0,0,0,0,0,0],"id":38,"left_children":[1,3,5,7,9,11,13,15,17,19,21,23,-1,-1,-1,-1,-1,-1,-1,-1,-1,-1,-1,-1,-1],"loss_changes":[2.3712309E1,2.9772202E1,3.9150486E0,1.3376638E1,4.2026535E1,3.1662174E1,2.0169964E0,8.784064E1,4.0989323E1,3.7221138E1,5.5077858E1,2.3622952E0,0E0,0E0,0E0,0E0,0E0,0E0,0E0,0E0,0E0,0E0,0E0,0E0,0E0],"parents":[2147483647,0,0,1,1,2,2,3,3,4,4,5,5,6,6,7,7,8,8,9,9,10,10,11,11],"right_children":[2,4,6,8,10,12,14,16,18,20,22,24,-1,-1,-1,-1,-1,-1,-1,-1,-1,-1,-1,-1,-1],"split_conditions":[2.2E1,7E0,6E0,2E0,2E0,5E0,2.3E1,5E0,6E0,1E1,3E0,2E0,8.813303E-2,-3.694892E-2,-7.2505385E-2,-1.8132929E-2,1.8191229E-1,-1.4963497E-2,-1.1518409E-1,-7.3722646E-2,-2.8437502E-3,4.9420327E-2,5.5369665E-3,-2.4972867E-2,-5.2685697E-2],"split_indices":[1,1,0,0,0,0,1,1,1,1,0,0,0,0,0,0,0,0,0,0,0,0,0,0,0],"split_type":[0,0,0,0,0,0,0,0,0,0,0,0,0,0,0,0,0,0,0,0,0,0,0,0,0],"sum_hessian":[2.856E3,2.616E3,2.4E2,6.91E2,1.925E3,1.51E2,8.9E1,2.03E2,4.88E2,4.2E2,1.505E3,1.29E2,2.2E1,6.6E1,2.3E1,1.79E2,2.4E1,4.44E2,4.4E1,9.5E1,3.25E2,3.83E2,1.122E3,6.4E1,6.5E1],"tree_param":{"num_deleted":"0","num_feature":"2","num_nodes":"25","size_leaf_vector":"1"}},{"base_weights":[-2.0978474E-3,4.0874895E-2,-1.812119E-1,-4.3876275E-2,2.2750612E-1,-3.2246795E-1,-9.969711E-3,1.7845482E-2,-3.2211477E-1,1.5019126E0,9.012369E-2,-2.0247607E-1,-4.0674195E-1,2.1680634E-1,-4.251891E-1,-9.961364E-3,2.513726E-2,2.6971031E-2,-6.1943203E-2,-1.104401E-1,2.8008407E-1,3.8792163E-2,-3.829291E-2,1.3897182E-2,-2.9174952E-2,-7.1913E-2,-3.0113144E-2,4.2326514E-2,1.13482885E-2,-7.980359E-2,-3.1258732E-2],"categories":[],"categories_nodes":[],"categories_segments":[],"categories_sizes":[],"default_left":[0,0,0,0,0,0,0,0,0,0,0,0,0,0,0,0,0,0,0,0,0,0,0,0,0,0,0,0,0,0,0],"id":39,"left_children":[1,3,5,7,9,11,13,15,17,19,21,23,25,27,29,-1,-1,-1,-1,-1,-1,-1,-1,-1,-1,-1,-1,-1,-1,-1,-1],"loss_changes":[2.19978E1,3.6468666E1,1.3373299E1,2.7242714E1,1.25923004E2,2.9816399E0,2.3726799E1,3.5656467E1,5.08435E1,2.400722E2,9.185761E1,3.911788E0,5.6229324E0,3.4290876E0,3.487051E0,0E0,0E0,0E0,0E0,0E0,0E0,0E0,0E0,0E0,0E0,0E0,0E0,0E0,0E0,0E0,0E0],"parents":[2147483647,0,0,1,1,2,2,3,3,4,4,5,5,6,6,7,7,8,8,9,9,10,10,11,11,12,12,13,13,14,14],"right_children":[2,4,6,8,10,12,14,16,18,20,22,24,26,28,30,-1,-1,-1,-1,-1,-1,-1,-1,-1,-1,-1,-1,-1,-1,-1,-1],"split_conditions":[2E1,1.4E1,5E0,1.2E1,1.5E1,2E0,7E0,9E0,3E0,6E0,6E0,2.1E1,2.1E1,2.1E1,2.1E1,-9.961364E-3,2.513726E-2,2.6971031E-2,-6.1943203E-2,-1.104401E-1,2.8008407E-1,3.8792163E-2,-3.829291E-2,1.3897182E-2,-2.9174952E-2,-7.1913E-2,-3.0113144E-2,4.2326514E-2,1.13482885E-2,-7.980359E-2,-3.1258732E-2],"split_indices":[1,1,0,1,1,0,0,1,0,0,0,1,1,1,1,0,0,0,0,0,0,0,0,0,0,0,0,0,0,0,0],"split_type":[0,0,0,0,0,0,0,0,0,0,0,0,0,0,0,0,0,0,0,0,0,0,0,0,0,0,0,0,0,0,0],"sum_hessian":[2.856E3,2.304E3,5.52E2,1.585E3,7.19E2,3.02E2,2.5E2,1.298E3,2.87E2,6.9E1,6.5E2,1.26E2,1.76E2,1.62E2,8.8E1,8.64E2,4.34E2,9.6E1,1.91E2,2.3E1,4.6E1,3.99E2,2.51E2,2.6E1,1E2,4.3E1,1.33E2,5.3E1,1.09E2,1.9E1,6.9E1],"tree_param":{"num_deleted":"0","num_feature":"2","num_nodes":"31","size_leaf_vector":"1"}},{"base_weights":[-1.8965497E-3,5.5698037E-2,-1.1576387E-1,-3.9501105E-2,5.3790295E-1,-3.924039E-1,-2.6058406E-2,2.2302639E-2,-3.0020735E-1,1.1140573E0,2.0224646E-1,-6.3354707E-1,-1.8234873E-1,1.3418746E-1,-2.3207885E-1,-6.967177E-3,5.5505227E-2,-1.2571463E-2,-2.2425178E-1,7.722269E-2,1.5429923E-1,1.3541442E-1,-4.1956194E-2,-7.977268E-2,-5.0564367E-2,1.25589585E-2,-2.6286343E-2,5.89735E-2,-1.5789969E-2,-7.941812E-2,-1.3166191E-2],"categories":[],"categories_nodes":[],"categories_segments":[],"categories_sizes":[],"default_left":[0,0,0,0,0,0,0,0,0,0,0,0,0,0,0,0,0,0,0,0,0,0,0,0,0,0,0,0,0,0,0],"id":40,"left_children":[1,3,5,7,9,11,13,15,17,19,21,23,25,27,29,-1,-1,-1,-1,-1,-1,-1,-1,-1,-1,-1,-1,-1,-1,-1,-1],"loss_changes":[1.8743057E1,8.714987E1,2.3813255E1,2.5561316E1,6.030574E1,1.1788013E1,2.3999252E1,6.2904816E1,1.0274947E2,1.5670105E1,1.4310382E2,1.8855476E0,3.1817956E0,5.4514484E1,1.784482E1,0E0,0E0,0E0,0E0,0E0,0E0,0E0,0E0,0E0,0E0,0E0,0E0,0E0,0E0,0E0,0E0],"parents":[2147483647,0,0,1,1,2,2,3,3,4,4,5,5,6,6,7,7,8,8,9,9,10,10,11,11,12,12,13,13,14,14],"right_children":[2,4,6,8,10,12,14,16,18,20,22,24,26,28,30,-1,-1,-1,-1,-1,-1,-1,-1,-1,-1,-1,-1,-1,-1,-1,-1],"split_conditions":[1.7E1,1.4E1,2E0,7E0,3E0,2E1,6E0,6E0,1.3E1,2E0,1.5E1,1.8E1,2.1E1,2E1,1.8E1,-6.967177E-3,5.5505227E-2,-1.2571463E-2,-2.2425178E-1,7.722269E-2,1.5429923E-1,1.3541442E-1,-4.1956194E-2,-7.977268E-2,-5.0564367E-2,1.25589585E-2,-2.6286343E-2,5.89735E-2,-1.5789969E-2,-7.941812E-2,-1.3166191E-2],"split_indices":[1,1,0,0,0,1,0,0,1,0,1,1,1,1,1,0,0,0,0,0,0,0,0,0,0,0,0,0,0,0,0],"split_type":[0,0,0,0,0,0,0,0,0,0,0,0,0,0,0,0,0,0,0,0,0,0,0,0,0,0,0,0,0,0,0],"sum_hessian":[2.856E3,1.897E3,9.59E2,1.585E3,3.12E2,2.34E2,7.25E2,1.282E3,3.03E2,1.14E2,1.98E2,1.08E2,1.26E2,4.08E2,3.17E2,1.094E3,1.88E2,2.79E2,2.4E1,6.5E1,4.9E1,6.9E1,1.29E2,4.5E1,6.3E1,2.6E1,1E2,1.59E2,2.49E2,4.7E1,2.7E2],"tree_param":{"num_deleted":"0","num_feature":"2","num_nodes":"31","size_leaf_vector":"1"}},{"base_weights":[-1.7266413E-3,-1.8450779E-1,2.8451951E-2,-2.3590375E-1,-1.3469571E-1,1.2076136E-1,-9.5831126E-2,-9.2449814E-2,-2.7510422E-1,-1.4490718E-1,-9.558342E-2,1.5358475E-2,6.6906726E-1,-1.0270207E-2,-2.5678936E-1,8.629442E-3,-2.7511654E-2,-5.1618606E-2,-1.779372E-2,-2.347558E-2,-7.975495E-3,1.5875965E-2,-3.3534624E-2,1.625398E-2,-2.0716479E-2,1.2206646E-1,4.2045414E-2,-1.4744187E-2,4.398885E-2,-6.568718E-2,-1.1854412E-2],"categories":[],"categories_nodes":[],"categories_segments":[],"categories_sizes":[],"default_left":[0,0,0,0,0,0,0,0,0,0,0,0,0,0,0,0,0,0,0,0,0,0,0,0,0,0,0,0,0,0,0],"id":41,"left_children":[1,3,5,7,9,11,13,15,17,19,21,23,25,27,29,-1,-1,-1,-1,-1,-1,-1,-1,-1,-1,-1,-1,-1,-1,-1,-1],"loss_changes":[1.5764684E1,1.0050821E0,2.8153608E1,1.0880108E0,6.922293E-2,8.1362305E1,1.4402594E1,1.4603685E0,3.5390587E0,9.354532E-1,2.8584118E0,3.8745674E1,3.0616264E1,4.230118E1,1.999948E1,0E0,0E0,0E0,0E0,0E0,0E0,0E0,0E0,0E0,0E0,0E0,0E0,0E0,0E0,0E0,0E0],"parents":[2147483647,0,0,1,1,2,2,3,3,4,4,5,5,6,6,7,7,8,8,9,9,10,10,11,11,12,12,13,13,14,14],"right_children":[2,4,6,8,10,12,14,16,18,20,22,24,26,28,30,-1,-1,-1,-1,-1,-1,-1,-1,-1,-1,-1,-1,-1,-1,-1,-1],"split_conditions":[4E0,2E0,1.6E1,1E0,3E0,1.4E1,6E0,2E0,3E0,2E0,2E0,4E0,1.5E1,5E0,1.8E1,8.629442E-3,-2.7511654E-2,-5.1618606E-2,-1.779372E-2,-2.347558E-2,-7.975495E-3,1.5875965E-2,-3.3534624E-2,1.625398E-2,-2.0716479E-2,1.2206646E-1,4.2045414E-2,-1.4744187E-2,4.398885E-2,-6.568718E-2,-1.1854412E-2],"split_indices":[1,1,1,1,1,1,0,0,0,0,0,0,1,0,1,0,0,0,0,0,0,0,0,0,0,0,0,0,0,0,0],"split_type":[0,0,0,0,0,0,0,0,0,0,0,0,0,0,0,0,0,0,0,0,0,0,0,0,0,0,0,0,0,0,0],"sum_hessian":[2.856E3,4.04E2,2.452E3,1.97E2,2.07E2,1.407E3,1.045E3,4.3E1,1.54E2,1.62E2,4.5E1,1.181E3,2.26E2,6.83E2,3.62E2,2.2E1,2.1E1,4.3E1,1.11E2,6.7E1,9.5E1,2.2E1,2.3E1,7.11E2,4.7E2,6.9E1,1.57E2,5.24E2,1.59E2,9.2E1,2.7E2],"tree_param":{"num_deleted":"0","num_feature":"2","num_nodes":"31","size_leaf_vector":"1"}},{"base_weights":[-1.5633422E-3,1.9294154E-2,-2.2804677E-1,-1.15495056E-1,6.7713074E-2,-1.3213961E-1,-3.8748944E-1,-5.57894E-3,-2.6339716E-1,-1.891502E-1,1.3947386E-1,-2.8882182E-1,7.592007E-2,-3.0499717E-2,-6.0163505E-2,-1.1007117E-2,7.5863674E-2,-1.28268E-2,-1.9343968E-1,-6.826153E-2,-4.3255114E-3,4.9857836E-2,5.3787916E-3,-1.5601443E-2,-4.152409E-2],"categories":[],"categories_nodes":[],"categories_segments":[],"categories_sizes":[],"default_left":[0,0,0,0,0,0,0,0,0,0,0,0,0,0,0,0,0,0,0,0,0,0,0,0,0],"id":42,"left_children":[1,3,5,7,9,11,13,15,17,19,21,23,-1,-1,-1,-1,-1,-1,-1,-1,-1,-1,-1,-1,-1],"loss_changes":[1.3500517E1,1.7087273E1,3.634097E0,1.1248254E1,3.5527775E1,2.1447166E1,1.4063845E0,3.1865635E1,6.6363106E1,3.0280003E1,4.631311E1,2.117837E0,0E0,0E0,0E0,0E0,0E0,0E0,0E0,0E0,0E0,0E0,0E0,0E0,0E0],"parents":[2147483647,0,0,1,1,2,2,3,3,4,4,5,5,6,6,7,7,8,8,9,9,10,10,11,11],"right_children":[2,4,6,8,10,12,14,16,18,20,22,24,-1,-1,-1,-1,-1,-1,-1,-1,-1,-1,-1,-1,-1],"split_conditions":[2.2E1,7E0,6E0,4E0,2E0,5E0,2.3E1,5E0,6E0,1E1,1E1,2E0,7.592007E-2,-3.0499717E-2,-6.0163505E-2,-1.1007117E-2,7.5863674E-2,-1.28268E-2,-1.9343968E-1,-6.826153E-2,-4.3255114E-3,4.9857836E-2,5.3787916E-3,-1.5601443E-2,-4.152409E-2],"split_indices":[1,1,0,0,0,0,1,1,1,1,1,0,0,0,0,0,0,0,0,0,0,0,0,0,0],"split_type":[0,0,0,0,0,0,0,0,0,0,0,0,0,0,0,0,0,0,0,0,0,0,0,0,0],"sum_hessian":[2.856E3,2.616E3,2.4E2,6.91E2,1.925E3,1.51E2,8.9E1,3.97E2,2.94E2,4.2E2,1.505E3,1.29E2,2.2E1,6.6E1,2.3E1,3.5E2,4.7E1,2.73E2,2.1E1,9.5E1,3.25E2,2.89E2,1.216E3,6.4E1,6.5E1],"tree_param":{"num_deleted":"0","num_feature":"2","num_nodes":"25","size_leaf_vector":"1"}},{"base_weights":[-1.4876603E-3,3.9186757E-2,-1.06302604E-1,1.9094914E-1,-1.48172E-1,-3.7223542E-1,1.7494339E-1,6.277049E-2,7.705595E-1,-4.907827E-1,-9.060142E-2,-1.405016E0,-2.4458593E-1,7.945764E-1,-9.779193E-2,2.0397644E-2,-1.0359728E-2,1.1310227E-2,1.5227178E-1,-6.637635E-2,8.823015E-3,-2.9834492E-2,-2.4505995E-1,-2.6034612E-2,-1.1643337E-2,2.7985257E-1,3.1122167E-2,1.107051E-2,-3.0253142E-2],"categories":[],"categories_nodes":[],"categories_segments":[],"categories_sizes":[],"default_left":[0,0,0,0,0,0,0,0,0,0,0,0,0,0,0,0,0,0,0,0,0,0,0,0,0,0,0,0,0],"id":43,"left_children":[1,3,5,7,9,11,13,15,17,-1,19,21,23,25,27,-1,-1,-1,-1,-1,-1,-1,-1,-1,-1,-1,-1,-1,-1],"loss_changes":[1.2184376E1,5.8573925E1,5.9824356E1,8.449783E1,2.5219821E2,5.3840088E1,6.581707E1,2.1939276E1,1.01697235E2,0E0,9.353808E1,5.133914E1,7.109184E-1,1.1439462E2,1.1601825E1,0E0,0E0,0E0,0E0,0E0,0E0,0E0,0E0,0E0,0E0,0E0,0E0,0E0,0E0],"parents":[2147483647,0,0,1,1,2,2,3,3,4,4,5,5,6,6,7,7,8,8,10,10,11,11,12,12,13,13,14,14],"right_children":[2,4,6,8,10,12,14,16,18,-1,20,22,24,26,28,-1,-1,-1,-1,-1,-1,-1,-1,-1,-1,-1,-1,-1,-1],"split_conditions":[1.8E1,4E0,5E0,1.4E1,5E0,1.9E1,6E0,8E0,2E0,-4.907827E-1,6E0,2E0,3E0,1.9E1,7E0,2.0397644E-2,-1.0359728E-2,1.1310227E-2,1.5227178E-1,-6.637635E-2,8.823015E-3,-2.9834492E-2,-2.4505995E-1,-2.6034612E-2,-1.1643337E-2,2.7985257E-1,3.1122167E-2,1.107051E-2,-3.0253142E-2],"split_indices":[1,0,0,1,0,1,0,1,0,0,0,0,0,1,0,0,0,0,0,0,0,0,0,0,0,0,0,0,0],"split_type":[0,0,0,0,0,0,0,0,0,0,0,0,0,0,0,0,0,0,0,0,0,0,0,0,0,0,0,0,0],"sum_hessian":[2.856E3,2.058E3,7.98E2,1.137E3,9.21E2,4.1E2,3.88E2,9.32E2,2.05E2,1E1,9.11E2,4.4E1,3.66E2,1.18E2,2.7E2,5.04E2,4.28E2,1.1E2,9.5E1,2.16E2,6.95E2,2.2E1,2.2E1,3.25E2,4.1E1,2.2E1,9.6E1,1.34E2,1.36E2],"tree_param":{"num_deleted":"0","num_feature":"2","num_nodes":"29","size_leaf_vector":"1"}},{"base_weights":[-1.4774953E-3,-1.6636908E-1,2.574736E-2,-2.0890783E-1,-1.1414099E-1,1.0081767E-1,-9.110764E-2,-2.4736582E-1,1.3459248E-2,-8.581999E-2,-2.9937182E-2,1.6241616E-2,4.1988504E-1,-3.125887E-1,-1.9290622E-2,-1.7129537E-2,-3.4223624E-2,-6.9593085E-4,-1.1449839E-2,7.7199764E-3,-3.626157E-2,1.111051E-1,2.198789E-2,-5.4134812E-2,-1.1379051E-2,1.0228321E-2,-1.755938E-2],"categories":[],"categories_nodes":[],"categories_segments":[],"categories_sizes":[],"default_left":[0,0,0,0,0,0,0,0,0,0,0,0,0,0,0,0,0,0,0,0,0,0,0,0,0,0,0],"id":44,"left_children":[1,3,5,7,9,11,13,15,-1,17,-1,19,21,23,25,-1,-1,-1,-1,-1,-1,-1,-1,-1,-1,-1,-1],"loss_changes":[1.2829783E1,8.759508E-1,2.1527737E1,2.9659863E0,9.3955755E-1,4.0309456E1,1.5263831E1,1.3847446E0,0E0,3.6332023E-1,0E0,2.7325619E1,4.3024017E1,1.0625486E1,1.38136835E1,0E0,0E0,0E0,0E0,0E0,0E0,0E0,0E0,0E0,0E0,0E0,0E0],"parents":[2147483647,0,0,1,1,2,2,3,3,4,4,5,5,6,6,7,7,9,9,11,11,12,12,13,13,14,14],"right_children":[2,4,6,8,10,12,14,16,-1,18,-1,20,22,24,26,-1,-1,-1,-1,-1,-1,-1,-1,-1,-1,-1,-1],"split_conditions":[4E0,4E0,1.7E1,3E0,3E0,1.4E1,2E0,2E0,1.3459248E-2,7E0,-2.9937182E-2,7E0,1.5E1,2E1,6E0,-1.7129537E-2,-3.4223624E-2,-6.9593085E-4,-1.1449839E-2,7.7199764E-3,-3.626157E-2,1.111051E-1,2.198789E-2,-5.4134812E-2,-1.1379051E-2,1.0228321E-2,-1.755938E-2],"split_indices":[1,0,1,1,1,1,0,0,0,0,0,0,1,1,0,0,0,0,0,0,0,0,0,0,0,0,0],"split_type":[0,0,0,0,0,0,0,0,0,0,0,0,0,0,0,0,0,0,0,0,0,0,0,0,0,0,0],"sum_hessian":[2.856E3,4.04E2,2.452E3,2.21E2,1.83E2,1.493E3,9.59E2,1.99E2,2.2E1,1.6E2,2.3E1,1.181E3,3.12E2,2.34E2,7.25E2,1.12E2,8.7E1,4.3E1,1.17E2,1.018E3,1.63E2,6.9E1,2.43E2,1.08E2,1.26E2,4.08E2,3.17E2],"tree_param":{"num_deleted":"0","num_feature":"2","num_nodes":"27","size_leaf_vector":"1"}},{"base_weights":[-1.3464212E-3,-1.4992967E-1,2.318581E-2,-1.8818775E-1,-1.0295565E-1,9.080641E-2,-8.20729E-2,-2.2288603E-1,1.2171845E-2,-7.7313505E-2,-2.7068187E-2,2.3604274E-1,-8.8649504E-2,-2.8160873E-1,-1.7371805E-2,-6.7912485E-3,-2.6489845E-2,-6.279393E-4,-1.03145605E-2,1.3147101E-2,8.814256E-2,-4.468679E-1,-1.5403721E-3,-4.8771035E-2,-1.0250098E-2,1.3270149E-2,-1.2276903E-2],"categories":[],"categories_nodes":[],"categories_segments":[],"categories_sizes":[],"default_left":[0,0,0,0,0,0,0,0,0,0,0,0,0,0,0,0,0,0,0,0,0,0,0,0,0,0,0],"id":45,"left_children":[1,3,5,7,9,11,13,15,-1,17,-1,19,21,23,25,-1,-1,-1,-1,-1,-1,-1,-1,-1,-1,-1,-1],"loss_changes":[1.0417466E1,7.084646E-1,1.7467066E1,2.414342E0,7.704308E-1,3.8959824E1,1.2388887E1,1.284172E0,0E0,2.947808E-1,0E0,5.5629868E1,2.1455887E2,8.624893E0,1.1499658E1,0E0,0E0,0E0,0E0,0E0,0E0,0E0,0E0,0E0,0E0,0E0,0E0],"parents":[2147483647,0,0,1,1,2,2,3,3,4,4,5,5,6,6,7,7,9,9,11,11,12,12,13,13,14,14],"right_children":[2,4,6,8,10,12,14,16,-1,18,-1,20,22,24,26,-1,-1,-1,-1,-1,-1,-1,-1,-1,-1,-1,-1],"split_conditions":[4E0,4E0,1.7E1,3E0,3E0,4E0,2E0,1E0,1.2171845E-2,7E0,-2.7068187E-2,1.4E1,5E0,2E1,2E1,-6.7912485E-3,-2.6489845E-2,-6.279393E-4,-1.03145605E-2,1.3147101E-2,8.814256E-2,-4.468679E-1,-1.5403721E-3,-4.8771035E-2,-1.0250098E-2,1.3270149E-2,-1.2276903E-2],"split_indices":[1,0,1,1,1,0,0,1,0,0,0,1,0,1,1,0,0,0,0,0,0,0,0,0,0,0,0],"split_type":[0,0,0,0,0,0,0,0,0,0,0,0,0,0,0,0,0,0,0,0,0,0,0,0,0,0,0],"sum_hessian":[2.856E3,4.04E2,2.452E3,2.21E2,1.83E2,1.493E3,9.59E2,1.99E2,2.2E1,1.6E2,2.3E1,8.25E2,6.68E2,2.34E2,7.25E2,4.3E1,1.56E2,4.3E1,1.17E2,7.11E2,1.14E2,1E1,6.58E2,1.08E2,1.26E2,2.99E2,4.26E2],"tree_param":{"num_deleted":"0","num_feature":"2","num_nodes":"27","size_leaf_vector":"1"}},{"base_weights":[-1.3742624E-3,-1.0055352E-1,3.031245E-2,7.2116844E-2,-1.7238215E-1,-1.5197888E-1,8.285762E-2,-1.3114183E-1,1.5326945E-1,-8.556754E-2,-1.0270514E0,-6.3923854E-1,-3.164836E-2,4.4917452E-1,6.536912E-3,9.193845E-3,-1.6278554E-2,-2.0922387E-2,-2.0704109E-3,-3.0865613E-2,-1.7640713E-1,1.8954443E-2,-1.3152237E-1,3.0305404E-2,-2.536991E-2,8.431101E-2,-1.5055518E-1,-1.2308302E-2,1.6928537E-2],"categories":[],"categories_nodes":[],"categories_segments":[],"categories_sizes":[],"default_left":[0,0,0,0,0,0,0,0,0,0,0,0,0,0,0,0,0,0,0,0,0,0,0,0,0,0,0,0,0],"id":46,"left_children":[1,3,5,7,9,11,13,15,-1,17,19,21,23,25,27,-1,-1,-1,-1,-1,-1,-1,-1,-1,-1,-1,-1,-1,-1],"loss_changes":[8.981641E0,8.595083E0,2.0759691E1,6.076352E1,3.6194836E1,2.841639E1,4.702169E1,1.2856014E0,0E0,3.564913E0,2.328172E1,5.403281E1,2.906204E1,2.2457985E2,2.9406786E1,0E0,0E0,0E0,0E0,0E0,0E0,0E0,0E0,0E0,0E0,0E0,0E0,0E0,0E0],"parents":[2147483647,0,0,1,1,2,2,3,3,4,4,5,5,6,6,7,7,9,9,10,10,11,11,12,12,13,13,14,14],"right_children":[2,4,6,8,10,12,14,16,-1,18,20,22,24,26,28,-1,-1,-1,-1,-1,-1,-1,-1,-1,-1,-1,-1,-1,-1],"split_conditions":[7E0,2E0,2E0,5E0,6E0,1E1,1E1,1E0,1.5326945E-1,2E0,3E0,8E0,1.7E1,7E0,6E0,9.193845E-3,-1.6278554E-2,-2.0922387E-2,-2.0704109E-3,-3.0865613E-2,-1.7640713E-1,1.8954443E-2,-1.3152237E-1,3.0305404E-2,-2.536991E-2,8.431101E-2,-1.5055518E-1,-1.2308302E-2,1.6928537E-2],"split_indices":[1,0,0,1,1,1,1,1,0,1,0,1,1,0,0,0,0,0,0,0,0,0,0,0,0,0,0,0,0],"split_type":[0,0,0,0,0,0,0,0,0,0,0,0,0,0,0,0,0,0,0,0,0,0,0,0,0,0,0,0,0],"sum_hessian":[2.856E3,6.91E2,2.165E3,2.03E2,4.88E2,4.84E2,1.681E3,1.79E2,2.4E1,4.44E2,4.4E1,9.5E1,3.89E2,2.89E2,1.392E3,2.2E1,1.57E2,1.52E2,2.92E2,2.3E1,2.1E1,4.3E1,5.2E1,1.55E2,2.34E2,2.41E2,4.8E1,7.75E2,6.17E2],"tree_param":{"num_deleted":"0","num_feature":"2","num_nodes":"29","size_leaf_vector":"1"}},{"base_weights":[-1.3255002E-3,2.3002487E-2,-1.0892931E-1,-2.160284E-2,2.147531E-1,-3.705981E-1,9.811393E-2,3.8176462E-2,-2.5493392E-1,8.094931E-1,-3.317899E-1,-1.070486E-1,-1.3580687E-1,1.5218332E0,-1.7784025E-1,1.5437941E-2,-3.193293E-2,-7.953078E-2,5.1331487E-2,-3.6134806E-2,1.7177178E-1,-9.411809E-2,1.040125E-2,-2.6318658E-2,-8.436012E-3,2.0328288E-1,9.261362E-2,-2.0009439E-1,2.642508E-3],"categories":[],"categories_nodes":[],"categories_segments":[],"categories_sizes":[],"default_left":[0,0,0,0,0,0,0,0,0,0,0,0,0,0,0,0,0,0,0,0,0,0,0,0,0,0,0,0,0],"id":47,"left_children":[1,3,5,7,9,11,13,15,17,19,21,23,-1,25,27,-1,-1,-1,-1,-1,-1,-1,-1,-1,-1,-1,-1,-1,-1],"loss_changes":[7.4815145E0,1.9941912E1,2.8587511E1,2.6400047E1,1.4329102E2,6.0492256E1,1.16170616E2,6.2654945E1,1.606529E2,2.2499533E2,6.1179924E1,6.331663E-1,0E0,1.272847E1,9.24073E1,0E0,0E0,0E0,0E0,0E0,0E0,0E0,0E0,0E0,0E0,0E0,0E0,0E0,0E0],"parents":[2147483647,0,0,1,1,2,2,3,3,4,4,5,5,6,6,7,7,8,8,9,9,10,10,11,11,13,13,14,14],"right_children":[2,4,6,8,10,12,14,16,18,20,22,24,-1,26,28,-1,-1,-1,-1,-1,-1,-1,-1,-1,-1,-1,-1,-1,-1],"split_conditions":[7E0,6E0,1E1,4E0,1.5E1,6E0,1.3E1,1.8E1,1.8E1,9E0,1.8E1,2E0,-1.3580687E-1,1.2E1,1.4E1,1.5437941E-2,-3.193293E-2,-7.953078E-2,5.1331487E-2,-3.6134806E-2,1.7177178E-1,-9.411809E-2,1.040125E-2,-2.6318658E-2,-8.436012E-3,2.0328288E-1,9.261362E-2,-2.0009439E-1,2.642508E-3],"split_indices":[0,0,1,0,1,1,1,1,1,1,1,1,0,1,1,0,0,0,0,0,0,0,0,0,0,0,0,0,0],"split_type":[0,0,0,0,0,0,0,0,0,0,0,0,0,0,0,0,0,0,0,0,0,0,0,0,0,0,0,0,0],"sum_hessian":[2.856E3,2.33E3,5.26E2,1.891E3,4.39E2,2.32E2,2.94E2,1.506E3,3.85E2,2.1E2,2.29E2,1.84E2,4.8E1,4.7E1,2.47E2,1.137E3,3.69E2,2.26E2,1.59E2,9.2E1,1.18E2,9.5E1,1.34E2,2.2E1,1.62E2,2.4E1,2.3E1,2.4E1,2.23E2],"tree_param":{"num_deleted":"0","num_feature":"2","num_nodes":"29","size_leaf_vector":"1"}},{"base_weights":[-1.2157212E-3,1.402228E-2,-1.6667894E-1,-8.847512E-2,5.084169E-2,-6.702541E-2,-3.3313066E-1,5.025943E-2,-1.4617118E-1,-1.4855307E-1,1.0654843E-1,-1.8831617E-1,6.2144518E-2,-2.665404E-1,-5.0514806E-2,-1.3341933E-2,1.3707362E-1,-6.7592314E-3,-9.199806E-2,-5.9176452E-2,-1.7581134E-3,4.2019345E-2,3.172214E-3,-3.7301506E-3,-3.3418946E-2,-2.9389074E-2,-2.052923E-2],"categories":[],"categories_nodes":[],"categories_segments":[],"categories_sizes":[],"default_left":[0,0,0,0,0,0,0,0,0,0,0,0,0,0,0,0,0,0,0,0,0,0,0,0,0,0,0],"id":48,"left_children":[1,3,5,7,9,11,13,15,17,19,21,23,-1,25,-1,-1,-1,-1,-1,-1,-1,-1,-1,-1,-1,-1,-1],"loss_changes":[7.2057734E0,9.880779E0,3.9752588E0,5.5464177E0,2.1409128E1,1.2809805E1,8.9627934E-1,4.966176E1,2.9671494E1,2.4427914E1,3.533082E1,2.851305E0,0E0,5.1902294E-2,0E0,0E0,0E0,0E0,0E0,0E0,0E0,0E0,0E0,0E0,0E0,0E0,0E0],"parents":[2147483647,0,0,1,1,2,2,3,3,4,4,5,5,6,6,7,7,8,8,9,9,10,10,11,11,13,13],"right_children":[2,4,6,8,10,12,14,16,18,20,22,24,-1,26,-1,-1,-1,-1,-1,-1,-1,-1,-1,-1,-1,-1,-1],"split_conditions":[2.2E1,7E0,6E0,2E0,2E0,5E0,2.3E1,5E0,6E0,1E1,1E1,2E0,6.2144518E-2,7E0,-5.0514806E-2,-1.3341933E-2,1.3707362E-1,-6.7592314E-3,-9.199806E-2,-5.9176452E-2,-1.7581134E-3,4.2019345E-2,3.172214E-3,-3.7301506E-3,-3.3418946E-2,-2.9389074E-2,-2.052923E-2],"split_indices":[1,1,0,0,0,0,1,1,1,1,1,0,0,0,0,0,0,0,0,0,0,0,0,0,0,0,0],"split_type":[0,0,0,0,0,0,0,0,0,0,0,0,0,0,0,0,0,0,0,0,0,0,0,0,0,0,0],"sum_hessian":[2.856E3,2.616E3,2.4E2,6.91E2,1.925E3,1.51E2,8.9E1,2.03E2,4.88E2,4.2E2,1.505E3,1.29E2,2.2E1,6.6E1,2.3E1,1.79E2,2.4E1,4.44E2,4.4E1,9.5E1,3.25E2,2.89E2,1.216E3,6.4E1,6.5E1,4.3E1,2.3E1],"tree_param":{"num_deleted":"0","num_feature":"2","num_nodes":"27","size_leaf_vector":"1"}},{"base_weights":[-1.1170637E-3,2.0794343E-2,-9.803238E-2,-1.975535E-2,1.9511077E-1,-3.3758873E-1,9.150883E-2,3.6126498E-2,-2.3787501E-1,7.295699E-1,-2.960457E-1,-8.980884E-2,-1.2661946E-1,1.3727086E0,-1.5683429E-1,1.3999444E-2,-2.8343527E-2,-7.257935E-2,4.5584604E-2,-3.106823E-2,1.5364093E-1,-8.5118204E-2,1.0091085E-2,-1.0992428E-2,6.422487E-3,1.834632E-1,8.343421E-2,-1.8118986E-1,2.8582853E-3],"categories":[],"categories_nodes":[],"categories_segments":[],"categories_sizes":[],"default_left":[0,0,0,0,0,0,0,0,0,0,0,0,0,0,0,0,0,0,0,0,0,0,0,0,0,0,0,0,0],"id":49,"left_children":[1,3,5,7,9,11,13,15,17,19,21,23,-1,25,27,-1,-1,-1,-1,-1,-1,-1,-1,-1,-1,-1,-1,-1,-1],"loss_changes":[6.069024E0,1.6480474E1,2.395975E1,2.307005E1,1.1571733E2,5.349722E1,9.4077545E1,5.0060364E1,1.3098387E2,1.7757309E2,5.0769844E1,5.8027434E-1,0E0,1.040612E1,7.615737E1,0E0,0E0,0E0,0E0,0E0,0E0,0E0,0E0,0E0,0E0,0E0,0E0,0E0,0E0],"parents":[2147483647,0,0,1,1,2,2,3,3,4,4,5,5,6,6,7,7,8,8,9,9,10,10,11,11,13,13,14,14],"right_children":[2,4,6,8,10,12,14,16,18,20,22,24,-1,26,28,-1,-1,-1,-1,-1,-1,-1,-1,-1,-1,-1,-1,-1,-1],"split_conditions":[7E0,6E0,1E1,4E0,1.5E1,6E0,1.3E1,1.8E1,1.8E1,9E0,1.8E1,5E0,-1.2661946E-1,1.2E1,1.4E1,1.3999444E-2,-2.8343527E-2,-7.257935E-2,4.5584604E-2,-3.106823E-2,1.5364093E-1,-8.5118204E-2,1.0091085E-2,-1.0992428E-2,6.422487E-3,1.834632E-1,8.343421E-2,-1.8118986E-1,2.8582853E-3],"split_indices":[0,0,1,0,1,1,1,1,1,1,1,1,0,1,1,0,0,0,0,0,0,0,0,0,0,0,0,0,0],"split_type":[0,0,0,0,0,0,0,0,0,0,0,0,0,0,0,0,0,0,0,0,0,0,0,0,0,0,0,0,0],"sum_hessian":[2.856E3,2.33E3,5.26E2,1.891E3,4.39E2,2.32E2,2.94E2,1.506E3,3.85E2,2.1E2,2.29E2,1.84E2,4.8E1,4.7E1,2.47E2,1.137E3,3.69E2,2.26E2,1.59E2,9.2E1,1.18E2,9.5E1,1.34E2,1.63E2,2.1E1,2.4E1,2.3E1,2.4E1,2.23E2],"tree_param":{"num_deleted":"0","num_feature":"2","num_nodes":"29","size_leaf_vector":"1"}}]},"name":"gbtree"},"learner_model_param":{"base_score":"[1.3097339E1]","boost_from_average":"1","num_class":"0","num_feature":"2","num_target":"1"},"objective":{"name":"reg:squarederror","reg_loss_param":{"scale_pos_weight":"1"}}},"version":[3,2,1]}