{"learner":{"attributes":{},"feature_names":["day_of_week","hour_of_day"],"feature_types":[],"gradient_booster":{"model":{"cats":{"enc":[],"feature_segments":[],"sorted_idx":[]},"gbtree_model_param":{"num_parallel_tree":"1","num_trees":"50"},"iteration_indptr":[0,1,2,3,4,5,6,7,8,9,10,11,12,13,14,15,16,17,18,19,20,21,22,23,24,25,26,27,28,29,30,31,32,33,34,35,36,37,38,39,40,41,42,43,44,45,46,47,48,49,50],"tree_info":[0,0,0,0,0,0,0,0,0,0,0,0,0,0,0,0,0,0,0,0,0,0,0,0,0,0,0,0,0,0,0,0,0,0,0,0,0,0,0,0,0,0,0,0,0,0,0,0,0,0],"trees":[{"base_weights":[-2.224262E-7,-9.570766E0,2.3086731E0,-1.0383172E1,-5.1458516E0,5.0991817E0,-5.097658E0,-1.1212648E0,-8.746123E-1,-1.893047E-1,-8.200739E-1,5.443972E0,-9.06404E-1,-3.058062E0,-9.8726124E-1,5.684921E-1,5.7898164E-2,-2.056876E-1,-4.300119E-1],"categories":[],"categories_nodes":[],"categories_segments":[],"categories_sizes":[],"default_left":[0,0,0,0,0,0,0,0,0,0,0,0,0,0,0,0,0,0,0],"id":0,"left_children":[1,3,5,7,9,11,13,-1,-1,-1,-1,15,-1,17,-1,-1,-1,-1,-1],"loss_changes":[3.5927727E4,1.0825312E3,2.7100332E4,2.6313477E2,4.9126025E2,4.698285E3,3.4661016E3,0E0,0E0,0E0,0E0,1.0868633E3,0E0,3.0576807E2,0E0,0E0,0E0,0E0,0E0],"parents":[2147483647,0,0,1,1,2,2,3,3,4,4,5,5,6,6,11,11,13,13],"right_children":[2,4,6,8,10,12,14,-1,-1,-1,-1,16,-1,18,-1,-1,-1,-1,-1],"split_conditions":[4E0,3E0,1.9E1,4E0,2E0,7E0,2.2E1,-1.1212648E0,-8.746123E-1,-1.893047E-1,-8.200739E-1,1.8E1,-9.06404E-1,2.1E1,-9.8726124E-1,5.684921E-1,5.7898164E-2,-2.056876E-1,-4.300119E-1],"split_indices":[1,1,1,0,0,0,1,0,0,0,0,1,0,1,0,0,0,0,0],"split_type":[0,0,0,0,0,0,0,0,0,0,0,0,0,0,0,0,0,0,0],"sum_hessian":[1.624E3,3.15E2,1.309E3,2.65E2,5E1,9.51E2,3.58E2,1.72E2,9.3E1,2.5E1,2.5E1,9.29E2,2.2E1,2.52E2,1.06E2,8.85E2,4.4E1,1.41E2,1.11E2],"tree_param":{"num_deleted":"0","num_feature":"2","num_nodes":"19","size_leaf_vector":"1"}},{"base_weights":[-3.02081E-3,-8.6232E0,2.076353E0,-9.352359E0,-4.651058E0,4.588969E0,-4.5924134E0,-1.0097866E0,-7.880815E-1,-1.7110234E-1,-7.4122065E-1,4.900248E0,-8.1970453E-1,-2.7547688E0,-8.894578E-1,5.11707E-1,5.2236974E-2,-3.8381955E-1,-1.763978E-1],"categories":[],"categories_nodes":[],"categories_segments":[],"categories_sizes":[],"default_left":[0,0,0,0,0,0,0,0,0,0,0,0,0,0,0,0,0,0,0],"id":1,"left_children":[1,3,5,7,9,11,13,-1,-1,-1,-1,15,-1,17,-1,-1,-1,-1,-1],"loss_changes":[2.914534E4,8.7174023E2,2.1971504E4,2.1223242E2,4.013291E2,3.8291426E3,2.8136973E3,0E0,0E0,0E0,0E0,8.801035E2,0E0,2.648119E2,0E0,0E0,0E0,0E0,0E0],"parents":[2147483647,0,0,1,1,2,2,3,3,4,4,5,5,6,6,11,11,13,13],"right_children":[2,4,6,8,10,12,14,-1,-1,-1,-1,16,-1,18,-1,-1,-1,-1,-1],"split_conditions":[4E0,3E0,1.9E1,4E0,2E0,7E0,2.2E1,-1.0097866E0,-7.880815E-1,-1.7110234E-1,-7.4122065E-1,1.8E1,-8.1970453E-1,2E0,-8.894578E-1,5.11707E-1,5.2236974E-2,-3.8381955E-1,-1.763978E-1],"split_indices":[1,1,1,0,0,0,1,0,0,0,0,1,0,0,0,0,0,0,0],"split_type":[0,0,0,0,0,0,0,0,0,0,0,0,0,0,0,0,0,0,0],"sum_hessian":[1.624E3,3.15E2,1.309E3,2.65E2,5E1,9.51E2,3.58E2,1.72E2,9.3E1,2.5E1,2.5E1,9.29E2,2.2E1,2.52E2,1.06E2,8.85E2,4.4E1,1.19E2,1.33E2],"tree_param":{"num_deleted":"0","num_feature":"2","num_nodes":"19","size_leaf_vector":"1"}},{"base_weights":[-5.436205E-3,-7.769457E0,1.8674157E0,-8.423882E0,-4.203841E0,4.1298037E0,-4.13721E0,-9.093916E-1,-7.101118E-1,-1.546502E-1,-6.699495E-1,4.4108295E0,-7.41298E-1,-2.481506E0,-8.013434E-1,3.6733434E-1,5.5896044E-1,-1.5723102E-1,-3.6120805E-1],"categories":[],"categories_nodes":[],"categories_segments":[],"categories_sizes":[],"default_left":[0,0,0,0,0,0,0,0,0,0,0,0,0,0,0,0,0,0,0],"id":2,"left_children":[1,3,5,7,9,11,13,-1,-1,-1,-1,15,-1,17,-1,-1,-1,-1,-1],"loss_changes":[2.3643408E4,7.019512E2,1.7813164E4,1.7117773E2,3.2786084E2,3.1208154E3,2.2841323E3,0E0,0E0,0E0,0E0,7.879453E2,0E0,2.5438293E2,0E0,0E0,0E0,0E0,0E0],"parents":[2147483647,0,0,1,1,2,2,3,3,4,4,5,5,6,6,11,11,13,13],"right_children":[2,4,6,8,10,12,14,-1,-1,-1,-1,16,-1,18,-1,-1,-1,-1,-1],"split_conditions":[4E0,3E0,1.9E1,4E0,2E0,7E0,2.2E1,-9.093916E-1,-7.101118E-1,-1.546502E-1,-6.699495E-1,1.3E1,-7.41298E-1,2.1E1,-8.013434E-1,3.6733434E-1,5.5896044E-1,-1.5723102E-1,-3.6120805E-1],"split_indices":[1,1,1,0,0,0,1,0,0,0,0,1,0,1,0,0,0,0,0],"split_type":[0,0,0,0,0,0,0,0,0,0,0,0,0,0,0,0,0,0,0],"sum_hessian":[1.624E3,3.15E2,1.309E3,2.65E2,5E1,9.51E2,3.58E2,1.72E2,9.3E1,2.5E1,2.5E1,9.29E2,2.2E1,2.52E2,1.06E2,5.74E2,3.55E2,1.41E2,1.11E2],"tree_param":{"num_deleted":"0","num_feature":"2","num_nodes":"19","size_leaf_vector":"1"}},{"base_weights":[-7.0949392E-3,-7.000246E0,1.679808E0,-7.587582E0,-3.7996259E0,3.9008665E0,-3.3286312E0,-8.1897813E-1,-6.3985604E-1,-1.3978003E-1,-6.055312E-1,4.171757E0,-6.7039126E-1,-1.9156343E0,-7.219579E-1,3.3066475E-1,5.752739E-1,-1.0993787E-1,-3.2540977E-1],"categories":[],"categories_nodes":[],"categories_segments":[],"categories_sizes":[],"default_left":[0,0,0,0,0,0,0,0,0,0,0,0,0,0,0,0,0,0,0],"id":3,"left_children":[1,3,5,7,9,11,13,-1,-1,-1,-1,15,-1,17,-1,-1,-1,-1,-1],"loss_changes":[1.9181506E4,5.6519824E2,1.4585472E4,1.3806055E2,2.6784192E2,2.6364111E3,2.2018232E3,0E0,0E0,0E0,0E0,1.1927803E3,0E0,3.2090332E2,0E0,0E0,0E0,0E0,0E0],"parents":[2147483647,0,0,1,1,2,2,3,3,4,4,5,5,6,6,11,11,13,13],"right_children":[2,4,6,8,10,12,14,-1,-1,-1,-1,16,-1,18,-1,-1,-1,-1,-1],"split_conditions":[4E0,3E0,1.8E1,4E0,2E0,7E0,2.2E1,-8.1897813E-1,-6.3985604E-1,-1.3978003E-1,-6.055312E-1,1.3E1,-6.7039126E-1,2.1E1,-7.219579E-1,3.3066475E-1,5.752739E-1,-1.0993787E-1,-3.2540977E-1],"split_indices":[1,1,1,0,0,0,1,0,0,0,0,1,0,1,0,0,0,0,0],"split_type":[0,0,0,0,0,0,0,0,0,0,0,0,0,0,0,0,0,0,0],"sum_hessian":[1.624E3,3.15E2,1.309E3,2.65E2,5E1,9.07E2,4.02E2,1.72E2,9.3E1,2.5E1,2.5E1,8.85E2,2.2E1,2.96E2,1.06E2,5.74E2,3.11E2,1.85E2,1.11E2],"tree_param":{"num_deleted":"0","num_feature":"2","num_nodes":"19","size_leaf_vector":"1"}},{"base_weights":[-8.308871E-3,-6.307196E0,1.5111238E0,-6.8343077E0,-3.434277E0,3.5110395E0,-2.9986398E0,-7.375537E-1,-5.7655114E-1,-1.2633964E-1,-5.47307E-1,3.8035438E0,-4.615128E0,-1.7255367E0,-6.504368E-1,3.0384517E-1,5.179309E-1,-8.2427025E-2,-6.062669E-1,-9.90032E-2,-2.9315934E-1],"categories":[],"categories_nodes":[],"categories_segments":[],"categories_sizes":[],"default_left":[0,0,0,0,0,0,0,0,0,0,0,0,0,0,0,0,0,0,0,0,0],"id":4,"left_children":[1,3,5,7,9,11,13,-1,-1,-1,-1,15,17,19,-1,-1,-1,-1,-1,-1,-1],"loss_changes":[1.5561976E4,4.550625E2,1.1825609E4,1.1134863E2,2.1881018E2,2.1758154E3,1.7874272E3,0E0,0E0,0E0,0E0,9.0738184E2,1.7060028E2,2.605545E2,0E0,0E0,0E0,0E0,0E0,0E0,0E0],"parents":[2147483647,0,0,1,1,2,2,3,3,4,4,5,5,6,6,11,11,12,12,13,13],"right_children":[2,4,6,8,10,12,14,-1,-1,-1,-1,16,18,20,-1,-1,-1,-1,-1,-1,-1],"split_conditions":[4E0,3E0,1.8E1,4E0,2E0,4E0,2.2E1,-7.375537E-1,-5.7655114E-1,-1.2633964E-1,-5.47307E-1,1.3E1,7E0,2.1E1,-6.504368E-1,3.0384517E-1,5.179309E-1,-8.2427025E-2,-6.062669E-1,-9.90032E-2,-2.9315934E-1],"split_indices":[1,1,1,0,0,0,1,0,0,0,0,1,0,1,0,0,0,0,0,0,0],"split_type":[0,0,0,0,0,0,0,0,0,0,0,0,0,0,0,0,0,0,0,0,0],"sum_hessian":[1.624E3,3.15E2,1.309E3,2.65E2,5E1,9.07E2,4.02E2,1.72E2,9.3E1,2.5E1,2.5E1,8.76E2,3.1E1,2.96E2,1.06E2,5.65E2,3.11E2,9E0,2.2E1,1.85E2,1.11E2],"tree_param":{"num_deleted":"0","num_feature":"2","num_nodes":"21","size_leaf_vector":"1"}},{"base_weights":[-9.261097E-3,-5.682767E0,1.3593168E0,-6.155817E0,-3.104058E0,3.020128E0,-3.048626E0,-6.976332E-1,-5.5232143E-1,-1.14191554E-1,-4.9468136E-1,3.2668471E0,-4.175137E0,-1.8475714E0,-5.860011E-1,3.4241265E-1,1.2905273E-2,-7.50086E-2,-5.482762E-1,-2.8541252E-1,-9.323922E-2],"categories":[],"categories_nodes":[],"categories_segments":[],"categories_sizes":[],"default_left":[0,0,0,0,0,0,0,0,0,0,0,0,0,0,0,0,0,0,0,0,0],"id":5,"left_children":[1,3,5,7,9,11,13,-1,-1,-1,-1,15,17,19,-1,-1,-1,-1,-1,-1,-1],"loss_changes":[1.2625257E4,3.663672E2,9.599402E3,9.9538086E1,1.7875436E2,1.7036387E3,1.2013821E3,0E0,0E0,0E0,0E0,4.5408008E2,1.3920526E2,2.303966E2,0E0,0E0,0E0,0E0,0E0,0E0,0E0],"parents":[2147483647,0,0,1,1,2,2,3,3,4,4,5,5,6,6,11,11,12,12,13,13],"right_children":[2,4,6,8,10,12,14,-1,-1,-1,-1,16,18,20,-1,-1,-1,-1,-1,-1,-1],"split_conditions":[4E0,3E0,1.9E1,2E0,2E0,4E0,2.2E1,-6.976332E-1,-5.5232143E-1,-1.14191554E-1,-4.9468136E-1,1.8E1,7E0,2E0,-5.860011E-1,3.4241265E-1,1.2905273E-2,-7.50086E-2,-5.482762E-1,-2.8541252E-1,-9.323922E-2],"split_indices":[1,1,1,1,0,0,1,0,0,0,0,1,0,0,0,0,0,0,0,0,0],"split_type":[0,0,0,0,0,0,0,0,0,0,0,0,0,0,0,0,0,0,0,0,0],"sum_hessian":[1.624E3,3.15E2,1.309E3,2.65E2,5E1,9.51E2,3.58E2,1.11E2,1.54E2,2.5E1,2.5E1,9.2E2,3.1E1,2.52E2,1.06E2,8.76E2,4.4E1,9E0,2.2E1,1.19E2,1.33E2],"tree_param":{"num_deleted":"0","num_feature":"2","num_nodes":"21","size_leaf_vector":"1"}},{"base_weights":[-1.0237579E-2,-5.1203723E0,1.222444E0,-5.5449347E0,-2.8055906E0,2.7178333E0,-2.7464504E0,-6.284928E-1,-4.9744564E-1,-1.03211574E-1,-4.4711587E-1,2.9405477E0,-3.777101E0,-1.6643109E0,-5.279486E-1,2.3933351E-1,3.8022947E-1,-6.8257846E-2,-4.958324E-1,-2.5710908E-1,-8.398491E-2],"categories":[],"categories_nodes":[],"categories_segments":[],"categories_sizes":[],"default_left":[0,0,0,0,0,0,0,0,0,0,0,0,0,0,0,0,0,0,0,0,0],"id":6,"left_children":[1,3,5,7,9,11,13,-1,-1,-1,-1,15,17,19,-1,-1,-1,-1,-1,-1,-1],"loss_changes":[1.024241E4,2.9499805E2,7.78237E3,8.1026855E1,1.4603128E2,1.3881895E3,9.7526733E2,0E0,0E0,0E0,0E0,4.2520605E2,1.13585846E2,1.8698474E2,0E0,0E0,0E0,0E0,0E0,0E0,0E0],"parents":[2147483647,0,0,1,1,2,2,3,3,4,4,5,5,6,6,11,11,12,12,13,13],"right_children":[2,4,6,8,10,12,14,-1,-1,-1,-1,16,18,20,-1,-1,-1,-1,-1,-1,-1],"split_conditions":[4E0,3E0,1.9E1,2E0,2E0,4E0,2.2E1,-6.284928E-1,-4.9744564E-1,-1.03211574E-1,-4.4711587E-1,1.3E1,7E0,2E0,-5.279486E-1,2.3933351E-1,3.8022947E-1,-6.8257846E-2,-4.958324E-1,-2.5710908E-1,-8.398491E-2],"split_indices":[1,1,1,1,0,0,1,0,0,0,0,1,0,0,0,0,0,0,0,0,0],"split_type":[0,0,0,0,0,0,0,0,0,0,0,0,0,0,0,0,0,0,0,0,0],"sum_hessian":[1.624E3,3.15E2,1.309E3,2.65E2,5E1,9.51E2,3.58E2,1.11E2,1.54E2,2.5E1,2.5E1,9.2E2,3.1E1,2.52E2,1.06E2,5.65E2,3.55E2,9E0,2.2E1,1.19E2,1.33E2],"tree_param":{"num_deleted":"0","num_feature":"2","num_nodes":"21","size_leaf_vector":"1"}},{"base_weights":[-1.0746024E-2,-4.61364E0,1.0995785E0,-4.9946737E0,-2.5358224E0,2.577297E0,-2.2325997E0,-5.4212303E0,-4.1564932E-1,-9.3287386E-2,-4.0412393E-1,2.793079E0,-3.4170187E0,-1.3158089E0,-4.7564718E-1,-4.9391475E-1,-5.810939E-1,2.1544246E-1,3.942711E-1,-6.2114604E-2,-4.4840494E-1,-7.0880845E-2,-2.312115E-1],"categories":[],"categories_nodes":[],"categories_segments":[],"categories_sizes":[],"default_left":[0,0,0,0,0,0,0,0,0,0,0,0,0,0,0,0,0,0,0,0,0,0,0],"id":7,"left_children":[1,3,5,7,9,11,13,15,-1,-1,-1,17,19,21,-1,-1,-1,-1,-1,-1,-1,-1,-1],"loss_changes":[8.30997E3,2.3751807E2,6.4562217E3,7.2569824E1,1.192984E2,1.1840103E3,9.26228E2,3.8007812E0,0E0,0E0,0E0,6.3541455E2,9.267978E1,1.7797443E2,0E0,0E0,0E0,0E0,0E0,0E0,0E0,0E0,0E0],"parents":[2147483647,0,0,1,1,2,2,3,3,4,4,5,5,6,6,7,7,11,11,12,12,13,13],"right_children":[2,4,6,8,10,12,14,16,-1,-1,-1,18,20,22,-1,-1,-1,-1,-1,-1,-1,-1,-1],"split_conditions":[4E0,3E0,1.8E1,4E0,2E0,4E0,2.2E1,2E0,-4.1564932E-1,-9.3287386E-2,-4.0412393E-1,1.3E1,7E0,2.1E1,-4.7564718E-1,-4.9391475E-1,-5.810939E-1,2.1544246E-1,3.942711E-1,-6.2114604E-2,-4.4840494E-1,-7.0880845E-2,-2.312115E-1],"split_indices":[1,1,1,0,0,0,1,0,0,0,0,1,0,1,0,0,0,0,0,0,0,0,0],"split_type":[0,0,0,0,0,0,0,0,0,0,0,0,0,0,0,0,0,0,0,0,0,0,0],"sum_hessian":[1.624E3,3.15E2,1.309E3,2.65E2,5E1,9.07E2,4.02E2,1.72E2,9.3E1,2.5E1,2.5E1,8.76E2,3.1E1,2.96E2,1.06E2,8.3E1,8.9E1,5.65E2,3.11E2,9E0,2.2E1,1.85E2,1.11E2],"tree_param":{"num_deleted":"0","num_feature":"2","num_nodes":"23","size_leaf_vector":"1"}},{"base_weights":[-1.1312229E-2,-4.158567E0,9.8910296E-1,-4.5008106E0,-2.2919931E0,2.3196769E0,-2.0112698E0,-4.885321E0,-3.745266E-1,-8.431744E-2,-3.6526582E-1,2.5144665E0,-3.0912702E0,-1.185245E0,-4.2852703E-1,-4.4511127E-1,-5.2363014E-1,1.9393638E-1,3.549703E-1,-5.6524277E-2,-4.05514E-1,-6.383086E-2,-2.0829678E-1],"categories":[],"categories_nodes":[],"categories_segments":[],"categories_sizes":[],"default_left":[0,0,0,0,0,0,0,0,0,0,0,0,0,0,0,0,0,0,0,0,0,0,0],"id":8,"left_children":[1,3,5,7,9,11,13,15,-1,-1,-1,17,19,21,-1,-1,-1,-1,-1,-1,-1,-1,-1],"loss_changes":[6.7462E3,1.9155225E2,5.2344697E3,5.898047E1,9.745935E1,9.6480273E2,7.519081E2,3.057129E0,0E0,0E0,0E0,5.152529E2,7.562027E1,1.4449664E2,0E0,0E0,0E0,0E0,0E0,0E0,0E0,0E0,0E0],"parents":[2147483647,0,0,1,1,2,2,3,3,4,4,5,5,6,6,7,7,11,11,12,12,13,13],"right_children":[2,4,6,8,10,12,14,16,-1,-1,-1,18,20,22,-1,-1,-1,-1,-1,-1,-1,-1,-1],"split_conditions":[4E0,3E0,1.8E1,4E0,2E0,4E0,2.2E1,2E0,-3.745266E-1,-8.431744E-2,-3.6526582E-1,1.3E1,7E0,2.1E1,-4.2852703E-1,-4.4511127E-1,-5.2363014E-1,1.9393638E-1,3.549703E-1,-5.6524277E-2,-4.05514E-1,-6.383086E-2,-2.0829678E-1],"split_indices":[1,1,1,0,0,0,1,0,0,0,0,1,0,1,0,0,0,0,0,0,0,0,0],"split_type":[0,0,0,0,0,0,0,0,0,0,0,0,0,0,0,0,0,0,0,0,0,0,0],"sum_hessian":[1.624E3,3.15E2,1.309E3,2.65E2,5E1,9.07E2,4.02E2,1.72E2,9.3E1,2.5E1,2.5E1,8.76E2,3.1E1,2.96E2,1.06E2,8.3E1,8.9E1,5.65E2,3.11E2,9E0,2.2E1,1.85E2,1.11E2],"tree_param":{"num_deleted":"0","num_feature":"2","num_nodes":"23","size_leaf_vector":"1"}},{"base_weights":[-1.1662435E-2,-3.748384E0,8.897236E-1,-4.0557795E0,-2.0716093E0,2.087804E0,-1.8118812E0,-4.402389E0,-3.3747235E-1,-7.6210015E-2,-3.301441E-1,2.263645E0,-2.796582E0,-1.0676365E0,-3.860748E-1,-4.0113005E-1,-4.7184896E-1,1.7457691E-1,3.1958696E-1,-5.143709E-2,-3.6672574E-1,-5.7482045E-2,-1.8765308E-1],"categories":[],"categories_nodes":[],"categories_segments":[],"categories_sizes":[],"default_left":[0,0,0,0,0,0,0,0,0,0,0,0,0,0,0,0,0,0,0,0,0,0,0],"id":9,"left_children":[1,3,5,7,9,11,13,15,-1,-1,-1,17,19,21,-1,-1,-1,-1,-1,-1,-1,-1,-1],"loss_changes":[5.4767065E3,1.5447461E2,4.243912E3,4.7935547E1,7.9618225E1,7.8618945E2,6.103959E2,2.4594727E0,0E0,0E0,0E0,4.1781592E2,6.1699738E1,1.1731622E2,0E0,0E0,0E0,0E0,0E0,0E0,0E0,0E0,0E0],"parents":[2147483647,0,0,1,1,2,2,3,3,4,4,5,5,6,6,7,7,11,11,12,12,13,13],"right_children":[2,4,6,8,10,12,14,16,-1,-1,-1,18,20,22,-1,-1,-1,-1,-1,-1,-1,-1,-1],"split_conditions":[4E0,3E0,1.8E1,4E0,2E0,4E0,2.2E1,2E0,-3.3747235E-1,-7.6210015E-2,-3.301441E-1,1.3E1,7E0,2.1E1,-3.860748E-1,-4.0113005E-1,-4.7184896E-1,1.7457691E-1,3.1958696E-1,-5.143709E-2,-3.6672574E-1,-5.7482045E-2,-1.8765308E-1],"split_indices":[1,1,1,0,0,0,1,0,0,0,0,1,0,1,0,0,0,0,0,0,0,0,0],"split_type":[0,0,0,0,0,0,0,0,0,0,0,0,0,0,0,0,0,0,0,0,0,0,0],"sum_hessian":[1.624E3,3.15E2,1.309E3,2.65E2,5E1,9.07E2,4.02E2,1.72E2,9.3E1,2.5E1,2.5E1,8.76E2,3.1E1,2.96E2,1.06E2,8.3E1,8.9E1,5.65E2,3.11E2,9E0,2.2E1,1.85E2,1.11E2],"tree_param":{"num_deleted":"0","num_feature":"2","num_nodes":"23","size_leaf_vector":"1"}},{"base_weights":[-1.1833206E-2,-3.378662E0,8.003269E-1,-3.6547518E0,-1.8724161E0,1.8791065E0,-1.6322592E0,-3.967196E0,-3.0408412E-1,-6.888213E-2,-2.983995E-1,-1.3052325E-1,2.2333035E0,-9.616983E-1,-3.4782813E0,-3.6149454E-1,-4.2518836E-1,4.0610433E-1,-1.10240005E-1,1.7926049E-1,2.8773063E-1,-1.6079967E-1,-3.751393E-2,-3.2489464E-1,-4.136026E-1],"categories":[],"categories_nodes":[],"categories_segments":[],"categories_sizes":[],"default_left":[0,0,0,0,0,0,0,0,0,0,0,0,0,0,0,0,0,0,0,0,0,0,0,0,0],"id":10,"left_children":[1,3,5,7,9,11,13,15,-1,-1,-1,17,19,21,23,-1,-1,-1,-1,-1,-1,-1,-1,-1,-1],"loss_changes":[4.4461104E3,1.2456836E2,3.4408013E3,3.8958496E1,6.504317E1,6.466106E2,4.9551672E2,1.9782715E0,0E0,0E0,0E0,5.6257184E2,2.1394409E2,1.1198715E2,2.7025146E0,0E0,0E0,0E0,0E0,0E0,0E0,0E0,0E0,0E0,0E0],"parents":[2147483647,0,0,1,1,2,2,3,3,4,4,5,5,6,6,7,7,11,11,12,12,13,13,14,14],"right_children":[2,4,6,8,10,12,14,16,-1,-1,-1,18,20,22,24,-1,-1,-1,-1,-1,-1,-1,-1,-1,-1],"split_conditions":[4E0,3E0,1.8E1,4E0,2E0,6E0,2.2E1,2E0,-3.0408412E-1,-6.888213E-2,-2.983995E-1,2E0,1.3E1,2E0,2.3E1,-3.6149454E-1,-4.2518836E-1,4.0610433E-1,-1.10240005E-1,1.7926049E-1,2.8773063E-1,-1.6079967E-1,-3.751393E-2,-3.2489464E-1,-4.136026E-1],"split_indices":[1,1,1,0,0,1,1,0,0,0,0,0,1,0,1,0,0,0,0,0,0,0,0,0,0],"split_type":[0,0,0,0,0,0,0,0,0,0,0,0,0,0,0,0,0,0,0,0,0,0,0,0,0],"sum_hessian":[1.624E3,3.15E2,1.309E3,2.65E2,5E1,9.07E2,4.02E2,1.72E2,9.3E1,2.5E1,2.5E1,1.36E2,7.71E2,2.96E2,1.06E2,8.3E1,8.9E1,2.5E1,1.11E2,4.6E2,3.11E2,1.4E2,1.56E2,8.3E1,2.3E1],"tree_param":{"num_deleted":"0","num_feature":"2","num_nodes":"25","size_leaf_vector":"1"}},{"base_weights":[-1.1654175E-2,-3.04541E0,7.2016144E-1,-3.2933772E0,-1.6923763E0,1.692036E0,-1.471358E0,-3.5750237E0,-2.7399918E-1,-6.225886E-2,-2.6970726E-1,1.8432343E0,-2.5046182E0,-8.661961E-1,-3.137355E0,-3.2577547E-1,-3.831419E-1,1.4280589E-1,2.5904974E-1,-6.294116E-2,-3.2110292E-1,-1.209512E-2,-1.3364281E-1,-2.9279193E-1,-3.7396568E-1],"categories":[],"categories_nodes":[],"categories_segments":[],"categories_sizes":[],"default_left":[0,0,0,0,0,0,0,0,0,0,0,0,0,0,0,0,0,0,0,0,0,0,0,0,0],"id":11,"left_children":[1,3,5,7,9,11,13,15,-1,-1,-1,17,19,21,23,-1,-1,-1,-1,-1,-1,-1,-1,-1,-1],"loss_changes":[3.6099365E3,1.0044702E2,2.7926348E3,3.1663086E1,5.3136215E1,5.807671E2,4.0358624E2,1.5910645E0,0E0,0E0,0E0,2.6838574E2,4.036827E1,1.0391846E2,2.5479736E0,0E0,0E0,0E0,0E0,0E0,0E0,0E0,0E0,0E0,0E0],"parents":[2147483647,0,0,1,1,2,2,3,3,4,4,5,5,6,6,7,7,11,11,12,12,13,13,14,14],"right_children":[2,4,6,8,10,12,14,16,-1,-1,-1,18,20,22,24,-1,-1,-1,-1,-1,-1,-1,-1,-1,-1],"split_conditions":[4E0,3E0,1.8E1,4E0,2E0,4E0,2.2E1,2E0,-2.7399918E-1,-6.225886E-2,-2.6970726E-1,1.3E1,7E0,2E1,2.3E1,-3.2577547E-1,-3.831419E-1,1.4280589E-1,2.5904974E-1,-6.294116E-2,-3.2110292E-1,-1.209512E-2,-1.3364281E-1,-2.9279193E-1,-3.7396568E-1],"split_indices":[1,1,1,0,0,0,1,0,0,0,0,1,0,1,1,0,0,0,0,0,0,0,0,0,0],"split_type":[0,0,0,0,0,0,0,0,0,0,0,0,0,0,0,0,0,0,0,0,0,0,0,0,0],"sum_hessian":[1.624E3,3.15E2,1.309E3,2.65E2,5E1,9.07E2,4.02E2,1.72E2,9.3E1,2.5E1,2.5E1,8.76E2,3.1E1,2.96E2,1.06E2,8.3E1,8.9E1,5.65E2,3.11E2,9E0,2.2E1,1.15E2,1.81E2,8.3E1,2.3E1],"tree_param":{"num_deleted":"0","num_feature":"2","num_nodes":"25","size_leaf_vector":"1"}},{"base_weights":[-1.1786734E-2,-2.7450297E0,6.475389E-1,-2.9677346E0,-1.5296478E0,1.5228523E0,-1.326238E0,-3.221619E0,-2.4689074E-1,-5.6272447E-2,-2.4377385E-1,1.6593693E0,-2.2661576E0,-7.8006685E-1,-2.829851E0,-2.9358572E-1,-3.4525344E-1,3.6327213E-2,1.8525435E-1,-5.7276424E-2,-2.9038867E-1,-9.540585E-2,1.0701554E-1,-2.6386133E-1,-3.381273E-1],"categories":[],"categories_nodes":[],"categories_segments":[],"categories_sizes":[],"default_left":[0,0,0,0,0,0,0,0,0,0,0,0,0,0,0,0,0,0,0,0,0,0,0,0,0],"id":12,"left_children":[1,3,5,7,9,11,13,15,-1,-1,-1,17,19,21,23,-1,-1,-1,-1,-1,-1,-1,-1,-1,-1],"loss_changes":[2.9301855E3,8.0992676E1,2.2652717E3,2.5733398E1,4.340899E1,4.7343628E2,3.2874823E2,1.279541E0,0E0,0E0,0E0,2.1890381E2,3.289441E1,9.663217E1,2.3616333E0,0E0,0E0,0E0,0E0,0E0,0E0,0E0,0E0,0E0,0E0],"parents":[2147483647,0,0,1,1,2,2,3,3,4,4,5,5,6,6,7,7,11,11,12,12,13,13,14,14],"right_children":[2,4,6,8,10,12,14,16,-1,-1,-1,18,20,22,24,-1,-1,-1,-1,-1,-1,-1,-1,-1,-1],"split_conditions":[4E0,3E0,1.8E1,4E0,2E0,4E0,2.2E1,2E0,-2.4689074E-1,-5.6272447E-2,-2.4377385E-1,6E0,7E0,3E0,2.3E1,-2.9358572E-1,-3.4525344E-1,3.6327213E-2,1.8525435E-1,-5.7276424E-2,-2.9038867E-1,-9.540585E-2,1.0701554E-1,-2.6386133E-1,-3.381273E-1],"split_indices":[1,1,1,0,0,0,1,0,0,0,0,1,0,0,1,0,0,0,0,0,0,0,0,0,0],"split_type":[0,0,0,0,0,0,0,0,0,0,0,0,0,0,0,0,0,0,0,0,0,0,0,0,0],"sum_hessian":[1.624E3,3.15E2,1.309E3,2.65E2,5E1,9.07E2,4.02E2,1.72E2,9.3E1,2.5E1,2.5E1,8.76E2,3.1E1,2.96E2,1.06E2,8.3E1,8.9E1,1.14E2,7.62E2,9E0,2.2E1,2.71E2,2.5E1,8.3E1,2.3E1],"tree_param":{"num_deleted":"0","num_feature":"2","num_nodes":"25","size_leaf_vector":"1"}},{"base_weights":[-1.1779065E-2,-2.4742792E0,5.822376E-1,-2.674291E0,-1.3825662E0,1.2147415E0,-1.6664906E0,-2.9031496E0,-2.2246435E-1,-5.0861623E-2,-2.2033405E-1,1.3188443E0,-2.0504062E0,-2.5903199E0,-8.5707366E-1,-2.6457664E-1,-3.111117E-1,1.6053103E-1,2.1803135E-2,-5.212151E-2,-2.626124E-1,-1.4817847E-1,-2.8187114E-1,-2.4048185E-2,-2.3589543E-1],"categories":[],"categories_nodes":[],"categories_segments":[],"categories_sizes":[],"default_left":[0,0,0,0,0,0,0,0,0,0,0,0,0,0,0,0,0,0,0,0,0,0,0,0,0],"id":13,"left_children":[1,3,5,7,9,11,13,15,-1,-1,-1,17,19,21,23,-1,-1,-1,-1,-1,-1,-1,-1,-1,-1],"loss_changes":[2.378436E3,6.5302734E1,1.8652759E3,2.091455E1,3.546244E1,3.504331E2,2.1313562E2,1.0289307E0,0E0,0E0,0E0,3.1247266E2,2.6803452E1,2.974939E1,1.4297003E2,0E0,0E0,0E0,0E0,0E0,0E0,0E0,0E0,0E0,0E0],"parents":[2147483647,0,0,1,1,2,2,3,3,4,4,5,5,6,6,7,7,11,11,12,12,13,13,14,14],"right_children":[2,4,6,8,10,12,14,16,-1,-1,-1,18,20,22,24,-1,-1,-1,-1,-1,-1,-1,-1,-1,-1],"split_conditions":[4E0,3E0,2E1,4E0,2E0,4E0,2E0,2E0,-2.2246435E-1,-5.0861623E-2,-2.2033405E-1,1.7E1,7E0,2.1E1,2.2E1,-2.6457664E-1,-3.111117E-1,1.6053103E-1,2.1803135E-2,-5.212151E-2,-2.626124E-1,-1.4817847E-1,-2.8187114E-1,-2.4048185E-2,-2.3589543E-1],"split_indices":[1,1,1,0,0,0,0,0,0,0,0,1,0,1,1,0,0,0,0,0,0,0,0,0,0],"split_type":[0,0,0,0,0,0,0,0,0,0,0,0,0,0,0,0,0,0,0,0,0,0,0,0,0],"sum_hessian":[1.624E3,3.15E2,1.309E3,2.65E2,5E1,1.022E3,2.87E2,1.72E2,9.3E1,2.5E1,2.5E1,9.91E2,3.1E1,1.33E2,1.54E2,8.3E1,8.9E1,7.86E2,2.05E2,9E0,2.2E1,2.4E1,1.09E2,1.1E2,4.4E1],"tree_param":{"num_deleted":"0","num_feature":"2","num_nodes":"25","size_leaf_vector":"1"}},{"base_weights":[-1.1764868E-2,-2.2302353E0,5.2338666E-1,-2.4098625E0,-1.2496272E0,1.1842775E0,-1.2306287E0,-2.6161625E0,-2.0045455E-1,-4.5971107E-2,-1.9914809E-1,-2.5758272E-1,1.4249033E0,-3.6832353E-1,-1.7866687E0,-2.3843399E-1,-2.8034624E-1,3.343959E-1,-1.091355E-1,1.6321479E-1,3.6737937E-2,-6.638138E-2,-5.49077E-3,-2.1515214E-1,9.903787E-2],"categories":[],"categories_nodes":[],"categories_segments":[],"categories_sizes":[],"default_left":[0,0,0,0,0,0,0,0,0,0,0,0,0,0,0,0,0,0,0,0,0,0,0,0,0],"id":14,"left_children":[1,3,5,7,9,11,13,15,-1,-1,-1,17,19,21,23,-1,-1,-1,-1,-1,-1,-1,-1,-1,-1],"loss_changes":[1.9303964E3,5.2650024E1,1.5200261E3,1.6997803E1,2.8970604E1,3.3066223E2,1.7147388E2,8.273926E-1,0E0,0E0,0E0,4.1504205E2,1.7823987E2,1.3114361E1,2.2301123E2,0E0,0E0,0E0,0E0,0E0,0E0,0E0,0E0,0E0,0E0],"parents":[2147483647,0,0,1,1,2,2,3,3,4,4,5,5,6,6,7,7,11,11,12,12,13,13,14,14],"right_children":[2,4,6,8,10,12,14,16,-1,-1,-1,18,20,22,24,-1,-1,-1,-1,-1,-1,-1,-1,-1,-1],"split_conditions":[4E0,3E0,1.9E1,4E0,2E0,6E0,2.1E1,2E0,-2.0045455E-1,-4.5971107E-2,-1.9914809E-1,2E0,1.7E1,2E0,3E0,-2.3843399E-1,-2.8034624E-1,3.343959E-1,-1.091355E-1,1.6321479E-1,3.6737937E-2,-6.638138E-2,-5.49077E-3,-2.1515214E-1,9.903787E-2],"split_indices":[1,1,1,0,0,1,1,0,0,0,0,0,1,0,0,0,0,0,0,0,0,0,0,0,0],"split_type":[0,0,0,0,0,0,0,0,0,0,0,0,0,0,0,0,0,0,0,0,0,0,0,0,0],"sum_hessian":[1.624E3,3.15E2,1.309E3,2.65E2,5E1,9.51E2,3.58E2,1.72E2,9.3E1,2.5E1,2.5E1,1.36E2,8.15E2,1.41E2,2.17E2,8.3E1,8.9E1,2.5E1,1.11E2,6.81E2,1.34E2,7.2E1,6.9E1,1.92E2,2.5E1],"tree_param":{"num_deleted":"0","num_feature":"2","num_nodes":"25","size_leaf_vector":"1"}},{"base_weights":[-1.1036252E-2,-2.0102637E0,4.7122854E-1,-2.17158E0,-1.1294708E0,9.865834E-1,-1.360991E0,-2.4505694E0,-1.8990462E-1,-4.1550826E-2,-1.7999922E-1,1.0763198E0,-1.8260746E0,-2.1475964E0,-6.7217755E-1,-2.1487443E-1,-2.9595193E-1,1.3073376E-1,1.8851742E-2,-6.2119927E-2,-2.2705388E-1,-1.2758075E-1,-2.3262064E-1,-1.6108736E-2,-1.9179295E-1],"categories":[],"categories_nodes":[],"categories_segments":[],"categories_sizes":[],"default_left":[0,0,0,0,0,0,0,0,0,0,0,0,0,0,0,0,0,0,0,0,0,0,0,0,0],"id":15,"left_children":[1,3,5,7,9,11,13,15,-1,-1,-1,17,19,21,23,-1,-1,-1,-1,-1,-1,-1,-1,-1,-1],"loss_changes":[1.5677024E3,4.2446655E1,1.2383014E3,1.5571167E1,2.3667168E1,2.601682E2,1.546018E2,1.3303284E1,0E0,0E0,0E0,2.0321106E2,1.5726311E1,1.789746E1,9.837825E1,0E0,0E0,0E0,0E0,0E0,0E0,0E0,0E0,0E0,0E0],"parents":[2147483647,0,0,1,1,2,2,3,3,4,4,5,5,6,6,7,7,11,11,12,12,13,13,14,14],"right_children":[2,4,6,8,10,12,14,16,-1,-1,-1,18,20,22,24,-1,-1,-1,-1,-1,-1,-1,-1,-1,-1],"split_conditions":[4E0,3E0,2E1,3E0,2E0,4E0,2E0,2E0,-1.8990462E-1,-4.1550826E-2,-1.7999922E-1,1.7E1,7E0,2.1E1,2.2E1,-2.1487443E-1,-2.9595193E-1,1.3073376E-1,1.8851742E-2,-6.2119927E-2,-2.2705388E-1,-1.2758075E-1,-2.3262064E-1,-1.6108736E-2,-1.9179295E-1],"split_indices":[1,1,1,0,0,0,0,0,0,0,0,1,0,1,1,0,0,0,0,0,0,0,0,0,0],"split_type":[0,0,0,0,0,0,0,0,0,0,0,0,0,0,0,0,0,0,0,0,0,0,0,0,0],"sum_hessian":[1.624E3,3.15E2,1.309E3,2.65E2,5E1,1.022E3,2.87E2,1.27E2,1.38E2,2.5E1,2.5E1,9.91E2,3.1E1,1.33E2,1.54E2,8.3E1,4.4E1,7.86E2,2.05E2,9E0,2.2E1,2.4E1,1.09E2,1.1E2,4.4E1],"tree_param":{"num_deleted":"0","num_feature":"2","num_nodes":"25","size_leaf_vector":"1"}},{"base_weights":[-1.0935579E-2,-1.8121558E0,4.235656E-1,-1.9570564E0,-1.020868E0,9.6153903E-1,-1.0042179E0,-2.2095034E0,-1.7105076E-1,-3.755558E-2,-1.626916E-1,-3.025051E-1,1.1725838E0,-6.360495E-1,-1.8653618E0,-1.9364281E-1,-2.6701438E-1,2.8967187E-1,-1.0424811E-1,1.3411747E-1,3.1220147E-2,-1.2526931E-1,-7.908475E-3,-1.7024037E-1,-2.357992E-1],"categories":[],"categories_nodes":[],"categories_segments":[],"categories_sizes":[],"default_left":[0,0,0,0,0,0,0,0,0,0,0,0,0,0,0,0,0,0,0,0,0,0,0,0,0],"id":16,"left_children":[1,3,5,7,9,11,13,15,-1,-1,-1,17,19,21,23,-1,-1,-1,-1,-1,-1,-1,-1,-1,-1],"loss_changes":[1.2725452E3,3.423401E1,1.00718915E3,1.2776672E1,1.9334602E1,2.5431958E2,1.1263306E2,1.0930542E1,0E0,0E0,0E0,3.2734653E2,1.17944214E2,8.6793465E1,4.57547E0,0E0,0E0,0E0,0E0,0E0,0E0,0E0,0E0,0E0,0E0],"parents":[2147483647,0,0,1,1,2,2,3,3,4,4,5,5,6,6,7,7,11,11,12,12,13,13,14,14],"right_children":[2,4,6,8,10,12,14,16,-1,-1,-1,18,20,22,24,-1,-1,-1,-1,-1,-1,-1,-1,-1,-1],"split_conditions":[4E0,3E0,1.9E1,3E0,2E0,6E0,2.2E1,2E0,-1.7105076E-1,-3.755558E-2,-1.626916E-1,2E0,1.7E1,2E0,2.3E1,-1.9364281E-1,-2.6701438E-1,2.8967187E-1,-1.0424811E-1,1.3411747E-1,3.1220147E-2,-1.2526931E-1,-7.908475E-3,-1.7024037E-1,-2.357992E-1],"split_indices":[1,1,1,0,0,1,1,0,0,0,0,0,1,0,1,0,0,0,0,0,0,0,0,0,0],"split_type":[0,0,0,0,0,0,0,0,0,0,0,0,0,0,0,0,0,0,0,0,0,0,0,0,0],"sum_hessian":[1.624E3,3.15E2,1.309E3,2.65E2,5E1,9.51E2,3.58E2,1.27E2,1.38E2,2.5E1,2.5E1,1.36E2,8.15E2,2.52E2,1.06E2,8.3E1,4.4E1,2.5E1,1.11E2,6.81E2,1.34E2,1.19E2,1.33E2,8.3E1,2.3E1],"tree_param":{"num_deleted":"0","num_feature":"2","num_nodes":"25","size_leaf_vector":"1"}},{"base_weights":[-1.04697915E-2,-1.6335732E0,3.8106543E-1,-1.7637256E0,-9.227075E-1,8.0470705E-1,-1.1250682E0,-1.924479E0,-1.449108E-1,-3.3944454E-2,-1.4704816E-1,8.8206553E-1,-1.6185536E0,-1.3227906E0,9.182432E-2,-1.7450908E-1,-2.070525E-1,1.0648382E-1,1.7952112E-2,-6.85997E-2,-1.9536412E-1,-4.807281E-2,-1.6257112E-1],"categories":[],"categories_nodes":[],"categories_segments":[],"categories_sizes":[],"default_left":[0,0,0,0,0,0,0,0,0,0,0,0,0,0,0,0,0,0,0,0,0,0,0],"id":17,"left_children":[1,3,5,7,9,11,13,15,-1,-1,-1,17,19,21,-1,-1,-1,-1,-1,-1,-1,-1,-1],"loss_changes":[1.0333135E3,2.7609253E1,8.3676514E2,1.0664368E1,1.5795166E1,1.931991E2,1.1756912E2,9.1918945E-1,0E0,0E0,0E0,1.271875E2,8.659424E0,6.6304016E1,0E0,0E0,0E0,0E0,0E0,0E0,0E0,0E0,0E0],"parents":[2147483647,0,0,1,1,2,2,3,3,4,4,5,5,6,6,7,7,11,11,12,12,13,13],"right_children":[2,4,6,8,10,12,14,16,-1,-1,-1,18,20,22,-1,-1,-1,-1,-1,-1,-1,-1,-1],"split_conditions":[4E0,3E0,2E1,4E0,2E0,4E0,3E0,2E0,-1.449108E-1,-3.3944454E-2,-1.4704816E-1,1.7E1,7E0,2.1E1,9.182432E-2,-1.7450908E-1,-2.070525E-1,1.0648382E-1,1.7952112E-2,-6.85997E-2,-1.9536412E-1,-4.807281E-2,-1.6257112E-1],"split_indices":[1,1,1,0,0,0,0,0,0,0,0,1,0,1,0,0,0,0,0,0,0,0,0],"split_type":[0,0,0,0,0,0,0,0,0,0,0,0,0,0,0,0,0,0,0,0,0,0,0],"sum_hessian":[1.624E3,3.15E2,1.309E3,2.65E2,5E1,1.022E3,2.87E2,1.72E2,9.3E1,2.5E1,2.5E1,9.91E2,3.1E1,2.62E2,2.5E1,8.3E1,8.9E1,7.86E2,2.05E2,9E0,2.2E1,7E1,1.92E2],"tree_param":{"num_deleted":"0","num_feature":"2","num_nodes":"23","size_leaf_vector":"1"}},{"base_weights":[-1.0016999E-2,-1.4724547E0,3.4276187E-1,-1.5893323E0,-8.3398587E-1,7.241003E-1,-1.012974E0,-1.8078195E0,-1.3767014E-1,-3.0680597E-2,-1.3290894E-1,-3.2813537E-1,8.858051E-1,-1.6382798E0,-4.6585175E-1,-1.5726592E-1,-2.206612E-1,2.515801E-1,-9.854051E-2,1.1032374E-1,1.6165629E-2,-9.86922E-2,-1.7714222E-1,-8.0926E-3,-1.4049831E-1],"categories":[],"categories_nodes":[],"categories_segments":[],"categories_sizes":[],"default_left":[0,0,0,0,0,0,0,0,0,0,0,0,0,0,0,0,0,0,0,0,0,0,0,0,0],"id":18,"left_children":[1,3,5,7,9,11,13,15,-1,-1,-1,17,19,21,23,-1,-1,-1,-1,-1,-1,-1,-1,-1,-1],"loss_changes":[8.3887006E2,2.225531E1,6.7799585E2,9.868774E0,1.2903667E1,1.7435571E2,9.776697E1,8.5336E0,0E0,0E0,0E0,2.58564E2,1.3948285E2,9.87265E0,5.5918156E1,0E0,0E0,0E0,0E0,0E0,0E0,0E0,0E0,0E0,0E0],"parents":[2147483647,0,0,1,1,2,2,3,3,4,4,5,5,6,6,7,7,11,11,12,12,13,13,14,14],"right_children":[2,4,6,8,10,12,14,16,-1,-1,-1,18,20,22,24,-1,-1,-1,-1,-1,-1,-1,-1,-1,-1],"split_conditions":[4E0,3E0,2E1,3E0,2E0,6E0,2E0,2E0,-1.3767014E-1,-3.0680597E-2,-1.3290894E-1,2E0,1.7E1,2.1E1,2.2E1,-1.5726592E-1,-2.206612E-1,2.515801E-1,-9.854051E-2,1.1032374E-1,1.6165629E-2,-9.86922E-2,-1.7714222E-1,-8.0926E-3,-1.4049831E-1],"split_indices":[1,1,1,0,0,1,0,0,0,0,0,0,1,1,1,0,0,0,0,0,0,0,0,0,0],"split_type":[0,0,0,0,0,0,0,0,0,0,0,0,0,0,0,0,0,0,0,0,0,0,0,0,0],"sum_hessian":[1.624E3,3.15E2,1.309E3,2.65E2,5E1,1.022E3,2.87E2,1.27E2,1.38E2,2.5E1,2.5E1,1.36E2,8.86E2,1.33E2,1.54E2,8.3E1,4.4E1,2.5E1,1.11E2,6.81E2,2.05E2,2.4E1,1.09E2,1.1E2,4.4E1],"tree_param":{"num_deleted":"0","num_feature":"2","num_nodes":"25","size_leaf_vector":"1"}},{"base_weights":[-9.522007E-3,-1.3273586E0,3.083756E-1,-1.4323375E0,-7.537949E-1,6.519641E-1,-9.131503E-1,-1.6299901E0,-1.2400218E-1,-2.773053E-2,-1.2012924E-1,3.2075712E-1,1.1135066E0,-1.0827693E0,8.377321E-2,-1.4172654E-1,-1.9908541E-1,4.1907307E-2,-1.4282294E-1,2.0066667E-1,1.4556947E-2,-3.9472844E-2,-1.3302726E-1],"categories":[],"categories_nodes":[],"categories_segments":[],"categories_sizes":[],"default_left":[0,0,0,0,0,0,0,0,0,0,0,0,0,0,0,0,0,0,0,0,0,0,0],"id":19,"left_children":[1,3,5,7,9,11,13,15,-1,-1,-1,17,19,21,-1,-1,-1,-1,-1,-1,-1,-1,-1],"loss_changes":[6.8118207E2,1.7947388E1,5.5040533E2,8.089905E0,1.05415E1,1.5602481E2,8.643817E1,7.0043335E0,0E0,0E0,0E0,1.0325461E2,3.6885913E2,4.426181E1,0E0,0E0,0E0,0E0,0E0,0E0,0E0,0E0,0E0],"parents":[2147483647,0,0,1,1,2,2,3,3,4,4,5,5,6,6,7,7,11,11,12,12,13,13],"right_children":[2,4,6,8,10,12,14,16,-1,-1,-1,18,20,22,-1,-1,-1,-1,-1,-1,-1,-1,-1],"split_conditions":[4E0,3E0,2E1,3E0,2E0,1.3E1,3E0,2E0,-1.2400218E-1,-2.773053E-2,-1.2012924E-1,4E0,1.7E1,2.1E1,8.377321E-2,-1.4172654E-1,-1.9908541E-1,4.1907307E-2,-1.4282294E-1,2.0066667E-1,1.4556947E-2,-3.9472844E-2,-1.3302726E-1],"split_indices":[1,1,1,0,0,1,0,0,0,0,0,0,1,1,0,0,0,0,0,0,0,0,0],"split_type":[0,0,0,0,0,0,0,0,0,0,0,0,0,0,0,0,0,0,0,0,0,0,0],"sum_hessian":[1.624E3,3.15E2,1.309E3,2.65E2,5E1,1.022E3,2.87E2,1.27E2,1.38E2,2.5E1,2.5E1,5.96E2,4.26E2,2.62E2,2.5E1,8.3E1,4.4E1,5.65E2,3.1E1,2.21E2,2.05E2,7E1,1.92E2],"tree_param":{"num_deleted":"0","num_feature":"2","num_nodes":"23","size_leaf_vector":"1"}},{"base_weights":[-8.930766E-3,-1.1965616E0,2.77558E-1,-1.2908512E0,-6.8131447E-1,6.671824E-1,-6.0099417E-1,-1.4938151E0,-1.1358653E0,-2.5064094E-2,-1.0857836E-1,2.8851327E-1,1.3896128E0,-1.6497825E-1,-9.702509E-1,-1.648664E-1,-1.2358E-1,-1.252503E-1,-1.0468506E-1,3.7724074E-2,-1.2898698E-1,1.8069042E-1,3.5633482E-2,-4.6752724E-3,-3.5581183E-2,-1.19793475E-1,7.571807E-2],"categories":[],"categories_nodes":[],"categories_segments":[],"categories_sizes":[],"default_left":[0,0,0,0,0,0,0,0,0,0,0,0,0,0,0,0,0,0,0,0,0,0,0,0,0,0,0],"id":20,"left_children":[1,3,5,7,9,11,13,15,17,-1,-1,19,21,23,25,-1,-1,-1,-1,-1,-1,-1,-1,-1,-1,-1,-1],"loss_changes":[5.5322675E2,1.4472626E1,4.4882098E2,6.670685E0,8.611759E0,2.4799341E2,6.472366E1,2.4373474E0,2.980957E-1,0E0,0E0,8.409401E1,1.3388367E2,4.179784E0,8.664821E1,0E0,0E0,0E0,0E0,0E0,0E0,0E0,0E0,0E0,0E0,0E0,0E0],"parents":[2147483647,0,0,1,1,2,2,3,3,4,4,5,5,6,6,7,7,8,8,11,11,12,12,13,13,14,14],"right_children":[2,4,6,8,10,12,14,16,18,-1,-1,20,22,24,26,-1,-1,-1,-1,-1,-1,-1,-1,-1,-1,-1,-1],"split_conditions":[4E0,3E0,1.8E1,2E0,2E0,1.3E1,2.1E1,3E0,2E0,-2.5064094E-2,-1.0857836E-1,4E0,1.7E1,2E1,3E0,-1.648664E-1,-1.2358E-1,-1.252503E-1,-1.0468506E-1,3.7724074E-2,-1.2898698E-1,1.8069042E-1,3.5633482E-2,-4.6752724E-3,-3.5581183E-2,-1.19793475E-1,7.571807E-2],"split_indices":[1,1,1,1,0,1,1,0,0,0,0,0,1,1,0,0,0,0,0,0,0,0,0,0,0,0,0],"split_type":[0,0,0,0,0,0,0,0,0,0,0,0,0,0,0,0,0,0,0,0,0,0,0,0,0,0,0],"sum_hessian":[1.624E3,3.15E2,1.309E3,2.65E2,5E1,9.07E2,4.02E2,1.11E2,1.54E2,2.5E1,2.5E1,5.96E2,3.11E2,1.85E2,2.17E2,6.6E1,4.5E1,6.1E1,9.3E1,5.65E2,3.1E1,2.21E2,9E1,1.15E2,7E1,1.92E2,2.5E1],"tree_param":{"num_deleted":"0","num_feature":"2","num_nodes":"27","size_leaf_vector":"1"}},{"base_weights":[-8.413717E-3,-1.0789689E0,2.4983348E-1,-1.163715E0,-6.158034E-1,6.0060215E-1,-5.4110396E-1,-1.347009E0,-1.0237623E0,-2.265405E-2,-9.813815E-2,2.5950956E-1,1.2513447E0,-1.4869693E-1,-8.7342787E-1,-1.4862584E-1,-1.1149066E-1,-1.1292727E-1,-9.432794E-2,3.3958387E-2,-1.1649137E-1,5.2638974E-2,1.7941402E-1,-4.2118127E-3,-3.2073136E-2,-1.0787618E-1,6.8437494E-2],"categories":[],"categories_nodes":[],"categories_segments":[],"categories_sizes":[],"default_left":[0,0,0,0,0,0,0,0,0,0,0,0,0,0,0,0,0,0,0,0,0,0,0,0,0,0,0],"id":21,"left_children":[1,3,5,7,9,11,13,15,17,-1,-1,19,21,23,25,-1,-1,-1,-1,-1,-1,-1,-1,-1,-1,-1,-1],"loss_changes":[4.4952985E2,1.1686859E1,3.6376627E2,5.4445496E0,7.035284E0,2.0121808E2,5.242385E1,1.9627991E0,2.5099182E-1,0E0,0E0,6.848919E1,1.2182825E2,3.396843E0,7.0469864E1,0E0,0E0,0E0,0E0,0E0,0E0,0E0,0E0,0E0,0E0,0E0,0E0],"parents":[2147483647,0,0,1,1,2,2,3,3,4,4,5,5,6,6,7,7,8,8,11,11,12,12,13,13,14,14],"right_children":[2,4,6,8,10,12,14,16,18,-1,-1,20,22,24,26,-1,-1,-1,-1,-1,-1,-1,-1,-1,-1,-1,-1],"split_conditions":[4E0,3E0,1.8E1,2E0,2E0,1.3E1,2.1E1,3E0,2E0,-2.265405E-2,-9.813815E-2,4E0,2E0,2E1,3E0,-1.4862584E-1,-1.1149066E-1,-1.1292727E-1,-9.432794E-2,3.3958387E-2,-1.1649137E-1,5.2638974E-2,1.7941402E-1,-4.2118127E-3,-3.2073136E-2,-1.0787618E-1,6.8437494E-2],"split_indices":[1,1,1,1,0,1,1,0,0,0,0,0,0,1,0,0,0,0,0,0,0,0,0,0,0,0,0],"split_type":[0,0,0,0,0,0,0,0,0,0,0,0,0,0,0,0,0,0,0,0,0,0,0,0,0,0,0],"sum_hessian":[1.624E3,3.15E2,1.309E3,2.65E2,5E1,9.07E2,4.02E2,1.11E2,1.54E2,2.5E1,2.5E1,5.96E2,3.11E2,1.85E2,2.17E2,6.6E1,4.5E1,6.1E1,9.3E1,5.65E2,3.1E1,1.34E2,1.77E2,1.15E2,7E1,1.92E2,2.5E1],"tree_param":{"num_deleted":"0","num_feature":"2","num_nodes":"27","size_leaf_vector":"1"}},{"base_weights":[-7.889027E-3,-7.7911353E-1,2.890457E-1,-2.604732E-1,-9.9453264E-1,6.9387805E-1,-4.8718163E-1,-8.3656E-1,2.1646781E-1,-1.2589293E0,-8.86749E-1,2.1047488E-1,9.9403954E-1,-1.3402258E-1,-7.862661E-1,-1.02215864E-1,-2.047582E-2,-1.4896671E-1,-1.0058396E-1,-7.896536E-2,-9.4243586E-2,5.750818E-2,-1.6929045E-1,6.840079E-2,2.3920432E-1,-3.794301E-3,-2.8911004E-2,-9.714446E-2,6.1856944E-2],"categories":[],"categories_nodes":[],"categories_segments":[],"categories_sizes":[],"default_left":[0,0,0,0,0,0,0,0,0,0,0,0,0,0,0,0,0,0,0,0,0,0,0,0,0,0,0,0,0],"id":22,"left_children":[1,3,5,7,9,11,13,15,-1,17,19,21,23,25,27,-1,-1,-1,-1,-1,-1,-1,-1,-1,-1,-1,-1,-1,-1],"loss_changes":[3.7235562E2,5.024066E1,3.692581E2,1.8902197E2,7.974365E0,1.1180722E2,4.246125E1,1.2572212E1,0E0,3.7574005E0,4.994049E-1,2.070872E2,2.0467426E2,2.760567E0,5.731259E1,0E0,0E0,0E0,0E0,0E0,0E0,0E0,0E0,0E0,0E0,0E0,0E0,0E0,0E0],"parents":[2147483647,0,0,1,1,2,2,3,3,4,4,5,5,6,6,7,7,9,9,10,10,11,11,12,12,13,13,14,14],"right_children":[2,4,6,8,10,12,14,16,-1,18,20,22,24,26,28,-1,-1,-1,-1,-1,-1,-1,-1,-1,-1,-1,-1,-1,-1],"split_conditions":[6E0,2E0,1.8E1,4E0,2E0,2E0,2.1E1,3E0,2.1646781E-1,3E0,4E0,1.7E1,1.5E1,2E1,3E0,-1.02215864E-1,-2.047582E-2,-1.4896671E-1,-1.0058396E-1,-7.896536E-2,-9.4243586E-2,5.750818E-2,-1.6929045E-1,6.840079E-2,2.3920432E-1,-3.794301E-3,-2.8911004E-2,-9.714446E-2,6.1856944E-2],"split_indices":[1,0,1,1,1,0,1,1,0,0,0,1,1,1,0,0,0,0,0,0,0,0,0,0,0,0,0,0,0],"split_type":[0,0,0,0,0,0,0,0,0,0,0,0,0,0,0,0,0,0,0,0,0,0,0,0,0,0,0,0,0],"sum_hessian":[1.624E3,4.51E2,1.173E3,1.33E2,3.18E2,7.71E2,4.02E2,1.08E2,2.5E1,8.9E1,2.29E2,2.96E2,4.75E2,1.85E2,2.17E2,8.3E1,2.5E1,4.4E1,4.5E1,8.9E1,1.4E2,2.49E2,4.7E1,3.9E2,8.5E1,1.15E2,7E1,1.92E2,2.5E1],"tree_param":{"num_deleted":"0","num_feature":"2","num_nodes":"29","size_leaf_vector":"1"}},{"base_weights":[-7.2240424E-3,-7.0192987E-1,2.6024976E-1,-2.3372605E-1,-8.9640445E-1,6.247436E-1,-4.3863222E-1,-7.540298E-1,1.9565369E-1,-1.1358091E0,-7.9882693E-1,3.3484685E-1,1.0510821E0,-1.20796084E-1,-7.0780146E-1,-9.211598E-2,-1.8507034E-2,-1.3440107E-1,-9.074422E-2,-7.115648E-2,-8.4886074E-2,6.766707E-2,-1.6512431E-2,1.4019647E-1,1.8353282E-2,-3.4181045E-3,-2.6060661E-2,-8.748036E-2,5.5909146E-2],"categories":[],"categories_nodes":[],"categories_segments":[],"categories_sizes":[],"default_left":[0,0,0,0,0,0,0,0,0,0,0,0,0,0,0,0,0,0,0,0,0,0,0,0,0,0,0,0,0],"id":23,"left_children":[1,3,5,7,9,11,13,15,-1,17,19,21,23,25,27,-1,-1,-1,-1,-1,-1,-1,-1,-1,-1,-1,-1,-1,-1],"loss_changes":[3.0213303E2,4.0946793E1,2.993366E2,1.5418196E2,6.5446777E0,9.5062744E1,3.4391838E1,1.0194344E1,0E0,3.059555E0,4.0016174E-1,7.889758E1,9.471796E1,2.2434957E0,4.661219E1,0E0,0E0,0E0,0E0,0E0,0E0,0E0,0E0,0E0,0E0,0E0,0E0,0E0,0E0],"parents":[2147483647,0,0,1,1,2,2,3,3,4,4,5,5,6,6,7,7,9,9,10,10,11,11,12,12,13,13,14,14],"right_children":[2,4,6,8,10,12,14,16,-1,18,20,22,24,26,28,-1,-1,-1,-1,-1,-1,-1,-1,-1,-1,-1,-1,-1,-1],"split_conditions":[6E0,2E0,1.8E1,4E0,2E0,1.3E1,2.1E1,3E0,1.9565369E-1,3E0,4E0,1.1E1,1.7E1,2E1,3E0,-9.211598E-2,-1.8507034E-2,-1.3440107E-1,-9.074422E-2,-7.115648E-2,-8.4886074E-2,6.766707E-2,-1.6512431E-2,1.4019647E-1,1.8353282E-2,-3.4181045E-3,-2.6060661E-2,-8.748036E-2,5.5909146E-2],"split_indices":[1,0,1,1,1,1,1,1,0,0,0,1,1,1,0,0,0,0,0,0,0,0,0,0,0,0,0,0,0],"split_type":[0,0,0,0,0,0,0,0,0,0,0,0,0,0,0,0,0,0,0,0,0,0,0,0,0,0,0,0,0],"sum_hessian":[1.624E3,4.51E2,1.173E3,1.33E2,3.18E2,7.71E2,4.02E2,1.08E2,2.5E1,8.9E1,2.29E2,4.6E2,3.11E2,1.85E2,2.17E2,8.3E1,2.5E1,4.4E1,4.5E1,8.9E1,1.4E2,2.73E2,1.87E2,2.21E2,9E1,1.15E2,7E1,1.92E2,2.5E1],"tree_param":{"num_deleted":"0","num_feature":"2","num_nodes":"29","size_leaf_vector":"1"}},{"base_weights":[-6.592367E-3,-6.3239235E-1,2.3435156E-1,-2.0971902E-1,-8.079592E-1,5.62541E-1,-3.949204E-1,-6.7964184E-1,1.7684081E-1,-1.0312403E0,-7.1570355E-1,1.277265E-1,8.326615E-1,-1.08874924E-1,-6.37166E-1,-8.3014056E-2,-1.6727513E-2,-1.2125963E-1,-8.356604E-2,-6.302337E-2,-7.645767E-2,4.4840038E-2,-1.545111E-1,5.5662643E-2,2.0779763E-1,-3.079254E-3,-2.3491269E-2,-1.0555263E-1,-2.0912198E-2],"categories":[],"categories_nodes":[],"categories_segments":[],"categories_sizes":[],"default_left":[0,0,0,0,0,0,0,0,0,0,0,0,0,0,0,0,0,0,0,0,0,0,0,0,0,0,0,0,0],"id":24,"left_children":[1,3,5,7,9,11,13,15,-1,17,19,21,23,25,27,-1,-1,-1,-1,-1,-1,-1,-1,-1,-1,-1,-1,-1,-1],"loss_changes":[2.4517009E2,3.337233E1,2.4267714E2,1.2576387E2,5.8329926E0,9.056685E1,2.7855808E1,8.266186E0,0E0,2.2144165E0,4.747162E-1,1.6001411E2,1.6246857E2,1.8232536E0,3.8817978E1,0E0,0E0,0E0,0E0,0E0,0E0,0E0,0E0,0E0,0E0,0E0,0E0,0E0,0E0],"parents":[2147483647,0,0,1,1,2,2,3,3,4,4,5,5,6,6,7,7,9,9,10,10,11,11,12,12,13,13,14,14],"right_children":[2,4,6,8,10,12,14,16,-1,18,20,22,24,26,28,-1,-1,-1,-1,-1,-1,-1,-1,-1,-1,-1,-1,-1,-1],"split_conditions":[6E0,2E0,1.8E1,4E0,3E0,2E0,2.1E1,3E0,1.7684081E-1,2E0,4E0,1.7E1,1.5E1,2E1,2E0,-8.3014056E-2,-1.6727513E-2,-1.2125963E-1,-8.356604E-2,-6.302337E-2,-7.645767E-2,4.4840038E-2,-1.545111E-1,5.5662643E-2,2.0779763E-1,-3.079254E-3,-2.3491269E-2,-1.0555263E-1,-2.0912198E-2],"split_indices":[1,0,1,1,0,0,1,1,0,1,0,1,1,1,0,0,0,0,0,0,0,0,0,0,0,0,0,0,0],"split_type":[0,0,0,0,0,0,0,0,0,0,0,0,0,0,0,0,0,0,0,0,0,0,0,0,0,0,0,0,0],"sum_hessian":[1.624E3,4.51E2,1.173E3,1.33E2,3.18E2,7.71E2,4.02E2,1.08E2,2.5E1,9E1,2.28E2,2.96E2,4.75E2,1.85E2,2.17E2,8.3E1,2.5E1,4.4E1,4.6E1,8.8E1,1.4E2,2.49E2,4.7E1,3.9E2,8.5E1,1.15E2,7E1,1.09E2,1.08E2],"tree_param":{"num_deleted":"0","num_feature":"2","num_nodes":"29","size_leaf_vector":"1"}},{"base_weights":[-6.097037E-3,-5.6974435E-1,2.1091717E-1,-1.8817192E-1,-7.282427E-1,5.0648636E-1,-3.558081E-1,-6.125927E-1,1.598368E-1,-9.339356E-1,-6.445879E-1,2.497346E-1,8.8423014E-1,-2.1217531E-1,-7.5116456E-1,-7.481147E-2,-1.5119106E-2,-1.09403126E-1,-7.5701736E-2,-5.683772E-2,-6.886615E-2,5.5746492E-2,-2.000943E-2,1.1824476E-1,1.4699384E-2,-5.0830495E-2,5.5126944E-3,-6.189249E-2,-1.1827047E-1],"categories":[],"categories_nodes":[],"categories_segments":[],"categories_sizes":[],"default_left":[0,0,0,0,0,0,0,0,0,0,0,0,0,0,0,0,0,0,0,0,0,0,0,0,0,0,0,0,0],"id":25,"left_children":[1,3,5,7,9,11,13,15,-1,17,19,21,23,25,27,-1,-1,-1,-1,-1,-1,-1,-1,-1,-1,-1,-1,-1,-1],"loss_changes":[1.9888933E2,2.7199295E1,1.9683286E2,1.0258393E2,4.8871E0,7.4652664E1,2.2725445E1,6.702671E0,0E0,1.7209396E0,3.8111877E-1,6.392592E1,6.842146E1,2.3537388E1,5.3741302E0,0E0,0E0,0E0,0E0,0E0,0E0,0E0,0E0,0E0,0E0,0E0,0E0,0E0,0E0],"parents":[2147483647,0,0,1,1,2,2,3,3,4,4,5,5,6,6,7,7,9,9,10,10,11,11,12,12,13,13,14,14],"right_children":[2,4,6,8,10,12,14,16,-1,18,20,22,24,26,28,-1,-1,-1,-1,-1,-1,-1,-1,-1,-1,-1,-1,-1,-1],"split_conditions":[6E0,2E0,1.8E1,4E0,2E0,1.3E1,2.2E1,3E0,1.598368E-1,3E0,4E0,1.1E1,1.7E1,2E0,2.3E1,-7.481147E-2,-1.5119106E-2,-1.09403126E-1,-7.5701736E-2,-5.683772E-2,-6.886615E-2,5.5746492E-2,-2.000943E-2,1.1824476E-1,1.4699384E-2,-5.0830495E-2,5.5126944E-3,-6.189249E-2,-1.1827047E-1],"split_indices":[1,0,1,1,1,1,1,1,0,0,0,1,1,0,1,0,0,0,0,0,0,0,0,0,0,0,0,0,0],"split_type":[0,0,0,0,0,0,0,0,0,0,0,0,0,0,0,0,0,0,0,0,0,0,0,0,0,0,0,0,0],"sum_hessian":[1.624E3,4.51E2,1.173E3,1.33E2,3.18E2,7.71E2,4.02E2,1.08E2,2.5E1,8.9E1,2.29E2,4.6E2,3.11E2,2.96E2,1.06E2,8.3E1,2.5E1,4.4E1,4.5E1,8.9E1,1.4E2,2.73E2,1.87E2,2.21E2,9E1,1.4E2,1.56E2,8.3E1,2.3E1],"tree_param":{"num_deleted":"0","num_feature":"2","num_nodes":"29","size_leaf_vector":"1"}},{"base_weights":[-5.670324E-3,-5.1330304E-1,1.8977742E-1,-1.6883317E-1,-6.563929E-1,4.5605657E-1,-3.2078657E-1,-5.521584E-1,1.4446779E-1,-8.487377E-1,-5.770925E-1,6.481416E-2,6.99214E-1,-7.544138E-2,-5.286463E-1,-6.7419395E-2,-1.3665303E-2,-9.8705925E-2,-6.98244E-2,-5.0218206E-2,-6.202836E-2,3.4737613E-2,-1.4082132E-1,4.536601E-2,1.8074973E-1,3.1001815E-5,-1.9814169E-2,-6.671945E-2,5.2014023E-2],"categories":[],"categories_nodes":[],"categories_segments":[],"categories_sizes":[],"default_left":[0,0,0,0,0,0,0,0,0,0,0,0,0,0,0,0,0,0,0,0,0,0,0,0,0,0,0,0,0],"id":26,"left_children":[1,3,5,7,9,11,13,15,-1,17,19,21,23,25,27,-1,-1,-1,-1,-1,-1,-1,-1,-1,-1,-1,-1,-1,-1],"loss_changes":[1.6132288E2,2.216832E1,1.5975458E2,8.367663E1,4.3759155E0,7.3397766E1,2.0512058E1,5.434868E0,0E0,1.205101E0,4.2942047E-1,1.2410697E2,1.2872021E2,1.7288795E0,3.2024067E1,0E0,0E0,0E0,0E0,0E0,0E0,0E0,0E0,0E0,0E0,0E0,0E0,0E0,0E0],"parents":[2147483647,0,0,1,1,2,2,3,3,4,4,5,5,6,6,7,7,9,9,10,10,11,11,12,12,13,13,14,14],"right_children":[2,4,6,8,10,12,14,16,-1,18,20,22,24,26,28,-1,-1,-1,-1,-1,-1,-1,-1,-1,-1,-1,-1,-1,-1],"split_conditions":[6E0,2E0,1.8E1,4E0,3E0,2E0,2.1E1,3E0,1.4446779E-1,2E0,4E0,1.7E1,1.5E1,2E1,3E0,-6.7419395E-2,-1.3665303E-2,-9.8705925E-2,-6.98244E-2,-5.0218206E-2,-6.202836E-2,3.4737613E-2,-1.4082132E-1,4.536601E-2,1.8074973E-1,3.1001815E-5,-1.9814169E-2,-6.671945E-2,5.2014023E-2],"split_indices":[1,0,1,1,0,0,1,1,0,1,0,1,1,1,0,0,0,0,0,0,0,0,0,0,0,0,0,0,0],"split_type":[0,0,0,0,0,0,0,0,0,0,0,0,0,0,0,0,0,0,0,0,0,0,0,0,0,0,0,0,0],"sum_hessian":[1.624E3,4.51E2,1.173E3,1.33E2,3.18E2,7.71E2,4.02E2,1.08E2,2.5E1,9E1,2.28E2,2.96E2,4.75E2,1.85E2,2.17E2,8.3E1,2.5E1,4.4E1,4.6E1,8.8E1,1.4E2,2.49E2,4.7E1,3.9E2,8.5E1,1.15E2,7E1,1.92E2,2.5E1],"tree_param":{"num_deleted":"0","num_feature":"2","num_nodes":"29","size_leaf_vector":"1"}},{"base_weights":[-5.184677E-3,-4.624537E-1,1.7087221E-1,-1.51477E-1,-5.9163374E-1,4.1060594E-1,-2.887936E-1,-4.9768654E-1,1.305766E-1,-7.6923347E-1,-5.195658E-1,5.797482E-2,6.2976736E-1,-4.9222392E-1,-8.190229E-2,-6.0757723E-2,-1.2351344E-2,-8.905469E-2,-6.338349E-2,-6.299054E-2,-4.8855755E-2,3.1277657E-2,-1.2703255E-1,4.0840983E-2,1.6288492E-1,8.629299E-3,-7.90761E-2,6.373711E-3,-5.8820188E-2],"categories":[],"categories_nodes":[],"categories_segments":[],"categories_sizes":[],"default_left":[0,0,0,0,0,0,0,0,0,0,0,0,0,0,0,0,0,0,0,0,0,0,0,0,0,0,0,0,0],"id":27,"left_children":[1,3,5,7,9,11,13,15,-1,17,19,21,23,25,27,-1,-1,-1,-1,-1,-1,-1,-1,-1,-1,-1,-1,-1,-1],"loss_changes":[1.3090022E2,1.8068115E1,1.2949033E2,6.8254395E1,3.6832886E0,5.9626083E1,1.6921139E1,4.40683E0,0E0,9.138489E-1,4.79187E-1,1.00917946E2,1.0460419E2,3.512811E1,1.4858662E1,0E0,0E0,0E0,0E0,0E0,0E0,0E0,0E0,0E0,0E0,0E0,0E0,0E0,0E0],"parents":[2147483647,0,0,1,1,2,2,3,3,4,4,5,5,6,6,7,7,9,9,10,10,11,11,12,12,13,13,14,14],"right_children":[2,4,6,8,10,12,14,16,-1,18,20,22,24,26,28,-1,-1,-1,-1,-1,-1,-1,-1,-1,-1,-1,-1,-1,-1],"split_conditions":[6E0,2E0,1.8E1,4E0,2E0,2E0,2E0,3E0,1.305766E-1,3E0,3E0,1.7E1,1.5E1,2E1,2.2E1,-6.0757723E-2,-1.2351344E-2,-8.905469E-2,-6.338349E-2,-6.299054E-2,-4.8855755E-2,3.1277657E-2,-1.2703255E-1,4.0840983E-2,1.6288492E-1,8.629299E-3,-7.90761E-2,6.373711E-3,-5.8820188E-2],"split_indices":[1,0,1,1,1,0,0,1,0,0,0,1,1,1,1,0,0,0,0,0,0,0,0,0,0,0,0,0,0],"split_type":[0,0,0,0,0,0,0,0,0,0,0,0,0,0,0,0,0,0,0,0,0,0,0,0,0,0,0,0,0],"sum_hessian":[1.624E3,4.51E2,1.173E3,1.33E2,3.18E2,7.71E2,4.02E2,1.08E2,2.5E1,8.9E1,2.29E2,2.96E2,4.75E2,2.02E2,2E2,8.3E1,2.5E1,4.4E1,4.5E1,4.6E1,1.83E2,2.49E2,4.7E1,3.9E2,8.5E1,6.9E1,1.33E2,1.56E2,4.4E1],"tree_param":{"num_deleted":"0","num_feature":"2","num_nodes":"29","size_leaf_vector":"1"}},{"base_weights":[-4.8023397E-3,-4.166661E-1,1.537728E-1,-1.3590065E-1,-5.3329897E-1,3.696859E-1,-2.6021898E-1,-4.485888E-1,1.1802112E-1,-6.940038E-1,-4.680958E-1,1.4591505E-1,6.991368E-1,-3.0934444E-1,4.6399813E-2,-5.4754294E-2,-1.116374E-2,-8.034711E-2,-5.7182927E-2,-3.9695367E-2,-5.1018585E-2,4.2288367E-2,-2.5852812E-2,9.3812786E-2,1.084207E-2,-6.4153867E-3,-5.4403927E-2],"categories":[],"categories_nodes":[],"categories_segments":[],"categories_sizes":[],"default_left":[0,0,0,0,0,0,0,0,0,0,0,0,0,0,0,0,0,0,0,0,0,0,0,0,0,0,0],"id":28,"left_children":[1,3,5,7,9,11,13,15,-1,17,19,21,23,25,-1,-1,-1,-1,-1,-1,-1,-1,-1,-1,-1,-1,-1],"loss_changes":[1.06195015E2,1.4728943E1,1.0503565E2,5.567479E1,3.0177689E0,5.681099E1,1.4481268E1,3.5732307E0,0E0,7.4422455E-1,4.8618698E-1,5.1749653E1,4.394516E1,2.1717094E1,0E0,0E0,0E0,0E0,0E0,0E0,0E0,0E0,0E0,0E0,0E0,0E0,0E0],"parents":[2147483647,0,0,1,1,2,2,3,3,4,4,5,5,6,6,7,7,9,9,10,10,11,11,12,12,13,13],"right_children":[2,4,6,8,10,12,14,16,-1,18,20,22,24,26,-1,-1,-1,-1,-1,-1,-1,-1,-1,-1,-1,-1,-1],"split_conditions":[6E0,2E0,1.8E1,4E0,2E0,1.3E1,3E0,3E0,1.1802112E-1,3E0,4E0,1.1E1,1.7E1,2.1E1,4.6399813E-2,-5.4754294E-2,-1.116374E-2,-8.034711E-2,-5.7182927E-2,-3.9695367E-2,-5.1018585E-2,4.2288367E-2,-2.5852812E-2,9.3812786E-2,1.084207E-2,-6.4153867E-3,-5.4403927E-2],"split_indices":[1,0,1,1,1,1,0,1,0,0,0,1,1,1,0,0,0,0,0,0,0,0,0,0,0,0,0],"split_type":[0,0,0,0,0,0,0,0,0,0,0,0,0,0,0,0,0,0,0,0,0,0,0,0,0,0,0],"sum_hessian":[1.624E3,4.51E2,1.173E3,1.33E2,3.18E2,7.71E2,4.02E2,1.08E2,2.5E1,8.9E1,2.29E2,4.6E2,3.11E2,3.77E2,2.5E1,8.3E1,2.5E1,4.4E1,4.5E1,8.9E1,1.4E2,2.73E2,1.87E2,2.21E2,9E1,1.85E2,1.92E2],"tree_param":{"num_deleted":"0","num_feature":"2","num_nodes":"27","size_leaf_vector":"1"}},{"base_weights":[-4.3647755E-3,-3.7538904E-1,1.3848644E-1,-1.2192176E-1,-4.806844E-1,3.3287424E-1,-2.3423284E-1,-4.043347E-1,1.0667294E-1,-6.319003E-1,-4.1849518E-1,1.8489812E-1,7.580271E-1,-4.111974E-1,-5.434211E-2,-4.9344048E-2,-1.0090307E-2,-7.249095E-2,-5.294043E-2,-3.4878448E-2,-4.5952894E-2,-2.2512022E-3,5.4451626E-2,1.3023563E-1,9.769847E-3,8.411113E-3,-6.6687204E-2,6.7289523E-3,-4.7749378E-2],"categories":[],"categories_nodes":[],"categories_segments":[],"categories_sizes":[],"default_left":[0,0,0,0,0,0,0,0,0,0,0,0,0,0,0,0,0,0,0,0,0,0,0,0,0,0,0,0,0],"id":29,"left_children":[1,3,5,7,9,11,13,15,-1,17,19,21,23,25,27,-1,-1,-1,-1,-1,-1,-1,-1,-1,-1,-1,-1,-1,-1],"loss_changes":[8.617905E1,1.2004787E1,8.513672E1,4.5413837E1,2.7354279E0,4.8428276E1,1.2806871E1,2.8973007E0,0E0,4.8373795E-1,4.9477386E-1,4.2826027E1,7.140055E1,2.5763569E1,1.0377325E1,0E0,0E0,0E0,0E0,0E0,0E0,0E0,0E0,0E0,0E0,0E0,0E0,0E0,0E0],"parents":[2147483647,0,0,1,1,2,2,3,3,4,4,5,5,6,6,7,7,9,9,10,10,11,11,12,12,13,13,14,14],"right_children":[2,4,6,8,10,12,14,16,-1,18,20,22,24,26,28,-1,-1,-1,-1,-1,-1,-1,-1,-1,-1,-1,-1,-1,-1],"split_conditions":[6E0,2E0,1.8E1,4E0,3E0,1.5E1,2E0,3E0,1.0667294E-1,2E0,4E0,3E0,1.7E1,2E1,2.2E1,-4.9344048E-2,-1.0090307E-2,-7.249095E-2,-5.294043E-2,-3.4878448E-2,-4.5952894E-2,-2.2512022E-3,5.4451626E-2,1.3023563E-1,9.769847E-3,8.411113E-3,-6.6687204E-2,6.7289523E-3,-4.7749378E-2],"split_indices":[1,0,1,1,0,1,0,1,0,1,0,0,1,1,1,0,0,0,0,0,0,0,0,0,0,0,0,0,0],"split_type":[0,0,0,0,0,0,0,0,0,0,0,0,0,0,0,0,0,0,0,0,0,0,0,0,0,0,0,0,0],"sum_hessian":[1.624E3,4.51E2,1.173E3,1.33E2,3.18E2,7.71E2,4.02E2,1.08E2,2.5E1,9E1,2.28E2,5.73E2,1.98E2,2.02E2,2E2,8.3E1,2.5E1,4.4E1,4.6E1,8.8E1,1.4E2,3.64E2,2.09E2,1.08E2,9E1,6.9E1,1.33E2,1.56E2,4.4E1],"tree_param":{"num_deleted":"0","num_feature":"2","num_nodes":"29","size_leaf_vector":"1"}},{"base_weights":[-3.969064E-3,-3.3820203E-1,1.2471686E-1,-1.0937698E-1,-4.3326274E-1,-1.5880954E-1,3.3382183E-1,-3.6444655E-1,9.641599E-2,-5.732523E-1,-3.7660044E-1,2.076475E-1,-5.246313E-1,4.9482164E-1,-4.911214E-2,-4.4468384E-2,-9.120127E-3,-6.5402955E-2,-4.8176907E-2,-4.7759026E-2,-3.487574E-2,-2.424208E-2,1.0389371E-1,-1.1661202E-1,-3.703649E-2,3.0587122E-2,1.3481331E-1,6.060326E-3,-4.308056E-2],"categories":[],"categories_nodes":[],"categories_segments":[],"categories_sizes":[],"default_left":[0,0,0,0,0,0,0,0,0,0,0,0,0,0,0,0,0,0,0,0,0,0,0,0,0,0,0,0,0],"id":30,"left_children":[1,3,5,7,9,11,13,15,-1,17,19,21,23,25,27,-1,-1,-1,-1,-1,-1,-1,-1,-1,-1,-1,-1,-1,-1],"loss_changes":[6.993519E1,9.784634E0,6.965569E1,3.7044147E1,2.3144646E0,6.700387E1,4.170125E1,2.3492088E0,0E0,3.4998703E-1,4.801674E-1,9.378613E1,2.4308159E1,7.63348E1,8.443515E0,0E0,0E0,0E0,0E0,0E0,0E0,0E0,0E0,0E0,0E0,0E0,0E0,0E0,0E0],"parents":[2147483647,0,0,1,1,2,2,3,3,4,4,5,5,6,6,7,7,9,9,10,10,11,11,12,12,13,13,14,14],"right_children":[2,4,6,8,10,12,14,16,-1,18,20,22,24,26,28,-1,-1,-1,-1,-1,-1,-1,-1,-1,-1,-1,-1,-1,-1],"split_conditions":[6E0,2E0,2E0,4E0,2E0,1.7E1,1.8E1,3E0,9.641599E-2,3E0,3E0,1.3E1,1.8E1,1.5E1,2.2E1,-4.4468384E-2,-9.120127E-3,-6.5402955E-2,-4.8176907E-2,-4.7759026E-2,-3.487574E-2,-2.424208E-2,1.0389371E-1,-1.1661202E-1,-3.703649E-2,3.0587122E-2,1.3481331E-1,6.060326E-3,-4.308056E-2],"split_indices":[1,0,0,1,1,1,1,1,0,0,0,1,1,1,1,0,0,0,0,0,0,0,0,0,0,0,0,0,0],"split_type":[0,0,0,0,0,0,0,0,0,0,0,0,0,0,0,0,0,0,0,0,0,0,0,0,0,0,0,0,0],"sum_hessian":[1.624E3,4.51E2,1.173E3,1.33E2,3.18E2,4.98E2,6.75E2,1.08E2,2.5E1,8.9E1,2.29E2,2.49E2,2.49E2,4.75E2,2E2,8.3E1,2.5E1,4.4E1,4.5E1,4.6E1,1.83E2,1.62E2,8.7E1,4.7E1,2.02E2,3.9E2,8.5E1,1.56E2,4.4E1],"tree_param":{"num_deleted":"0","num_feature":"2","num_nodes":"29","size_leaf_vector":"1"}},{"base_weights":[-3.6328677E-3,-3.0472127E-1,1.1229182E-1,-9.81198E-2,-3.905516E-1,-1.430767E-1,3.0062997E-1,-3.2849357E-1,8.714517E-2,-5.17189E-1,-3.3929977E-1,1.8720166E-1,-4.7278276E-1,-9.4862714E-2,3.4213078E-1,-4.0074483E-2,-8.243209E-3,-5.9008E-2,-4.346394E-2,-2.7290413E-2,-3.7927356E-2,-2.183272E-2,9.3622446E-2,-1.0519381E-1,-3.3351064E-2,8.176624E-2,1.8804373E-2],"categories":[],"categories_nodes":[],"categories_segments":[],"categories_sizes":[],"default_left":[0,0,0,0,0,0,0,0,0,0,0,0,0,0,0,0,0,0,0,0,0,0,0,0,0,0,0],"id":31,"left_children":[1,3,5,7,9,11,13,15,-1,17,19,21,23,-1,25,-1,-1,-1,-1,-1,-1,-1,-1,-1,-1,-1,-1],"loss_changes":[5.675253E1,7.9768486E0,5.6507294E1,3.021702E1,1.8949547E0,5.4427E1,3.537189E1,1.9047947E0,0E0,2.850685E-1,5.069351E-1,7.614199E1,1.9814217E1,0E0,4.7840225E1,0E0,0E0,0E0,0E0,0E0,0E0,0E0,0E0,0E0,0E0,0E0,0E0],"parents":[2147483647,0,0,1,1,2,2,3,3,4,4,5,5,6,6,7,7,9,9,10,10,11,11,12,12,14,14],"right_children":[2,4,6,8,10,12,14,16,-1,18,20,22,24,-1,26,-1,-1,-1,-1,-1,-1,-1,-1,-1,-1,-1,-1],"split_conditions":[6E0,2E0,2E0,4E0,2E0,1.7E1,7E0,3E0,8.714517E-2,3E0,4E0,1.3E1,1.8E1,-9.4862714E-2,1.1E1,-4.0074483E-2,-8.243209E-3,-5.9008E-2,-4.346394E-2,-2.7290413E-2,-3.7927356E-2,-2.183272E-2,9.3622446E-2,-1.0519381E-1,-3.3351064E-2,8.176624E-2,1.8804373E-2],"split_indices":[1,0,0,1,1,1,1,1,0,0,0,1,1,0,1,0,0,0,0,0,0,0,0,0,0,0,0],"split_type":[0,0,0,0,0,0,0,0,0,0,0,0,0,0,0,0,0,0,0,0,0,0,0,0,0,0,0],"sum_hessian":[1.624E3,4.51E2,1.173E3,1.33E2,3.18E2,4.98E2,6.75E2,1.08E2,2.5E1,8.9E1,2.29E2,2.49E2,2.49E2,2.1E1,6.54E2,8.3E1,2.5E1,4.4E1,4.5E1,8.9E1,1.4E2,1.62E2,8.7E1,4.7E1,2.02E2,1.59E2,4.95E2],"tree_param":{"num_deleted":"0","num_feature":"2","num_nodes":"27","size_leaf_vector":"1"}},{"base_weights":[-3.3864146E-3,-2.7453423E-1,1.0101069E-1,-8.80179E-2,-3.5202217E-1,2.1977368E-1,-2.6511353E-1,-2.9608735E-1,7.876586E-2,-4.7199735E-1,-3.0280924E-1,1.8599877E-2,3.6040553E-1,-5.3082037E-1,-3.3695318E-2,-3.6114734E-2,-7.4505582E-3,-5.323832E-2,-4.041386E-2,-2.3792755E-2,-3.4161534E-2,1.0084587E-1,-5.0715613E-3,-8.58077E-2,4.131924E-2,-6.795605E-2,-3.524059E-2,1.1797586E-2,-4.070688E-2],"categories":[],"categories_nodes":[],"categories_segments":[],"categories_sizes":[],"default_left":[0,0,0,0,0,0,0,0,0,0,0,0,0,0,0,0,0,0,0,0,0,0,0,0,0,0,0,0,0],"id":32,"left_children":[1,3,5,7,9,11,13,15,-1,17,19,21,23,25,27,-1,-1,-1,-1,-1,-1,-1,-1,-1,-1,-1,-1,-1,-1],"loss_changes":[4.602668E1,6.501667E0,5.1106144E1,2.4648222E1,1.7405548E0,2.508781E1,1.769106E1,1.5444479E0,0E0,1.5773392E-1,4.9529648E-1,2.516334E1,3.3929512E1,3.3165283E0,8.825673E0,0E0,0E0,0E0,0E0,0E0,0E0,0E0,0E0,0E0,0E0,0E0,0E0,0E0,0E0],"parents":[2147483647,0,0,1,1,2,2,3,3,4,4,5,5,6,6,7,7,9,9,10,10,11,11,12,12,13,13,14,14],"right_children":[2,4,6,8,10,12,14,16,-1,18,20,22,24,26,28,-1,-1,-1,-1,-1,-1,-1,-1,-1,-1,-1,-1,-1,-1],"split_conditions":[6E0,2E0,2E1,4E0,3E0,2E0,2E0,3E0,7.876586E-2,2E0,4E0,7E0,7E0,2.2E1,2.2E1,-3.6114734E-2,-7.4505582E-3,-5.323832E-2,-4.041386E-2,-2.3792755E-2,-3.4161534E-2,1.0084587E-1,-5.0715613E-3,-8.58077E-2,4.131924E-2,-6.795605E-2,-3.524059E-2,1.1797586E-2,-4.070688E-2],"split_indices":[1,0,1,1,0,0,0,1,0,1,0,1,1,1,1,0,0,0,0,0,0,0,0,0,0,0,0,0,0],"split_type":[0,0,0,0,0,0,0,0,0,0,0,0,0,0,0,0,0,0,0,0,0,0,0,0,0,0,0,0,0],"sum_hessian":[1.624E3,4.51E2,1.173E3,1.33E2,3.18E2,8.86E2,2.87E2,1.08E2,2.5E1,9E1,2.28E2,3.65E2,5.21E2,1.33E2,1.54E2,8.3E1,2.5E1,4.4E1,4.6E1,8.8E1,1.4E2,2.3E1,3.42E2,2.1E1,5E2,7.1E1,6.2E1,1.1E2,4.4E1],"tree_param":{"num_deleted":"0","num_feature":"2","num_nodes":"29","size_leaf_vector":"1"}},{"base_weights":[-3.1690267E-3,-2.4733832E-1,9.0840936E-2,-7.895351E-2,-3.1729513E-1,1.9785437E-1,-2.3906101E-1,-2.6687843E-1,7.119223E-2,-4.2868468E-1,-2.7232838E-1,1.7001681E-2,3.2428008E-1,-4.785084E-1,-3.051253E-2,-3.2546256E-2,-6.734203E-3,-4.80328E-2,-3.6884483E-2,-3.645837E-2,-2.4728313E-2,9.118154E-2,-4.5658755E-3,-7.761696E-2,3.7195597E-2,-6.1254837E-2,-3.1772457E-2,1.0628424E-2,-3.672665E-2],"categories":[],"categories_nodes":[],"categories_segments":[],"categories_sizes":[],"default_left":[0,0,0,0,0,0,0,0,0,0,0,0,0,0,0,0,0,0,0,0,0,0,0,0,0,0,0,0,0],"id":33,"left_children":[1,3,5,7,9,11,13,15,-1,17,19,21,23,25,27,-1,-1,-1,-1,-1,-1,-1,-1,-1,-1,-1,-1,-1,-1],"loss_changes":[3.732328E1,5.2993565E0,4.1494125E1,2.010578E1,1.4810753E0,2.0275242E1,1.4367081E1,1.2522564E0,0E0,1.0096359E-1,4.4127274E-1,2.0563036E1,2.7675377E1,2.6932735E0,7.1793976E0,0E0,0E0,0E0,0E0,0E0,0E0,0E0,0E0,0E0,0E0,0E0,0E0,0E0,0E0],"parents":[2147483647,0,0,1,1,2,2,3,3,4,4,5,5,6,6,7,7,9,9,10,10,11,11,12,12,13,13,14,14],"right_children":[2,4,6,8,10,12,14,16,-1,18,20,22,24,26,28,-1,-1,-1,-1,-1,-1,-1,-1,-1,-1,-1,-1,-1,-1],"split_conditions":[6E0,2E0,2E1,4E0,2E0,2E0,2E0,3E0,7.119223E-2,3E0,3E0,7E0,7E0,2.2E1,2.2E1,-3.2546256E-2,-6.734203E-3,-4.80328E-2,-3.6884483E-2,-3.645837E-2,-2.4728313E-2,9.118154E-2,-4.5658755E-3,-7.761696E-2,3.7195597E-2,-6.1254837E-2,-3.1772457E-2,1.0628424E-2,-3.672665E-2],"split_indices":[1,0,1,1,1,0,0,1,0,0,0,1,1,1,1,0,0,0,0,0,0,0,0,0,0,0,0,0,0],"split_type":[0,0,0,0,0,0,0,0,0,0,0,0,0,0,0,0,0,0,0,0,0,0,0,0,0,0,0,0,0],"sum_hessian":[1.624E3,4.51E2,1.173E3,1.33E2,3.18E2,8.86E2,2.87E2,1.08E2,2.5E1,8.9E1,2.29E2,3.65E2,5.21E2,1.33E2,1.54E2,8.3E1,2.5E1,4.4E1,4.5E1,4.6E1,1.83E2,2.3E1,3.42E2,2.1E1,5E2,7.1E1,6.2E1,1.1E2,4.4E1],"tree_param":{"num_deleted":"0","num_feature":"2","num_nodes":"29","size_leaf_vector":"1"}},{"base_weights":[-2.9670652E-3,-2.2285703E-1,8.1694975E-2,-7.081999E-2,-2.860235E-1,2.0496856E-1,-1.5465467E-1,-2.4055101E-1,6.434686E-2,-3.8675973E-1,-2.453614E-1,7.593438E-2,5.761276E-1,-1.9015677E-1,3.674396E-2,-2.9330377E-2,-6.086709E-3,-4.333627E-2,-3.327621E-2,-1.834437E-2,-2.831432E-2,-7.375393E-3,3.3574533E-2,1.6176464E-2,1.1187003E-1,-3.7438066E-3,-3.363512E-2],"categories":[],"categories_nodes":[],"categories_segments":[],"categories_sizes":[],"default_left":[0,0,0,0,0,0,0,0,0,0,0,0,0,0,0,0,0,0,0,0,0,0,0,0,0,0,0],"id":34,"left_children":[1,3,5,7,9,11,13,15,-1,17,19,21,23,25,-1,-1,-1,-1,-1,-1,-1,-1,-1,-1,-1,-1,-1],"loss_changes":[3.0269747E1,4.320593E0,3.4236973E1,1.6400536E1,1.2117729E0,3.692903E1,7.5396566E0,1.0153394E0,0E0,8.227348E-2,4.861126E-1,2.2348003E1,4.4558617E1,8.4268675E0,0E0,0E0,0E0,0E0,0E0,0E0,0E0,0E0,0E0,0E0,0E0,0E0,0E0],"parents":[2147483647,0,0,1,1,2,2,3,3,4,4,5,5,6,6,7,7,9,9,10,10,11,11,12,12,13,13],"right_children":[2,4,6,8,10,12,14,16,-1,18,20,22,24,26,-1,-1,-1,-1,-1,-1,-1,-1,-1,-1,-1,-1,-1],"split_conditions":[6E0,2E0,1.8E1,4E0,2E0,1.5E1,3E0,3E0,6.434686E-2,3E0,4E0,3E0,2E0,2.1E1,3.674396E-2,-2.9330377E-2,-6.086709E-3,-4.333627E-2,-3.327621E-2,-1.834437E-2,-2.831432E-2,-7.375393E-3,3.3574533E-2,1.6176464E-2,1.1187003E-1,-3.7438066E-3,-3.363512E-2],"split_indices":[1,0,1,1,1,1,0,1,0,0,0,0,0,1,0,0,0,0,0,0,0,0,0,0,0,0,0],"split_type":[0,0,0,0,0,0,0,0,0,0,0,0,0,0,0,0,0,0,0,0,0,0,0,0,0,0,0],"sum_hessian":[1.624E3,4.51E2,1.173E3,1.33E2,3.18E2,7.71E2,4.02E2,1.08E2,2.5E1,8.9E1,2.29E2,5.73E2,1.98E2,3.77E2,2.5E1,8.3E1,2.5E1,4.4E1,4.5E1,8.9E1,1.4E2,3.64E2,2.09E2,1.13E2,8.5E1,1.85E2,1.92E2],"tree_param":{"num_deleted":"0","num_feature":"2","num_nodes":"27","size_leaf_vector":"1"}},{"base_weights":[-2.6337819E-3,-2.0077994E-1,7.3656425E-2,-6.3521974E-2,-2.578075E-1,1.8467158E-1,-1.3919063E-1,-2.1682082E-1,5.815971E-2,-3.5394484E-1,-2.1847866E-1,6.8386614E-2,5.1915854E-1,-1.0658248E-1,-6.496868E-2,-2.6432244E-2,-5.501483E-3,-3.9098945E-2,-3.1094586E-2,-1.5811691E-2,-2.5502985E-2,2.665848E-2,-1.1226018E-2,9.172087E-2,3.6668086E-3,-1.3841174E-2,3.3210866E-2],"categories":[],"categories_nodes":[],"categories_segments":[],"categories_sizes":[],"default_left":[0,0,0,0,0,0,0,0,0,0,0,0,0,0,0,0,0,0,0,0,0,0,0,0,0,0,0],"id":35,"left_children":[1,3,5,7,9,11,13,15,-1,17,19,21,23,25,-1,-1,-1,-1,-1,-1,-1,-1,-1,-1,-1,-1,-1],"loss_changes":[2.4579285E1,3.5216465E0,2.7766445E1,1.3378168E1,1.1288013E0,2.9992054E1,6.639228E0,8.2323694E-1,0E0,2.3374557E-2,4.6491718E-1,2.0581345E1,3.8185402E1,5.3519893E0,0E0,0E0,0E0,0E0,0E0,0E0,0E0,0E0,0E0,0E0,0E0,0E0,0E0],"parents":[2147483647,0,0,1,1,2,2,3,3,4,4,5,5,6,6,7,7,9,9,10,10,11,11,12,12,13,13],"right_children":[2,4,6,8,10,12,14,16,-1,18,20,22,24,26,-1,-1,-1,-1,-1,-1,-1,-1,-1,-1,-1,-1,-1],"split_conditions":[6E0,2E0,1.8E1,4E0,3E0,1.5E1,2.3E1,3E0,5.815971E-2,2E0,4E0,1.1E1,1.7E1,3E0,-6.496868E-2,-2.6432244E-2,-5.501483E-3,-3.9098945E-2,-3.1094586E-2,-1.5811691E-2,-2.5502985E-2,2.665848E-2,-1.1226018E-2,9.172087E-2,3.6668086E-3,-1.3841174E-2,3.3210866E-2],"split_indices":[1,0,1,1,0,1,1,1,0,1,0,1,1,0,0,0,0,0,0,0,0,0,0,0,0,0,0],"split_type":[0,0,0,0,0,0,0,0,0,0,0,0,0,0,0,0,0,0,0,0,0,0,0,0,0,0,0],"sum_hessian":[1.624E3,4.51E2,1.173E3,1.33E2,3.18E2,7.71E2,4.02E2,1.08E2,2.5E1,9E1,2.28E2,5.73E2,1.98E2,3.79E2,2.3E1,8.3E1,2.5E1,4.4E1,4.6E1,8.8E1,1.4E2,2.73E2,3E2,1.08E2,9E1,3.54E2,2.5E1],"tree_param":{"num_deleted":"0","num_feature":"2","num_nodes":"27","size_leaf_vector":"1"}},{"base_weights":[-2.3825315E-3,-1.5005846E-1,8.1497416E-2,1.4239238E-2,-3.3770832E-1,-3.943451E-2,6.243001E-1,-1.2388264E-1,7.8512305E-1,-1.9681105E-1,-1.01702265E-1,-2.4898611E-1,6.0316484E-2,2.430528E-1,4.2975213E-2,7.4575767E-3,-4.009727E-2,-2.8420238E-2,2.0617895E-1,-2.8474122E-2,-1.737589E-2,-4.2843472E-2,-1.5741093E-2,8.263297E-2,-1.18221445E-2,-5.789874E-2,6.7297935E-2],"categories":[],"categories_nodes":[],"categories_segments":[],"categories_sizes":[],"default_left":[0,0,0,0,0,0,0,0,0,0,0,0,0,0,0,0,0,0,0,0,0,0,0,0,0,0,0],"id":36,"left_children":[1,3,5,7,9,11,13,15,17,19,-1,21,23,-1,25,-1,-1,-1,-1,-1,-1,-1,-1,-1,-1,-1,-1],"loss_changes":[2.0141184E1,1.816394E1,6.8095566E1,3.3637173E1,2.6121058E1,1.776165E1,1.9834656E2,1.4767452E1,6.611422E1,4.1470146E-1,0E0,4.4352093E0,7.887283E1,0E0,5.681447E1,0E0,0E0,0E0,0E0,0E0,0E0,0E0,0E0,0E0,0E0,0E0,0E0],"parents":[2147483647,0,0,1,1,2,2,3,3,4,4,5,5,6,6,7,7,8,8,9,9,11,11,12,12,14,14],"right_children":[2,4,6,8,10,12,14,16,18,20,-1,22,24,-1,26,-1,-1,-1,-1,-1,-1,-1,-1,-1,-1,-1,-1],"split_conditions":[9E0,3E0,3E0,7E0,6E0,1.5E1,1.1E1,2E0,2E0,2E0,-1.01702265E-1,1.1E1,1.7E1,2.430528E-1,1.3E1,7.4575767E-3,-4.009727E-2,-2.8420238E-2,2.0617895E-1,-2.8474122E-2,-1.737589E-2,-4.2843472E-2,-1.5741093E-2,8.263297E-2,-1.18221445E-2,-5.789874E-2,6.7297935E-2],"split_indices":[1,0,0,1,1,1,1,0,0,1,0,1,1,0,1,0,0,0,0,0,0,0,0,0,0,0,0],"split_type":[0,0,0,0,0,0,0,0,0,0,0,0,0,0,0,0,0,0,0,0,0,0,0,0,0,0,0],"sum_hessian":[1.624E3,5.88E2,1.036E3,3.14E2,2.74E2,8.48E2,1.88E2,2.67E2,4.7E1,2.28E2,4.6E1,2.73E2,5.75E2,4.5E1,1.43E2,1.56E2,1.11E2,2.6E1,2.1E1,4.5E1,1.83E2,9.1E1,1.82E2,1.08E2,4.67E2,7.2E1,7.1E1],"tree_param":{"num_deleted":"0","num_feature":"2","num_nodes":"27","size_leaf_vector":"1"}},{"base_weights":[-1.9828621E-3,-1.6523096E-1,6.0870733E-2,-2.8009748E-2,-1.2701899E-1,-1.0208718E-1,1.8107063E-1,-6.645444E-2,-2.1245484E-1,1.2451602E-1,-3.2828203E-1,-6.822113E-2,2.097899E-1,-2.4490185E-2,1.3046946E-3,-1.3617811E-2,-5.978669E-2,-1.9692283E-2,7.1849346E-2,-9.4735175E-2,-1.8028384E-2,5.6233495E-2,9.564274E-3],"categories":[],"categories_nodes":[],"categories_segments":[],"categories_sizes":[],"default_left":[0,0,0,0,0,0,0,0,0,0,0,0,0,0,0,0,0,0,0,0,0,0,0],"id":37,"left_children":[1,3,5,-1,7,9,11,13,15,17,19,-1,21,-1,-1,-1,-1,-1,-1,-1,-1,-1,-1],"loss_changes":[1.6683743E1,1.9483747E0,2.3014236E1,0E0,1.7503471E0,2.5617855E1,1.6903078E1,2.8547451E0,4.0636973E0,4.787334E1,2.2734503E1,0E0,2.630474E1,0E0,0E0,0E0,0E0,0E0,0E0,0E0,0E0,0E0,0E0],"parents":[2147483647,0,0,1,1,2,2,4,4,5,5,6,6,7,7,8,8,9,9,10,10,12,12],"right_children":[2,4,6,-1,8,10,12,14,16,18,20,-1,22,-1,-1,-1,-1,-1,-1,-1,-1,-1,-1],"split_conditions":[6E0,2E0,2E0,-2.8009748E-2,4E0,1.7E1,7E0,3E0,4E0,1.3E1,1.8E1,-6.822113E-2,1.1E1,-2.4490185E-2,1.3046946E-3,-1.3617811E-2,-5.978669E-2,-1.9692283E-2,7.1849346E-2,-9.4735175E-2,-1.8028384E-2,5.6233495E-2,9.564274E-3],"split_indices":[1,1,0,0,0,1,1,1,1,1,1,0,1,0,0,0,0,0,0,0,0,0,0],"split_type":[0,0,0,0,0,0,0,0,0,0,0,0,0,0,0,0,0,0,0,0,0,0,0],"sum_hessian":[1.624E3,4.51E2,1.173E3,1.11E2,3.4E2,4.98E2,6.75E2,2E2,1.4E2,2.49E2,2.49E2,2.1E1,6.54E2,6.1E1,1.39E2,1.18E2,2.2E1,1.62E2,8.7E1,4.7E1,2.02E2,1.59E2,4.95E2],"tree_param":{"num_deleted":"0","num_feature":"2","num_nodes":"23","size_leaf_vector":"1"}},{"base_weights":[-1.9000438E-3,-1.2491457E-1,6.7972146E-2,2.7352089E-2,-2.9887488E-1,-3.776289E-2,5.42581E-1,-9.257541E-2,6.9637746E-1,-1.5931018E-1,-9.725226E-2,-2.3454429E-1,5.5910487E-2,2.1377467E-1,2.924633E-2,8.307513E-3,-3.3797327E-2,-2.3787329E-2,1.8113044E-1,-1.0615879E-2,-1.917298E-2,-4.0536832E-2,-1.4738388E-2,6.972653E-2,-9.358435E-3,-5.313138E-2,5.971858E-2],"categories":[],"categories_nodes":[],"categories_segments":[],"categories_sizes":[],"default_left":[0,0,0,0,0,0,0,0,0,0,0,0,0,0,0,0,0,0,0,0,0,0,0,0,0,0,0],"id":38,"left_children":[1,3,5,7,9,11,13,15,17,19,-1,21,23,-1,25,-1,-1,-1,-1,-1,-1,-1,-1,-1,-1,-1,-1],"loss_changes":[1.3975844E1,1.5609815E1,5.206004E1,2.5338346E1,2.5699862E1,1.5662882E1,1.5470084E2,1.1580021E1,5.0428688E1,3.7424707E-1,0E0,4.019867E0,5.5291687E1,0E0,4.6161736E1,0E0,0E0,0E0,0E0,0E0,0E0,0E0,0E0,0E0,0E0,0E0,0E0],"parents":[2147483647,0,0,1,1,2,2,3,3,4,4,5,5,6,6,7,7,8,8,9,9,11,11,12,12,14,14],"right_children":[2,4,6,8,10,12,14,16,18,20,-1,22,24,-1,26,-1,-1,-1,-1,-1,-1,-1,-1,-1,-1,-1,-1],"split_conditions":[9E0,3E0,3E0,7E0,6E0,1.5E1,1.1E1,2E0,2E0,4E0,-9.725226E-2,1.1E1,1.7E1,2.1377467E-1,1.3E1,8.307513E-3,-3.3797327E-2,-2.3787329E-2,1.8113044E-1,-1.0615879E-2,-1.917298E-2,-4.0536832E-2,-1.4738388E-2,6.972653E-2,-9.358435E-3,-5.313138E-2,5.971858E-2],"split_indices":[1,0,0,1,1,1,1,0,0,0,0,1,1,0,1,0,0,0,0,0,0,0,0,0,0,0,0],"split_type":[0,0,0,0,0,0,0,0,0,0,0,0,0,0,0,0,0,0,0,0,0,0,0,0,0,0,0],"sum_hessian":[1.624E3,5.88E2,1.036E3,3.14E2,2.74E2,8.48E2,1.88E2,2.67E2,4.7E1,2.28E2,4.6E1,2.73E2,5.75E2,4.5E1,1.43E2,1.56E2,1.11E2,2.6E1,2.1E1,8.8E1,1.4E2,9.1E1,1.82E2,1.08E2,4.67E2,7.2E1,7.1E1],"tree_param":{"num_deleted":"0","num_feature":"2","num_nodes":"27","size_leaf_vector":"1"}},{"base_weights":[-1.5683655E-3,-1.7320254E-1,3.9834663E-2,-2.1412204E-1,-1.0366253E-1,9.8919764E-2,-1.7017885E-1,-2.3512473E-2,-6.613798E-3,-9.01387E-3,-1.4856935E-2,-4.6705455E-3,2.4352045E-1,-3.4189147E-1,-2.0632574E-2,1.0641723E-2,-2.469116E-2,1.8271899E-2,7.312192E-2,-4.7662675E-2,-1.8248148E-2,8.209808E-3,-2.7357636E-2],"categories":[],"categories_nodes":[],"categories_segments":[],"categories_sizes":[],"default_left":[0,0,0,0,0,0,0,0,0,0,0,0,0,0,0,0,0,0,0,0,0,0,0],"id":39,"left_children":[1,3,5,7,9,11,13,-1,-1,-1,-1,15,17,19,21,-1,-1,-1,-1,-1,-1,-1,-1],"loss_changes":[1.1554434E1,8.7699604E-1,1.627219E1,5.998459E-1,5.8878303E-2,1.5324891E1,7.3884935E0,0E0,0E0,0E0,0E0,1.6091557E1,1.2528137E1,2.7910948E0,4.0501475E0,0E0,0E0,0E0,0E0,0E0,0E0,0E0,0E0],"parents":[2147483647,0,0,1,1,2,2,3,3,4,4,5,5,6,6,11,11,12,12,13,13,14,14],"right_children":[2,4,6,8,10,12,14,-1,-1,-1,-1,16,18,20,22,-1,-1,-1,-1,-1,-1,-1,-1],"split_conditions":[4E0,4E0,2E1,3E0,3E0,1.3E1,2E0,-2.3512473E-2,-6.613798E-3,-9.01387E-3,-1.4856935E-2,1.1E1,3E0,2.2E1,2.2E1,1.0641723E-2,-2.469116E-2,1.8271899E-2,7.312192E-2,-4.7662675E-2,-1.8248148E-2,8.209808E-3,-2.7357636E-2],"split_indices":[1,0,1,1,1,1,0,0,0,0,0,1,0,1,1,0,0,0,0,0,0,0,0],"split_type":[0,0,0,0,0,0,0,0,0,0,0,0,0,0,0,0,0,0,0,0,0,0,0],"sum_hessian":[1.624E3,3.15E2,1.309E3,1.97E2,1.18E2,1.022E3,2.87E2,1.72E2,2.5E1,9.3E1,2.5E1,5.96E2,4.26E2,1.33E2,1.54E2,4.09E2,1.87E2,3.8E2,4.6E1,7.1E1,6.2E1,1.1E2,4.4E1],"tree_param":{"num_deleted":"0","num_feature":"2","num_nodes":"23","size_leaf_vector":"1"}},{"base_weights":[-1.4495474E-3,-1.081466E-1,5.915413E-2,2.9567076E-2,-2.654981E-1,-3.404073E-2,4.7747838E-1,-7.6220326E-2,6.1959743E-1,-1.3662669E-1,-8.8775456E-2,-2.0893107E-1,4.9212735E-2,1.9182102E-1,1.3928784E-2,8.50502E-3,-3.0160654E-2,-2.2521472E-2,1.6282488E-1,-8.891494E-3,-1.6577365E-2,-3.7579745E-2,-1.2390028E-2,6.100732E-2,-8.152018E-3,-4.5455795E-2,4.8872884E-2],"categories":[],"categories_nodes":[],"categories_segments":[],"categories_sizes":[],"default_left":[0,0,0,0,0,0,0,0,0,0,0,0,0,0,0,0,0,0,0,0,0,0,0,0,0,0,0],"id":40,"left_children":[1,3,5,7,9,11,13,15,17,19,-1,21,23,-1,25,-1,-1,-1,-1,-1,-1,-1,-1,-1,-1,-1,-1],"loss_changes":[1.0514029E1,1.277116E1,4.0444393E1,1.9708828E1,2.1931253E1,1.2371916E1,1.2619707E2,9.766957E0,4.126851E1,3.0371952E-1,0E0,3.8411646E0,4.2283737E1,0E0,3.225316E1,0E0,0E0,0E0,0E0,0E0,0E0,0E0,0E0,0E0,0E0,0E0,0E0],"parents":[2147483647,0,0,1,1,2,2,3,3,4,4,5,5,6,6,7,7,8,8,9,9,11,11,12,12,14,14],"right_children":[2,4,6,8,10,12,14,16,18,20,-1,22,24,-1,26,-1,-1,-1,-1,-1,-1,-1,-1,-1,-1,-1,-1],"split_conditions":[9E0,3E0,3E0,7E0,6E0,1.5E1,1.1E1,2E0,2E0,4E0,-8.8775456E-2,1.1E1,1.7E1,1.9182102E-1,1.3E1,8.50502E-3,-3.0160654E-2,-2.2521472E-2,1.6282488E-1,-8.891494E-3,-1.6577365E-2,-3.7579745E-2,-1.2390028E-2,6.100732E-2,-8.152018E-3,-4.5455795E-2,4.8872884E-2],"split_indices":[1,0,0,1,1,1,1,0,0,0,0,1,1,0,1,0,0,0,0,0,0,0,0,0,0,0,0],"split_type":[0,0,0,0,0,0,0,0,0,0,0,0,0,0,0,0,0,0,0,0,0,0,0,0,0,0,0],"sum_hessian":[1.624E3,5.88E2,1.036E3,3.14E2,2.74E2,8.48E2,1.88E2,2.67E2,4.7E1,2.28E2,4.6E1,2.73E2,5.75E2,4.5E1,1.43E2,1.56E2,1.11E2,2.6E1,2.1E1,8.8E1,1.4E2,9.1E1,1.82E2,1.08E2,4.67E2,7.2E1,7.1E1],"tree_param":{"num_deleted":"0","num_feature":"2","num_nodes":"27","size_leaf_vector":"1"}},{"base_weights":[-1.1797674E-3,2.7475938E-2,-1.862534E-1,-9.732437E-2,1.17085576E-1,-3.2003883E-1,-4.9531836E-2,2.698716E-2,-2.3936367E-1,2.6725626E-2,4.783624E-1,-5.2801546E-2,-1.5650049E-1,8.2300656E-2,-2.3885584E-2,-6.8679014E-3,5.605611E-2,-1.2307521E-2,-8.008678E-2,-1.8822003E-2,1.8002871E-2,1.73056E-1,-9.7002304E-4,6.8241595E-3,-5.245498E-2,5.966437E-3,1.1396031E-2],"categories":[],"categories_nodes":[],"categories_segments":[],"categories_sizes":[],"default_left":[0,0,0,0,0,0,0,0,0,0,0,0,0,0,0,0,0,0,0,0,0,0,0,0,0,0,0],"id":41,"left_children":[1,3,5,7,9,11,13,15,17,19,21,-1,23,25,-1,-1,-1,-1,-1,-1,-1,-1,-1,-1,-1,-1,-1],"loss_changes":[8.623168E0,1.5757497E1,3.9716635E0,1.0406505E1,2.675608E1,3.658702E0,2.7401948E0,1.6117666E1,1.7857956E1,2.1683239E1,1.00245544E2,0E0,5.246914E0,3.978333E-2,0E0,0E0,0E0,0E0,0E0,0E0,0E0,0E0,0E0,0E0,0E0,0E0,0E0],"parents":[2147483647,0,0,1,1,2,2,3,3,4,4,5,5,6,6,7,7,8,8,9,9,10,10,12,12,13,13],"right_children":[2,4,6,8,10,12,14,16,18,20,22,-1,24,26,-1,-1,-1,-1,-1,-1,-1,-1,-1,-1,-1,-1,-1],"split_conditions":[2.1E1,9E0,2E0,3E0,3E0,2.2E1,2.2E1,7E0,6E0,1.5E1,1.1E1,-5.2801546E-2,2.3E1,3E0,-2.3885584E-2,-6.8679014E-3,5.605611E-2,-1.2307521E-2,-8.008678E-2,-1.8822003E-2,1.8002871E-2,1.73056E-1,-9.7002304E-4,6.8241595E-3,-5.245498E-2,5.966437E-3,1.1396031E-2],"split_indices":[1,1,0,0,0,1,1,1,1,1,1,0,1,0,0,0,0,0,0,0,0,0,0,0,0,0,0],"split_type":[0,0,0,0,0,0,0,0,0,0,0,0,0,0,0,0,0,0,0,0,0,0,0,0,0,0,0],"sum_hessian":[1.624E3,1.407E3,2.17E2,5.88E2,8.19E2,1.09E2,1.08E2,3.14E2,2.74E2,6.56E2,1.63E2,4.7E1,6.2E1,6.4E1,4.4E1,2.67E2,4.7E1,2.28E2,4.6E1,2.73E2,3.83E2,4.5E1,1.18E2,3.9E1,2.3E1,3.9E1,2.5E1],"tree_param":{"num_deleted":"0","num_feature":"2","num_nodes":"27","size_leaf_vector":"1"}},{"base_weights":[-1.0475267E-3,-1.3765194E-1,3.1905178E-2,-1.8070848E-1,-6.48549E-2,8.052987E-2,-1.4092456E-1,-1.9760186E-2,-6.1352216E-3,-5.26433E-3,-1.0651009E-2,1.0015672E-1,-5.3041916E-2,-2.7779013E-1,-2.169286E-2,2.8876367E-3,1.944062E-2,-3.931203E-2,-1.41574815E-2,5.707348E-3,-2.155011E-2],"categories":[],"categories_nodes":[],"categories_segments":[],"categories_sizes":[],"default_left":[0,0,0,0,0,0,0,0,0,0,0,0,0,0,0,0,0,0,0,0,0],"id":42,"left_children":[1,3,5,7,9,11,13,-1,-1,-1,-1,15,-1,17,19,-1,-1,-1,-1,-1,-1],"loss_changes":[7.319305E0,9.787464E-1,1.1020316E1,3.8711023E-1,5.492544E-2,1.2319925E1,4.6937633E0,0E0,0E0,0E0,0E0,6.658778E0,0E0,2.04945E0,2.3784623E0,0E0,0E0,0E0,0E0,0E0,0E0],"parents":[2147483647,0,0,1,1,2,2,3,3,4,4,5,5,6,6,11,11,13,13,14,14],"right_children":[2,4,6,8,10,12,14,-1,-1,-1,-1,16,-1,18,20,-1,-1,-1,-1,-1,-1],"split_conditions":[4E0,4E0,2E1,3E0,3E0,4E0,2E0,-1.9760186E-2,-6.1352216E-3,-5.26433E-3,-1.0651009E-2,1.3E1,-5.3041916E-2,2.2E1,2.2E1,2.8876367E-3,1.944062E-2,-3.931203E-2,-1.41574815E-2,5.707348E-3,-2.155011E-2],"split_indices":[1,0,1,1,1,0,0,0,0,0,0,1,0,1,1,0,0,0,0,0,0],"split_type":[0,0,0,0,0,0,0,0,0,0,0,0,0,0,0,0,0,0,0,0,0],"sum_hessian":[1.624E3,3.15E2,1.309E3,1.97E2,1.18E2,1.022E3,2.87E2,1.72E2,2.5E1,9.3E1,2.5E1,9.91E2,3.1E1,1.33E2,1.54E2,5.65E2,4.26E2,7.1E1,6.2E1,1.1E2,4.4E1],"tree_param":{"num_deleted":"0","num_feature":"2","num_nodes":"21","size_leaf_vector":"1"}},{"base_weights":[-1.0299461E-3,-1.24019116E-1,2.8638456E-2,-1.627685E-1,-5.8503184E-2,7.2447084E-2,-1.2707287E-1,-1.7795596E-2,-5.545316E-3,-4.743503E-3,-9.626871E-3,9.016379E-2,-4.790349E-2,-2.5041005E-1,-1.9626051E-2,2.5993749E-3,1.7501175E-2,-3.5435427E-2,-1.2764193E-2,5.1417174E-3,-1.9442987E-2],"categories":[],"categories_nodes":[],"categories_segments":[],"categories_sizes":[],"default_left":[0,0,0,0,0,0,0,0,0,0,0,0,0,0,0,0,0,0,0,0,0],"id":43,"left_children":[1,3,5,7,9,11,13,-1,-1,-1,-1,15,-1,17,19,-1,-1,-1,-1,-1,-1],"loss_changes":[5.933001E0,7.9270744E-1,8.94537E0,3.1284142E-1,4.5174897E-2,1.0038359E1,3.8117151E0,0E0,0E0,0E0,0E0,5.39659E0,0E0,1.6647491E0,1.934884E0,0E0,0E0,0E0,0E0,0E0,0E0],"parents":[2147483647,0,0,1,1,2,2,3,3,4,4,5,5,6,6,11,11,13,13,14,14],"right_children":[2,4,6,8,10,12,14,-1,-1,-1,-1,16,-1,18,20,-1,-1,-1,-1,-1,-1],"split_conditions":[4E0,4E0,2E1,3E0,3E0,4E0,2E0,-1.7795596E-2,-5.545316E-3,-4.743503E-3,-9.626871E-3,1.3E1,-4.790349E-2,2.2E1,2.2E1,2.5993749E-3,1.7501175E-2,-3.5435427E-2,-1.2764193E-2,5.1417174E-3,-1.9442987E-2],"split_indices":[1,0,1,1,1,0,0,0,0,0,0,1,0,1,1,0,0,0,0,0,0],"split_type":[0,0,0,0,0,0,0,0,0,0,0,0,0,0,0,0,0,0,0,0,0],"sum_hessian":[1.624E3,3.15E2,1.309E3,1.97E2,1.18E2,1.022E3,2.87E2,1.72E2,2.5E1,9.3E1,2.5E1,9.91E2,3.1E1,1.33E2,1.54E2,5.65E2,4.26E2,7.1E1,6.2E1,1.1E2,4.4E1],"tree_param":{"num_deleted":"0","num_feature":"2","num_nodes":"21","size_leaf_vector":"1"}},{"base_weights":[-1.0059195E-3,-7.154643E-2,4.3845795E-2,4.8068423E-2,-2.545102E-1,-1.2714966E-1,1.6213033E-1,-8.415871E-2,4.9228618E-1,-9.091348E-2,-9.846835E-2,2.0487247E-2,-1.9808987E-1,6.873686E-1,6.3321285E-2,1.0346032E-2,-2.9395891E-2,3.203064E-2,9.128631E-2,5.8988284E-2,-1.811346E-2,-2.5343677E-2,1.4140783E-1,-8.849581E-3,-7.278548E-2,-1.592927E-2,1.5558985E-1,-1.947363E-2,1.4439411E-2],"categories":[],"categories_nodes":[],"categories_segments":[],"categories_sizes":[],"default_left":[0,0,0,0,0,0,0,0,0,0,0,0,0,0,0,0,0,0,0,0,0,0,0,0,0,0,0,0,0],"id":44,"left_children":[1,3,5,7,9,11,13,15,17,-1,19,21,23,25,27,-1,-1,-1,-1,-1,-1,-1,-1,-1,-1,-1,-1,-1,-1],"loss_changes":[5.144414E0,1.3843669E1,2.0125374E1,2.2537947E1,2.5447685E1,4.26673E0,3.0472668E1,1.1681716E1,6.07271E0,0E0,1.1658242E1,5.1129547E1,1.5901838E1,6.8635445E1,1.0405163E1,0E0,0E0,0E0,0E0,0E0,0E0,0E0,0E0,0E0,0E0,0E0,0E0,0E0,0E0],"parents":[2147483647,0,0,1,1,2,2,3,3,4,4,5,5,6,6,7,7,8,8,10,10,11,11,12,12,13,13,14,14],"right_children":[2,4,6,8,10,12,14,16,18,-1,20,22,24,26,28,-1,-1,-1,-1,-1,-1,-1,-1,-1,-1,-1,-1,-1,-1],"split_conditions":[2E0,1.7E1,9E0,1.3E1,1.8E1,3E0,1.1E1,7E0,1.6E1,-9.091348E-2,1.9E1,7E0,6E0,3E0,1.3E1,1.0346032E-2,-2.9395891E-2,3.203064E-2,9.128631E-2,5.8988284E-2,-1.811346E-2,-2.5343677E-2,1.4140783E-1,-8.849581E-3,-7.278548E-2,-1.592927E-2,1.5558985E-1,-1.947363E-2,1.4439411E-2],"split_indices":[0,1,1,1,1,0,1,1,1,0,1,1,1,0,1,0,0,0,0,0,0,0,0,0,0,0,0,0,0],"split_type":[0,0,0,0,0,0,0,0,0,0,0,0,0,0,0,0,0,0,0,0,0,0,0,0,0,0,0,0,0],"sum_hessian":[1.624E3,6.31E2,9.93E2,3.82E2,2.49E2,4.06E2,5.87E2,2.95E2,8.7E1,4.7E1,2.02E2,1.32E2,2.74E2,9.2E1,4.95E2,1.56E2,1.39E2,6.3E1,2.4E1,2.1E1,1.81E2,1.11E2,2.1E1,2.28E2,4.6E1,4.7E1,4.5E1,1.18E2,3.77E2],"tree_param":{"num_deleted":"0","num_feature":"2","num_nodes":"29","size_leaf_vector":"1"}},{"base_weights":[-7.6771795E-4,2.0379124E-2,-1.3734563E-1,-3.5287883E-2,1.2248764E-1,-1.0048423E-1,-4.311218E-2,-1.1259217E-2,-4.245212E-1,7.6362774E-2,5.6248397E-2,-1.2729569E-1,7.868621E-3,-6.4927335E-3,1.04997335E-2,-6.0307354E-2,-2.8850019E-2,-2.319846E-2,1.307671E-2,-1.9920658E-2,-5.1301112E-3],"categories":[],"categories_nodes":[],"categories_segments":[],"categories_sizes":[],"default_left":[0,0,0,0,0,0,0,0,0,0,0,0,0,0,0,0,0,0,0,0,0],"id":45,"left_children":[1,3,5,7,9,11,-1,13,15,17,-1,19,-1,-1,-1,-1,-1,-1,-1,-1,-1],"loss_changes":[4.69611E0,8.007501E0,2.3174014E0,8.524936E0,1.0043549E1,9.4676125E-1,0E0,5.372589E0,1.1132174E0,7.5960536E0,0E0,9.18803E-1,0E0,0E0,0E0,0E0,0E0,0E0,0E0,0E0,0E0],"parents":[2147483647,0,0,1,1,2,2,3,3,4,4,5,5,7,7,8,8,9,9,11,11],"right_children":[2,4,6,8,10,12,-1,14,16,18,-1,20,-1,-1,-1,-1,-1,-1,-1,-1,-1],"split_conditions":[2.1E1,1.3E1,2.3E1,1.2E1,3E0,3E0,-4.311218E-2,9E0,2E0,1.5E1,5.6248397E-2,2.2E1,7.868621E-3,-6.4927335E-3,1.04997335E-2,-6.0307354E-2,-2.8850019E-2,-2.319846E-2,1.307671E-2,-1.9920658E-2,-5.1301112E-3],"split_indices":[1,1,1,1,0,0,0,1,0,1,0,1,0,0,0,0,0,0,0,0,0],"split_type":[0,0,0,0,0,0,0,0,0,0,0,0,0,0,0,0,0,0,0,0,0],"sum_hessian":[1.624E3,1.407E3,2.17E2,9.11E2,4.96E2,1.94E2,2.3E1,8.59E2,5.2E1,4.5E2,4.6E1,1.69E2,2.5E1,5.88E2,2.71E2,2.1E1,3.1E1,6.7E1,3.83E2,8.6E1,8.3E1],"tree_param":{"num_deleted":"0","num_feature":"2","num_nodes":"21","size_leaf_vector":"1"}},{"base_weights":[-7.521241E-4,2.8269304E-2,-8.882273E-2,-1.8947158E-2,2.713276E-1,-6.9579534E-2,-3.898058E-2,-1.0070675E-1,1.7468303E-2,-1.01929665E-1,7.6295555E-1,-7.968829E-2,7.112001E-3,-1.3814977E-2,-3.7560307E-3,3.751718E-3,-4.0848967E-2,4.2328585E-2,-8.329194E-2,4.6651687E-2,1.0353171E-1,-4.2678863E-3,-1.1708606E-2],"categories":[],"categories_nodes":[],"categories_segments":[],"categories_sizes":[],"default_left":[0,0,0,0,0,0,0,0,0,0,0,0,0,0,0,0,0,0,0,0,0,0,0],"id":46,"left_children":[1,3,5,7,9,11,-1,13,15,17,19,21,-1,-1,-1,-1,-1,-1,-1,-1,-1,-1,-1],"loss_changes":[4.155905E0,1.4040722E1,2.3070037E0,3.053505E0,3.6595005E1,5.4614055E-1,0E0,7.419596E-1,6.078709E0,4.412026E1,6.460518E0,4.8634768E-1,0E0,0E0,0E0,0E0,0E0,0E0,0E0,0E0,0E0,0E0,0E0],"parents":[2147483647,0,0,1,1,2,2,3,3,4,4,5,5,7,7,8,8,9,9,10,10,11,11],"right_children":[2,4,6,8,10,12,-1,14,16,18,20,22,-1,-1,-1,-1,-1,-1,-1,-1,-1,-1,-1],"split_conditions":[1.8E1,1.5E1,2.3E1,4E0,2E0,3E0,-3.898058E-2,4E0,4E0,1.7E1,1.6E1,2E0,7.112001E-3,-1.3814977E-2,-3.7560307E-3,3.751718E-3,-4.0848967E-2,4.2328585E-2,-8.329194E-2,4.6651687E-2,1.0353171E-1,-4.2678863E-3,-1.1708606E-2],"split_indices":[1,1,1,1,0,0,0,0,0,1,1,0,0,0,0,0,0,0,0,0,0,0,0],"split_type":[0,0,0,0,0,0,0,0,0,0,0,0,0,0,0,0,0,0,0,0,0,0,0],"sum_hessian":[1.624E3,1.222E3,4.02E2,1.024E3,1.98E2,3.79E2,2.3E1,3.15E2,7.09E2,1.13E2,8.5E1,3.54E2,2.5E1,1.97E2,1.18E2,6.78E2,3.1E1,6.6E1,4.7E1,4.2E1,4.3E1,1.79E2,1.75E2],"tree_param":{"num_deleted":"0","num_feature":"2","num_nodes":"23","size_leaf_vector":"1"}},{"base_weights":[-6.72789E-4,2.548702E-2,-8.005933E-2,-1.7105801E-2,2.4474408E-1,-6.2645055E-2,-3.524495E-2,-9.069168E-2,1.566919E-2,-9.209559E-2,6.884066E-1,-7.1764655E-2,6.4282054E-3,-1.2440463E-2,-3.3835762E-3,3.3770967E-3,-3.6891755E-2,3.815897E-2,-7.513627E-2,4.209499E-2,9.341392E-2,-3.932249E-3,-1.0683807E-2],"categories":[],"categories_nodes":[],"categories_segments":[],"categories_sizes":[],"default_left":[0,0,0,0,0,0,0,0,0,0,0,0,0,0,0,0,0,0,0,0,0,0,0],"id":47,"left_children":[1,3,5,7,9,11,-1,13,15,17,19,21,-1,-1,-1,-1,-1,-1,-1,-1,-1,-1,-1],"loss_changes":[3.3767374E0,1.142551E1,1.8895419E0,2.473492E0,2.9802586E1,4.444728E-1,0E0,6.014931E-1,4.9552674E0,3.588722E1,5.258938E0,3.997382E-1,0E0,0E0,0E0,0E0,0E0,0E0,0E0,0E0,0E0,0E0,0E0],"parents":[2147483647,0,0,1,1,2,2,3,3,4,4,5,5,7,7,8,8,9,9,10,10,11,11],"right_children":[2,4,6,8,10,12,-1,14,16,18,20,22,-1,-1,-1,-1,-1,-1,-1,-1,-1,-1,-1],"split_conditions":[1.8E1,1.5E1,2.3E1,4E0,2E0,3E0,-3.524495E-2,4E0,4E0,1.7E1,1.6E1,2.1E1,6.4282054E-3,-1.2440463E-2,-3.3835762E-3,3.3770967E-3,-3.6891755E-2,3.815897E-2,-7.513627E-2,4.209499E-2,9.341392E-2,-3.932249E-3,-1.0683807E-2],"split_indices":[1,1,1,1,0,0,0,0,0,1,1,1,0,0,0,0,0,0,0,0,0,0,0],"split_type":[0,0,0,0,0,0,0,0,0,0,0,0,0,0,0,0,0,0,0,0,0,0,0],"sum_hessian":[1.624E3,1.222E3,4.02E2,1.024E3,1.98E2,3.79E2,2.3E1,3.15E2,7.09E2,1.13E2,8.5E1,3.54E2,2.5E1,1.97E2,1.18E2,6.78E2,3.1E1,6.6E1,4.7E1,4.2E1,4.3E1,1.85E2,1.69E2],"tree_param":{"num_deleted":"0","num_feature":"2","num_nodes":"23","size_leaf_vector":"1"}},{"base_weights":[-6.0227443E-4,2.297815E-2,-7.216122E-2,-1.5443842E-2,2.207649E-1,-5.6402154E-2,-3.1867307E-2,-5.3974364E-2,3.6317326E-2,-8.321007E-2,6.2114143E-1,-6.462946E-2,5.810151E-3,4.997198E-3,-1.7327774E-2,-1.6083675E-2,3.666896E-2,3.4400087E-2,-6.777918E-2,3.7983384E-2,8.428479E-2,-3.1298741E-3,-9.835049E-3],"categories":[],"categories_nodes":[],"categories_segments":[],"categories_sizes":[],"default_left":[0,0,0,0,0,0,0,0,0,0,0,0,0,0,0,0,0,0,0,0,0,0,0],"id":48,"left_children":[1,3,5,7,9,11,-1,13,15,17,19,21,-1,-1,-1,-1,-1,-1,-1,-1,-1,-1,-1],"loss_changes":[2.7436676E0,9.297428E0,1.5475996E0,2.0462046E0,2.427087E1,3.6173666E-1,0E0,7.3005342E0,2.858777E1,2.9190512E1,4.2808075E0,3.9592242E-1,0E0,0E0,0E0,0E0,0E0,0E0,0E0,0E0,0E0,0E0,0E0],"parents":[2147483647,0,0,1,1,2,2,3,3,4,4,5,5,7,7,8,8,9,9,10,10,11,11],"right_children":[2,4,6,8,10,12,-1,14,16,18,20,22,-1,-1,-1,-1,-1,-1,-1,-1,-1,-1,-1],"split_conditions":[1.8E1,1.5E1,2.3E1,3E0,2E0,3E0,-3.1867307E-2,9E0,9E0,1.7E1,1.6E1,2E0,5.810151E-3,4.997198E-3,-1.7327774E-2,-1.6083675E-2,3.666896E-2,3.4400087E-2,-6.777918E-2,3.7983384E-2,8.428479E-2,-3.1298741E-3,-9.835049E-3],"split_indices":[1,1,1,0,0,0,0,1,1,1,1,0,0,0,0,0,0,0,0,0,0,0,0],"split_type":[0,0,0,0,0,0,0,0,0,0,0,0,0,0,0,0,0,0,0,0,0,0,0],"sum_hessian":[1.624E3,1.222E3,4.02E2,1.024E3,1.98E2,3.79E2,2.3E1,5.87E2,4.37E2,1.13E2,8.5E1,3.54E2,2.5E1,3.14E2,2.73E2,2.74E2,1.63E2,6.6E1,4.7E1,4.2E1,4.3E1,1.79E2,1.75E2],"tree_param":{"num_deleted":"0","num_feature":"2","num_nodes":"23","size_leaf_vector":"1"}},{"base_weights":[-5.0625193E-4,1.4203523E-2,-9.5510185E-2,-2.4710454E-2,8.558249E-2,-1.682051E-1,-2.1272104E-2,-2.1132068E-3,-3.9091653E-1,4.5897715E-2,4.645665E-2,-3.48177E-2,-2.8413735E-2,7.025846E-2,-1.5301021E-2,-4.355046E-3,8.762449E-3,-5.3577323E-2,-2.7911145E-2,-1.9907812E-2,8.915933E-3,1.2812856E-2,-2.8813366E-2,8.003513E-3,5.2515175E-3],"categories":[],"categories_nodes":[],"categories_segments":[],"categories_sizes":[],"default_left":[0,0,0,0,0,0,0,0,0,0,0,0,0,0,0,0,0,0,0,0,0,0,0,0,0],"id":49,"left_children":[1,3,5,7,9,11,13,15,17,19,-1,-1,21,23,-1,-1,-1,-1,-1,-1,-1,-1,-1,-1,-1],"loss_changes":[2.272272E0,3.913031E0,1.1729093E0,7.5462008E0,7.4535036E0,2.757544E0,1.3250792E0,3.2017121E0,7.0883274E-1,4.7974696E0,0E0,0E0,2.5983188E0,7.0725083E-3,0E0,0E0,0E0,0E0,0E0,0E0,0E0,0E0,0E0,0E0,0E0],"parents":[2147483647,0,0,1,1,2,2,3,3,4,4,5,5,6,6,7,7,8,8,9,9,12,12,13,13],"right_children":[2,4,6,8,10,12,14,16,18,20,-1,-1,22,24,-1,-1,-1,-1,-1,-1,-1,-1,-1,-1,-1],"split_conditions":[2.1E1,1.3E1,2E0,1.2E1,3E0,2.2E1,2.2E1,9E0,2E0,1.5E1,4.645665E-2,-3.48177E-2,2.3E1,3E0,-1.5301021E-2,-4.355046E-3,8.762449E-3,-5.3577323E-2,-2.7911145E-2,-1.9907812E-2,8.915933E-3,1.2812856E-2,-2.8813366E-2,8.003513E-3,5.2515175E-3],"split_indices":[1,1,0,1,0,1,1,1,0,1,0,0,1,0,0,0,0,0,0,0,0,0,0,0,0],"split_type":[0,0,0,0,0,0,0,0,0,0,0,0,0,0,0,0,0,0,0,0,0,0,0,0,0],"sum_hessian":[1.624E3,1.407E3,2.17E2,9.11E2,4.96E2,1.09E2,1.08E2,8.59E2,5.2E1,4.5E2,4.6E1,4.7E1,6.2E1,6.4E1,4.4E1,5.88E2,2.71E2,2.1E1,3.1E1,6.7E1,3.83E2,3.9E1,2.3E1,3.9E1,2.5E1],"tree_param":{"num_deleted":"0","num_feature":"2","num_nodes":"25","size_leaf_vector":"1"}}]},"name":"gbtree"},"learner_model_param":{"base_score":"[1.3248769E1]","boost_from_average":"1","num_class":"0","num_feature":"2","num_target":"1"},"objective":{"name":"reg:squarederror","reg_loss_param":{"scale_pos_weight":"1"}}},"version":[3,2,1]}